1.235073639414167119e-04
-3.114674837002394262e-04
-3.919742619659780016e-04
8.135593822294863919e-04
1.134413312547898880e-05
6.587973338347873976e-05
-3.250607629762691813e-05
9.024562461375675428e-05
7.525447595561479686e-04
1.617362833306314695e-04
1.042349067457016458e-03
5.185979035932315376e-05
-1.895928971980835294e-03
-2.096783617159770482e-06
2.566493713455754531e-04
-1.384315120390780139e-03
1.554468763559930383e-03
-2.442318795042209764e-03
5.546225389355080408e-04
-1.501104729239400411e-05
2.164295411319551443e-03
6.784856094945865756e-04
1.046354229526864411e-04
-1.191230343416915501e-03
-1.269301719049659085e-04
1.128585069397172914e-04
-6.096477714386784125e-05
1.957952829454628679e-04
-4.807107886001485311e-04
-1.477029033712519521e-04
1.800325925265356221e-04
-1.074311978325263704e-04
-5.515997974947740509e-04
-8.746708664100361899e-04
-4.568979048777536186e-04
8.488890505949405873e-04
7.366663703461556495e-05
8.324450135677549005e-06
-1.768954566918515649e-04
-6.163281949559667062e-04
1.669858281548537065e-03
-1.496636961782567624e-03
1.999527808446473903e-03
-3.511900313509123267e-03
8.271459067518478379e-05
-9.627278848833176889e-04
-1.039704614418608024e-03
1.108415123378885848e-03
9.316509250222205097e-04
8.434999563303215695e-05
6.193065486338568469e-05
-2.672420730002319990e-04
2.448924853856154619e-05
2.311605405761246376e-04
1.981303332651261368e-03
1.372232576671116977e-04
5.078017186306166625e-06
-1.224007678455940780e-03
-7.418277107873181338e-04
6.693759914068913089e-04
-8.010330999349398124e-04
-4.972620626621428869e-04
-1.078499164231619097e-03
2.782578343469817653e-04
