1.318089754544267134e+00 3.574636285304969019e-01 -9.830438912248321559e-01 2.356650102759058896e-01 6.967819614677844831e-01 7.472885456200687448e-01 1.463126761576757362e+00 -3.384922527859117736e-01 8.048136433626864594e-01 5.986228061369660777e-03 1.263290356611566301e+00 2.060972195886968894e+00 -1.691587691729271592e-01 3.245108487384449902e-01 7.845933825856853394e-01 1.289946948426866413e+00 7.049603243536370911e-01 -2.180727852556149648e-01 9.353517108553787152e-01 -4.922142472500599664e-01 -1.612512393929512511e+00 5.044683667986281650e-01 6.331447811634293155e-01 2.230561964136755504e-01 2.668010537200023458e-01 1.164017769492364129e+00 3.793480086704413279e-01 -8.124272990693195418e-01 1.136358817220123107e+00 -8.051253817113760425e-01 4.542305599795380400e-01 -5.750228737522270483e-01
-7.270693990918712935e-01 9.493198602902536143e-02 -6.142872917444808234e-01 -8.047298460549215937e-01 -4.319921178722628263e-01 5.699085471567683081e-01 1.183409501297789657e+00 -2.347183781999424290e-01 5.132438791887553586e-01 4.094090178815235626e-01 1.184388050042265217e+00 -1.431690413069749646e+00 9.828464346152360198e-01 -1.318058776662399748e-02 -1.095598175173774003e+00 1.709816082068570831e+00 -1.138954580645380188e-01 2.113127855707448155e-01 -8.442559482041230856e-01 -6.508970747625977271e-01 1.714979003422146597e+00 8.222086507513625131e-01 -7.809854527474812125e-01 -1.063587262160489377e+00 -8.996934632688288747e-02 -5.882236133997807981e-01 -2.402065521835921591e-01 2.096271357476025443e+00 4.299413266670401024e-01 -1.140556794617767045e+00 -9.502946223618602417e-02 -1.194945628087636047e+00
-2.452658605649887247e-01 -1.333668684764161005e-01 6.625174255583786698e-01 -2.462700407774091604e-01 1.262412460326830965e+00 -4.696267529230253590e-01 -1.319179644747977775e+00 -1.425632709405461274e+00 7.429954636773463683e-01 -1.540530103403980000e+00 3.472511177420902762e-01 8.184381434913672315e-01 2.745736819178524191e-01 1.272740882291675479e+00 9.845545687545969038e-01 -1.378004055097209468e+00 -1.032730368962726075e+00 -4.621616756767975009e-01 6.977443477990938892e-01 1.102223793107310890e+00 2.174297052313939993e+00 1.102122014768522895e+00 1.988578158278677677e-01 -1.143782383630034039e+00 5.232080858845091775e-01 -3.132016193478386751e-02 -3.182385921339435375e-02 6.554156069557187658e-01 -3.800599152667812675e+00 3.495117242808832847e-01 1.325367861262408242e+00 -3.921691521223200083e-01
8.095375490130939378e-01 -1.395558989908991743e+00 2.141794461914576786e+00 -8.736904547997931259e-02 -9.826056944026410542e-03 -1.446378383303419946e-01 -7.939985494662864518e-01 -5.713583487166636055e-02 -4.858696544169283094e-01 1.278887015219205558e+00 -1.175093152290872300e+00 -6.488646257765030567e-01 4.721564968250748784e-01 -1.171928089952113616e+00 -5.159244660361150814e-01 5.035572039869582461e-01 -5.221254640603531852e-03 1.075715342711887956e+00 7.683424958568811913e-01 -1.236274181408697936e+00 1.061363359613947788e+00 1.097874393677629179e+00 2.980396741015238216e-01 -8.021913058378106198e-01 -7.885818585143681281e-01 -1.357273107647100296e+00 2.015882753175419317e+00 1.860085328419002204e+00 7.185002625194878423e-01 -1.489818710369134325e-01 1.272023581050881091e+00 1.540039712928502336e-01
2.001287618068813945e+00 -6.419697888168004463e-01 -3.288942245199279885e-02 -2.458686670867602786e-01 -8.199338304739831607e-01 6.726996316962359224e-01 -5.784197121171650302e-01 -1.624854861013127483e+00 -9.564688391466767969e-01 1.815255060430242207e+00 1.182674810109095587e+00 1.137874198946221105e+00 -1.752622055636563703e+00 -1.001373996001037048e+00 -1.670480118522588708e-01 6.531819564793095445e-02 5.146872089653068416e-01 -1.277138013418604556e+00 3.521165192950465039e-01 3.001856474035407563e-01 -7.590366535385160984e-02 -1.755052792475184198e+00 6.758823724420460755e-01 -9.045252718028357064e-01 2.031030125024208211e+00 8.523138288637330251e-02 1.807362137606890184e-01 9.030889349673426603e-01 6.433658357095474178e-01 7.714633470667331405e-01 1.012715706857850950e+00 -6.684627059917294667e-02
9.923196253154111801e-01 8.772475493499973243e-02 -1.782423974924217891e+00 5.539662468816557439e-01 -2.440618271136725248e-01 1.851100852342636438e-01 1.511111905187561832e-01 7.938618495870819469e-01 7.494556672345387138e-01 1.432465183065714465e+00 5.377563392878528109e-02 -5.810229812181411102e-01 1.878500800472293619e+00 -5.325347218854940001e-01 -2.256442378326774634e+00 3.749093768160630114e-02 2.093099626007424607e+00 -1.864411120474506189e+00 7.560198600590697926e-02 -1.176741904793278559e+00 5.267703706341360093e-01 2.824023990413222496e+00 -6.456054612038439888e-01 -6.247621636065675554e-01 1.462225540850308481e-01 6.574882126285600537e-01 -4.646217672608483062e-01 2.354264896343518931e-01 8.123915593948065617e-01 3.014864406773281047e-01 2.082176741214066595e+00 -1.792155520668500923e+00
6.879234332078735248e-01 5.430261633193216309e-01 -4.313396974911171688e-01 9.537487222260752073e-01 -8.345595242115083634e-01 -3.034628042445773888e-01 -1.336950132023698057e+00 4.634415064110945504e-01 1.337098297871878616e+00 8.719124305260159691e-01 -7.173478195132805268e-01 -3.437371817722065237e-01 5.592594394990642037e-01 3.813150992642228010e-01 9.210227363481410245e-01 -2.577708716636395447e+00 1.006988339467843829e+00 2.220069378980696673e+00 8.587953905955785228e-01 6.883673728273628223e-01 9.544369785266783313e-02 -2.164914310204763659e+00 -7.832386726154801915e-01 -1.295962383695078213e+00 -2.362712770109852423e-01 8.699138405355784087e-01 -1.078803954548463562e+00 -4.504614555878819204e-03 5.558050835424269698e-01 -7.116779480401937974e-01 -9.550111082386906203e-01 -9.207200547078443487e-01
-2.364791992472623505e+00 4.885460526795382119e-01 6.281366286808293120e-01 1.025836752233051818e+00 -4.379831177023942312e-01 -1.137008647204994949e+00 6.663732332789872315e-01 1.707082116000767646e-01 9.773915579911100771e-02 6.534844582493037901e-01 -9.270324657867728968e-02 6.476214213390364405e-01 -7.230617896617353990e-01 3.829424492281108261e-01 -7.370831499096840433e-01 -6.426154042450967774e-01 5.575764508541020126e-01 -2.442902416012187050e+00 -3.420614662459408040e-01 9.815957732615032683e-01 -7.762625597213573814e-01 1.020089780225752890e-01 -1.303999795667923900e+00 1.941520219524622615e+00 6.834855169913155448e-01 1.072579119144955184e-01 -5.016572265104860540e-01 -1.339061791947151914e+00 7.516119976495885258e-01 -7.522617008304469666e-01 2.377831209742735208e+00 4.808715456777293840e-01
4.527452353576956190e-01 -1.573499867005605957e+00 -4.764289475560266607e-01 -1.496960809488946831e+00 -3.404746909534868138e-01 -1.046695659405742163e+00 1.264730525035400177e+00 1.276839041305823708e+00 8.066761826506352318e-01 -2.198567075081897249e-01 5.371377166772153822e-02 -9.011615295210729792e-01 5.289994811922620332e-01 -1.812364189596993969e+00 -1.203393189859855772e+00 -4.422380521867462499e-03 -9.016898426449211357e-01 -4.152479708113171464e-01 1.334175946954159864e+00 1.659318303251276217e-01 -2.827400477843765580e-01 3.028128529388546264e-01 8.563687670791985118e-01 7.562771414551622273e-01 1.176803544849383876e+00 2.948852841384209666e-01 1.533995687909794903e+00 -1.614508877238110540e-01 1.219768653515758139e+00 -3.885214241837292026e-01 1.752048835704035357e+00 1.113528037456686381e-01
-1.214347204831070615e+00 2.308781982752172168e-01 -8.980982174878585078e-02 6.273783221403536059e-01 9.163439710331587884e-01 -3.509165341978293107e-01 1.052760376895598426e+00 -1.287686727922276564e+00 -8.855646191925351518e-01 -3.079880312248311491e-01 -1.431322771228507706e+00 -1.202572210708721778e+00 2.342082265990227674e-01 -1.854970774913816123e-01 5.138008001141202152e-01 -1.850665357239837494e+00 1.210302937945665125e+00 1.020790993120593154e-01 -1.195203820032623376e+00 -5.151614186595551148e-01 4.252724266911530604e-01 -6.365519909398107412e-01 1.114050376981386981e+00 1.243102557829144084e-01 -3.682652028064141159e-01 2.286643270551880214e+00 -6.081595134802975089e-01 -6.380493732820046171e-01 3.394057050723477520e+00 -1.132096406885219619e-01 -6.149289244121695086e-01 -2.859058680246954753e-01
1.883845760799623736e+00 1.577004726569527726e+00 -1.587419359460736090e-01 1.050608411556970934e+00 -7.857461634770671055e-02 9.170489255641594006e-01 6.971636125349741642e-01 1.107065177919558607e+00 -1.718770818262691791e-01 2.548470042171042671e-01 -8.393185672479200887e-01 -1.266076622514024641e-01 -2.970220476779702468e-01 -1.983386107744268045e+00 1.949894133377856331e-01 -1.824328499430749373e+00 5.803088241859746255e-01 7.525362159735524692e-01 -3.859460040117639879e-01 -3.547803449853332847e-01 5.498187064527605417e-01 -7.515984107598363551e-01 9.890130522897738752e-01 1.181720595845327404e+00 2.068682021205304200e-01 -1.146729429761982472e-01 -8.287510877433019729e-01 6.027078745364204959e-01 -5.580073458015033516e-01 -5.175464701399195427e-02 -1.635415448243251024e+00 3.016718347322129290e+00
6.075322759561311292e-01 -8.376863559169267504e-01 -7.874742022711458400e-01 -6.127578453103230682e-01 1.516793045977377297e+00 9.923280086190978955e-02 -1.551528183969253627e+00 -1.842343459510925319e-01 1.355790435861063292e+00 1.057680128295069855e+00 -5.503445103845784336e-01 2.066982422286445520e-01 3.192957833976232118e-01 -4.024106812247565945e-01 -1.311804323850533693e+00 1.453860510445179610e+00 2.522129740448951843e-02 -2.032772768355959325e+00 1.930902409657085261e+00 4.146039508456996203e-01 -2.225993541148026278e+00 -8.876353831492583835e-01 5.335711828344755769e-01 -2.785026318256617062e-02 -1.129969808735931558e+00 6.497897466173007119e-01 -1.079325562095613478e+00 2.107517597838597379e+00 -1.786845190131652328e-01 -7.063714922508048666e-01 -1.563560446101850188e+00 3.597534320770064964e-01
1.526288664604312117e+00 9.048673455950060340e-01 1.042688183929712187e+00 -1.201254876657624315e+00 1.625643641783286908e+00 -8.494494083831816145e-01 -1.010420660626652145e+00 -1.215804261206658632e+00 -1.914057301085010598e+00 -3.352753225833373651e-01 1.106647617787198806e-01 1.931795595257598919e+00 -4.099616158765909679e-01 -1.239404960586416582e+00 -8.491593790267166764e-01 -1.511003355622038358e+00 -2.191796679081033705e+00 -1.391246338294685581e+00 -2.610125800860162992e-01 3.281634618087513333e-01 1.374531744104487307e+00 -2.233145003740267143e+00 -2.626704387773100891e+00 1.272461640505603286e-01 -1.055935876184640909e+00 1.658125797438396054e+00 4.970956209971332806e-01 -5.050306985726363829e-01 -2.838566346907310800e-01 -3.536902318814572621e-01 -2.484762540599308733e-01 1.770582645126092869e+00
3.925934742080333106e-01 -4.527976101614043514e-01 -1.067751388128121537e+00 -7.200291266207243801e-01 -8.375983613178388243e-01 -7.523387738963707161e-01 -3.924427911621070075e-01 -1.798964362215603741e+00 -1.072102475421573553e+00 1.513293856460703024e+00 8.744166376632768189e-01 1.375614982917199303e+00 1.784705260091153267e+00 3.779866178886446826e-01 -1.271616887901535931e+00 -7.240104707563269626e-01 -1.226178272229790922e+00 4.310360193349492275e-01 3.494001761139975404e-01 1.578171489022081708e+00 1.206985123892092115e+00 1.549803534548671591e+00 1.162006414303338397e+00 -1.118157807346853660e+00 -1.488622089039713936e+00 1.725321575211508085e+00 -1.336469399794711688e+00 -3.257583874725106243e-01 7.216651839836177862e-01 -6.022322077046333710e-01 -1.294478021327423400e+00 1.107480063406790061e+00
2.377396644933153613e+00 -2.041118498408697191e-01 1.344490663680540044e+00 -3.841086933907954526e-01 -1.493728240341996583e-01 -2.663151935607173115e+00 3.853190517334561527e-01 -1.751204031438549968e+00 1.252441948235780922e+00 -1.655326997736152397e-02 7.626090467713094734e-01 3.368166646536135400e-01 -9.982780009531894150e-01 7.362484386579333240e-01 1.984879202454851721e-01 -1.158168132137952083e-01 -6.250274962801509737e-01 1.603530264063431243e+00 -2.766542870566909840e-01 -1.508713389337231203e-01 9.147639358276850041e-01 4.161108427371580376e-01 -3.546873687042872286e-02 -9.398725421943303626e-01 8.671245549889273763e-01 3.928263336299817055e-01 1.747878255458404251e+00 -9.084319952387300834e-01 -4.668093407672000428e-01 -6.464178456463766098e-01 -1.870102066923601480e+00 -5.565304412690635222e-02
4.622912817281934483e-01 -2.999172073496917945e-01 -5.647450795171274907e-01 3.615260667737932310e-01 4.848080934264827335e-01 8.576009952428967353e-02 -1.211900279452220452e+00 3.072584801901919072e+00 -7.816835890857447566e-01 -5.812641833502352195e-02 3.689844678337522721e-01 -6.951007134194493453e-01 -5.216917827064885271e-01 9.067482475641882589e-01 2.071987103823110576e+00 -4.009690374444773581e-02 -7.555634281450729350e-01 -6.664360516544626765e-03 -5.581556684479430652e-01 1.405948005591990846e+00 7.946532246849505876e-01 -6.439337677773306901e-01 -6.182827094177013594e-01 1.097579688669685583e+00 1.324415685957598843e+00 -4.646904087651015924e-01 6.264614979495577440e-01 1.118974619925735547e+00 1.626879239778584951e+00 -4.301490837835436620e-01 2.763769073425255685e-01 9.740269774485104115e-01
