7.207805521304153640e-01 8.214842316476289596e-01 9.821950747598116871e-02 1.032600686069541585e+00 -9.191751697045025260e-02 1.878886127160287911e+00 -1.296951297031624095e-01 5.558328640111593888e-01 -1.773700678270656028e-01 6.942757073794603162e-01 -6.681678523350781385e-01 -1.381925437043669477e-02 2.321223794419766673e-01 -1.811759110965084352e+00 -1.606416168821454438e+00 1.194066073620641655e+00 8.524111524629536252e-01 8.575502680600892713e-01 -2.189851741186622514e-01 -7.932765422908572006e-01 -5.504526911073164275e-01 1.361319871007815152e+00 2.607638621985626237e-01 3.038543507231554280e-04 -1.089117695311071055e+00 -1.278578921350838060e+00 -1.447717086372934281e+00 -1.517867551686591376e+00 2.724608961145250419e+00 2.626320212795584252e-01 4.699027333472320378e-01 -1.298555693930071531e+00 8.510384059416823410e-01 -9.461222916946115946e-01 8.906456361006952205e-02 7.453385687590995401e-01 -2.053011434946070135e-01 1.193091067894926915e+00 7.134793729953984309e-01 -2.203229959954990491e+00 -1.413130050128161841e+00 -1.260550276598138009e+00 -9.809101534480732520e-02 -2.539356158999763746e-01 -1.922341428219108139e-01 4.471073868675340957e-01 1.875839733647288732e+00 -1.444895241761777971e+00 -3.666863064442884013e-01 -1.383951555856730131e+00 3.619462886435749760e-01 7.849055839227276898e-01 -2.012744193348128707e+00 1.108432464298428899e+00 -4.836491519774415576e-02 8.704214853475904512e-01 1.439523738882684395e-02 -8.293741205980138809e-02 8.235623332866656154e-01 -3.684005402855459743e-01 1.966193099142401202e-01 -7.168640294135082414e-01 1.767452793626445695e+00 7.319905808446294238e-01 1.086591627802058202e+00 3.011968446315161363e-01 -5.927935595380132705e-01 -3.418011206698283178e-01 -1.264863532973084181e+00 7.462632994604016801e-02 5.612135479855004556e-03 2.354114191338404216e-01 -1.293572125678323637e-01 -3.017630912432958668e-01 1.320511916646433144e-02 2.657910509019536960e+00 -7.806981210249943626e-01 2.434885897582623471e-01 -4.737272615999261333e-02 1.937836211670933118e+00 9.488055402648738479e-01 -8.582541690578610050e-01 1.286631642715381885e+00 1.917856314730819856e+00 -5.746583096994709594e-01 -1.094942218516076649e+00 -1.530124492694986404e+00 5.701189916287986437e-01 2.912729955749789656e+00 -5.334113195862617562e-01 1.145107709998385959e+00 -5.374916896445690595e-01 5.723312251398633421e-01 3.963095310880639377e-01 1.503932047347845247e+00 -1.501647198421101059e+00 1.182162791097413068e+00 -7.599819196617259021e-01 -7.051492976835953552e-01 6.248613762693442514e-02 1.191744025588843625e+00 -5.796367989853266067e-01 -7.356574613748434466e-01 -1.471290339919000711e+00 -1.921368769584566039e-01 -9.858139112311958829e-01 -1.347888916960160888e+00 -1.675311281008114772e+00 3.860494622853764546e-01 -1.854849414993955614e+00 7.799888264541279259e-01 -1.202786825821278160e+00 -4.843019179615506986e-02 -8.211884072399502910e-02 9.785050867300574273e-01 3.417268886708546560e-01 -1.095821123396520491e+00 -6.161358177519422608e-01 7.319175778853922454e-01 -9.335587659197495114e-01 2.120093416214199333e+00 7.799203754855383863e-01 -7.523265361066906465e-01 -1.327117638139887257e+00 1.499482300886850750e+00 -5.896852865455186610e-01 5.194159839079875995e-01 -4.033916925211021853e-01 -7.899799979527848404e-01 -5.331917417420106720e-01 1.652092982592547610e-01 1.985484318079747679e+00 -5.030373333178340678e-01 -2.499105128287602007e+00 1.884043030282592512e-01 -1.959045489812303031e-01 -1.496118504343630085e-01 2.653195345461317189e-01 9.724366534906554449e-01 -1.467300189060488425e+00 -4.168108544423629325e-01 1.135139824581677725e+00 1.711558943755723483e+00 9.233244736488375182e-01 7.632629068165998343e-02 -5.791502315523436861e-01 -4.331999916128472794e-01 -5.933124040799671040e-01 8.414761371701041659e-01 -1.062220217228614594e+00 1.622324058873249486e+00 -7.876554449564525662e-01 9.072058488371610441e-01 2.733152562075505942e-01 -7.689406274465014623e-02 1.078115637565307372e+00 7.072175122737560660e-01 -1.033570256989120306e+00 1.142200804663723090e+00 1.113689555771329553e+00 -2.517208197678812986e-01 -1.726411898480689766e+00 1.193796278708522784e+00 1.289837202777592839e+00 -2.460727409750761430e-01 -6.731314397507353053e-01 -2.478953822828882103e-01 9.165990275169322299e-01 -1.310259308420284929e+00 8.681173119030407420e-03 -2.755095047400278607e-02 -4.723936030787509455e-01 -9.439032000080749274e-01 -5.043965523502520927e-03 2.275466468366609263e-01 1.111918918106058030e+00 -8.982629225635112569e-01 6.340598282680971476e-01 -5.478819919321445964e-01 -3.667517183885640186e-01 5.347748387120009328e-01 1.838103127446894636e+00 -5.982179531615021695e-01 5.352030712333089024e-01 -5.839297072438508485e-01 -7.588989305483203607e-01 -2.131515274709222252e-01 9.653975505011345160e-01 -1.175751114689969734e+00 1.435656135726159389e-02 -1.133374061968845714e+00 1.575415612500507656e+00 5.019594200316703780e-01 1.770368366950645644e-01 -1.193237622015165478e+00 1.721864348384526400e+00 -3.413495482450789598e-01 -9.634144108057851597e-01 -9.627727102799461534e-01 1.214757165685284912e+00 -1.071331671705723965e+00 5.464055850891921251e-01 -4.330730142032763186e-01 -2.093627295405007249e+00 -5.149829052312224764e-01 1.246180085615545163e+00 4.893696786664119003e-01 -1.116298636030904845e+00 8.188678826779820508e-01 -1.157208394093248938e+00 1.663714016807489315e+00 1.441944232137169213e-01 -3.892808393500357678e-01 8.021792631111042127e-01 -1.492171659430344244e+00 4.073954704974772634e-01 -2.282209308960215233e-01 -2.478825777914342443e-01 -1.657341495945871213e+00 -6.092205771188652363e-02 4.458039812420825365e-01 5.035848750540798946e-01 6.140387878264277344e-01 -9.848263293798864559e-01 1.879797567541351133e-02 3.841893802137065217e-01 -1.325584193639904873e+00 1.568773490061375619e-01 -5.580622027820753006e-01 -9.324875946781005509e-02 1.374821255003387588e+00 2.069692914393077121e+00 6.280825253977204703e-01 3.193153174373284386e-01 5.687399651360969255e-01 -1.905129582123215037e-01 9.295422867737986872e-01 -4.964102925814377343e-02 -1.109430254654612868e+00 -5.473221342305686354e-01 1.973998612804400976e-01 -2.323614808595839409e-01 -7.982045370493151548e-01 2.022203774662837628e+00 -1.194111101214822890e+00 -1.354131644091648212e+00 2.509843454741860658e+00 1.007933754123047088e+00 -1.037163916686648646e+00 -1.473912812162942121e+00 -6.726193056978148066e-01 -8.269682409143029878e-01 -1.062777436080811766e+00 -4.743779145947427112e-01 -1.248421266206580782e+00 -7.964592940598688164e-01 9.018417692376071160e-02 -1.770741098844107020e+00 -1.722267333488483487e+00 3.815127862333777542e-01 -1.270119513806108991e+00 -3.410249614574801247e-01 -1.205768957421023746e+00 1.864827643981882721e+00 6.600597291144547629e-01 -1.859082939187612915e+00 -7.457867860905956769e-01 -1.658605001136994883e-01 -2.876360155654232309e-01 -1.970905346297477045e+00 7.152823622622556110e-01 -1.172438230271491522e+00 -5.781212734489290517e-01 2.283014149548570071e+00 -7.525723448786239000e-01 -9.662560234100706635e-01 4.375998100610921648e-01 -4.783155424957200030e-01 1.422971123024724616e+00 1.131788192981102004e+00 -8.182037053911264679e-02 -9.121045302629510187e-01 -9.033581699483560490e-01 -6.681203753986397764e-01 6.558334220288315475e-01 -9.273843129030301391e-02 -4.820930005418271325e-01 9.434290135383942566e-01 2.213851606399472316e-01 -8.836618443448984728e-01 -9.373508621890681569e-01 5.592703714965945316e-01 2.846085871507831211e+00 1.090494196914803648e+00 -9.401437731381746543e-01 -1.474366796899047576e-03 7.736976713113209447e-01 1.648802571631539926e-01 -9.385485234130265253e-01 5.982886453307372232e-01 4.032145189309629951e-01 -6.591555028745312850e-01 -4.660284630963981711e-01 6.322502029061826123e-01 -1.016831350560788438e+00 -1.025428844371239157e+00 -6.410207865433026342e-01 5.169138496796421567e-01 4.107328039653977414e-01 4.631477405607145603e-01 9.422772643084995625e-01 1.188058682640742436e+00 6.905222056550295306e-01 -1.473493301694277280e+00 -9.603186129057750264e-01 -4.412037682686611451e-01 -7.108050138923169836e-01 -1.586490329175258118e+00 -5.141772658355561187e-01 6.546204084181493910e-01 -2.771598540886965889e+00 1.071952408891266195e+00 6.988946546099777946e-01 2.992639611011966294e-01 -1.544808318505422884e+00 3.018040331622253158e-01 -4.678551299776793626e-01 -1.751518977721981507e+00 -1.105580413997393041e+00 -9.458830033260045012e-01 4.555725602050544332e-01 -3.553678475804655443e-03 -4.197384390469293680e-01 -3.900091898287353920e-01 -4.552888496253397754e-01 7.008125280092797338e-01 1.421066007290532562e+00 -1.021032206449653978e+00 -5.558918442015792216e-01 -8.104744312523168848e-01 -1.236044442404266697e+00 -9.625799276562622131e-01 -7.161357099563697703e-01 -1.689444583186028581e-01 -6.276147548455742742e-01 3.012021154380938315e-01 1.020112268335586991e+00 4.003594642024863592e-01 -7.988909460399604701e-01 2.739171771763402319e-01 -1.475269432857926999e+00 -3.927312987375364828e-01 1.427227410007378516e+00 -1.724204547088937112e+00 -1.372769244952050771e+00 -1.050920614430815636e+00 -1.363428001529942146e-01 4.294559860142786456e-01 -1.949870906364826739e+00 1.352927217634570800e+00 -4.599533067553751575e-02 -1.193905259308066236e-01 6.934453262662064743e-01 -1.940083929914075689e-01 -8.136506528216195244e-01 -4.962676008504014052e-02 -9.155131743224222962e-01 6.374100009502092767e-01 5.606598021222041206e-01 -1.943833020110332210e+00 -7.741034751892622578e-01 4.187952019169403628e-01 2.161589783761524330e+00 1.196690947793829674e+00 -1.502423622536193104e+00 1.825778940710842957e-01 -1.788631670714687372e-01 -1.605598452159295864e+00 -7.365879277413852622e-01 -1.123076942375407672e+00 -9.271631134807633012e-01 1.480509602579489936e+00 -4.125971055542367316e-01 -3.442999441102449487e-01 1.698051356076626939e-01 5.282378089742386651e-01 2.163708415387438633e-02 5.693822885357131547e-01 1.660115023028225778e-01 -1.672516751566708315e-01 -5.141464273252951411e-01 1.297705181802674801e+00 8.512068138071876566e-01 3.970854447737177662e-01 1.191334542715574596e+00 4.661061586568253645e-01 -1.341399999508481322e+00 -1.083522347901864497e-01 6.073789252542998174e-01 2.499951815395483057e-01 -1.120978196260984605e+00 -1.308162052694445299e+00 7.851681146511340081e-01 -7.435806924523388206e-01 -1.246873234517272166e+00 -1.579886164077350941e+00 -2.088100503050204448e+00 8.351920278622055882e-01 -3.479054440328612774e-01 -7.463977368261492940e-01 -1.932084408223700533e+00 8.171482861957936050e-01 -1.266575392175410597e+00 1.704722728202867854e+00 1.188527781296346619e+00 -1.167789509957818606e+00 -1.210394525844814551e+00 -8.536207928101624542e-01 -5.948237008137998716e-01 -4.951564246327657126e-01 -8.108297177723848836e-01 -8.243672359362326230e-01 -1.121475302438183635e-01 6.193747757579431967e-01 -9.166162131798154533e-01 -2.053268259895529302e-01 3.040519095087616530e-01 1.317762544614201614e+00 1.121007984968569238e+00 5.705806014454573027e-01 5.295391925493652535e-02 -3.501235998147091411e-01 -3.328329563700816451e-01 -1.273474388372028698e-01 -1.747908966709132539e+00 4.981032084663689075e-01 -5.834748621910976762e-01 5.788048589593309812e-01 1.861497741593330923e-01 7.133376501684496329e-01 -4.517256592916034652e-01 -4.473817887168168306e-01 -4.182479505871722347e-01 6.893397934860080456e-01 3.375799426883018817e-01 1.906816130479747073e+00 1.709282676213811636e-01 2.098036601260577783e-02 -6.736466234552888066e-01 4.801494727250142647e-02 2.351081975908100308e-01 -5.932490448057405885e-01 -2.946627238510171942e+00 -3.356054448790972145e-01 -8.146042681548305853e-02 -4.805469788639125106e-01 -5.686843408157672419e-01 6.101484337442327766e-01 -2.718961130237878887e+00 8.487234226212552191e-01 -7.142117259946109131e-01 2.000845039920479129e-01 -6.342983610543763140e-01 1.206918256425658642e-01 -1.427913358486863737e+00 9.522301381215461102e-01 1.713695414668883199e+00 5.339910192418122897e-02 1.689470210170282982e+00 -1.890074167747492595e+00 -1.276689360351000779e+00 5.529635034561221074e-01 4.540582401365262366e-01 7.131940543732369076e-01 -1.174216205863572032e-01 -1.418718360376266530e+00 1.784656514158353913e+00 6.604687623925611373e-01 8.629612303776144078e-01 2.636744862584670945e-02 2.786067406158468374e-01 1.872285771144114097e+00 -5.587753285343721732e-01 -1.076967367967677447e+00 -2.363040506160586918e-01 3.666165344211413935e-01 -1.237657839837120077e+00 9.750431111394455286e-01 1.213040075086122105e+00 -2.548630367577972677e+00 1.532326977296130543e+00 4.060010867436438242e-01 7.022264218776015365e-01 3.301340387289171119e-01 -1.064123163764451263e+00 1.002043952790430265e-01 -2.179969956316297086e+00 1.904827806480126340e-01 7.400078964224190425e-01 -1.220364963323621987e+00 -2.001700512826311840e-01 3.746478944796492044e-02 -2.297299980476680617e-02 -7.622121056185994226e-01 1.156311810685437397e-01 3.008932819836047101e-01 7.592281176197845927e-01 -5.288617740437051573e-01 1.727051459301855330e+00 3.972757334411726182e-01 7.388325054053535013e-01 7.065917745254601812e-01 1.093041161205165146e+00 -6.368723019878607117e-01 6.544394110361879680e-01 -9.251692275688323530e-01 -8.980011710391102575e-01 -1.057842379091626484e+00 7.224530796979897751e-01 -2.790844627854820459e-01 -6.183076435911265545e-01 1.483292631753820201e+00 -1.412362204107809882e+00 2.922826477114370824e-01 2.002076304540948204e+00 1.561864157753982019e+00 -1.338614221570698870e+00 8.986610562393380075e-01 4.185660738119806323e-01 9.963570770070764304e-01 3.108774973360006189e-01 3.365464470196210395e-02 2.703642619175398720e-01 -1.526945473530725739e+00 1.237673417678565757e+00 1.198397875711046945e+00 2.881493314399219408e-01 6.851283557249793210e-02 4.949419935456487729e-01 1.298966513851198323e+00 -3.666100789033602259e-01 -9.130266445784535057e-01 6.501392300762364185e-01 -9.250320872067760991e-01 -7.361633652710422027e-01 4.195498457101476397e-01 1.093683770505225805e+00 6.388781404629465532e-01 -5.844032195419311959e-01 1.468677641314136473e+00 -1.404649278448711680e+00 -4.710891232960299768e-01 -5.238791169660639291e-01 1.046147089340309089e+00 8.865800856541754538e-01 6.220690825714124683e-01 1.166416741491896225e+00 -6.289322603697453662e-01 -2.257435581030640404e-01 3.750566789498341880e-01 7.269031860792519728e-01 -1.913055123645715616e+00 1.135443934675210764e+00 -2.528926901674112826e-01 3.105235475756071839e-01 -3.802983256160197834e-01 3.992553045464273254e-01 1.596436876513150027e+00 3.184739810362777312e+00 6.224957299816804568e-01 8.095225290392988882e-01 -6.832767605348974982e-01 1.354259113087097122e+00 -5.070472635237029957e-01 2.743420865735936576e-01 1.120937815903905621e+00 -8.443925675428486100e-02 1.401468937318911534e+00 -9.194333717829580310e-01 -6.030011373491223070e-01 -1.282783703750743909e+00 2.755349584973318944e+00 2.511601077370967938e-01 -6.497307007361102782e-01 -5.287375190297175995e-03 -5.443164313945197952e-01 7.789425202357946887e-01 8.437909490548730629e-01 -1.259977992309348149e+00 1.154302004839994122e+00 7.645222051372400074e-01 1.933029814579776184e+00 -7.268858329853701283e-01 -1.100247830714217612e+00 6.412134031293963421e-01 4.331102511029872315e-01 1.728237924321788910e+00 -4.010991359874828688e-01 -4.512626124361046598e-01 9.116867739649474611e-01 -6.894183570658668492e-01 -1.858360356278472070e+00 -2.865532848580693015e-01 7.531193252947744332e-01 -5.158706951446895977e-02 5.136889220341351869e-01 4.730769610635661704e-01 -2.814473960839305455e-01 -7.029590223436256169e-01 7.199821094511228425e-01 -2.468907665837308529e-01 8.930804413135119690e-02 1.240793160790679472e+00 -1.127382469851226254e+00 9.221886309111384378e-03 7.787797695160381117e-01 -3.842305554348851571e-01 4.165833276609888225e-01 -1.434655489142877272e-01 -2.058276276990681497e-01 1.123282148568564676e+00 -1.212550548191223543e+00 6.361863519089931973e-01 -1.389027773797124610e-01 8.445420782629085021e-01 -1.107521066526434339e+00 1.055131122901115243e-01 -2.457019243742148418e-01 -3.982540206636002722e-01 -6.554614157721955214e-01 -6.213210313819402808e-01 1.020257667366627929e+00 -1.031167945645357492e-01 -3.694611632080629232e-02 6.451444122739860010e-01 -1.979977019397791416e-01 -6.927484849247383947e-01 -2.227004999984293632e-01 8.755371314552508055e-01 -3.040116378329678071e-01 -6.643593837078131115e-01 7.500480100868229805e-01 1.381465767618764939e+00 -1.062404496183804614e+00 1.403495628783085980e+00 3.668382505444172520e-02 -1.774727820609871110e+00 9.175893039699434262e-02 5.723870792022064391e-01 1.300653961039454742e+00 -1.452126286037332514e+00 7.726275701030661802e-02 2.005440254908347875e+00 3.957183814178668047e-01 -4.989688783097395719e-01 6.502878629741013494e-01 -7.741530668511060753e-01 -1.036287345820603667e+00 -3.347601869545938080e-01 -6.131717301499126638e-01 -1.867690356990586498e+00 -5.566126819904516632e-01 7.389340898853552497e-01 7.748512479030406075e-01 1.023899477563894496e-02 -2.042759039878556671e+00 1.374744847112245205e+00 -9.170551063413586723e-01 -5.889770875538630213e-01 -2.851339743709382368e+00 -5.280793447707845534e-01 -1.514926563868530307e+00 -1.685655875352352895e-01 -6.931429659180622371e-01 4.273657349367805391e-01 1.562113730135187561e-01 3.179685735127345536e-01 -2.767241201196165012e-01 1.330581001084078174e+00 9.890081154287516663e-01 9.742611270193126671e-01 -9.214762191112618739e-01 -6.813788650617799147e-01 4.766417015205349356e-02 -9.444874779451691016e-02 1.019924460451317794e+00 -9.060965632506500222e-01 7.447955549036973100e-01 -9.902398018122614276e-02 7.631877367410532242e-01 -1.177642489840891260e+00 6.739614768156326763e-01 -2.989215440453332207e-01 -1.509120406931427238e+00 7.209104176137929310e-01 7.421558270733551455e-01 4.847091167862407346e-01 -1.094663331768964909e+00 -3.519322085948796697e-01 -3.517192839570694174e-01 1.029063211975969505e+00 1.327459140083528055e+00 -5.667163645478912049e-01 1.286212002223324768e+00 1.221564043842434222e+00 -7.347157274805158345e-01 5.252587524218618187e-01 1.487124700179609516e-02 3.789987911680999244e-01 -2.505612353015009286e-01 -2.310656528006894028e+00 -1.873341568445523242e+00 1.315446430255048149e+00 -6.507426351975773016e-02 -1.533801487633510430e+00 -1.050980570656483648e+00 5.211808682762442135e-01 5.602266232394670364e-01 3.468722629618697373e-01 -6.454036272333584234e-01 4.203574515089520541e-02 -7.872439866900018401e-01 1.731448591384885605e+00 -1.474394287409635185e+00 -5.796102981341276772e-01 7.506203189710012325e-01 6.063248517938920473e-02 5.779447441449557799e-01 1.281290872772438805e+00 -5.879207774990858892e-01 2.197280362496428774e-01 6.558640727764496470e-01 -8.085965749327246321e-01 -6.039634307342680586e-01 3.097412562661102098e-01 -1.583118727161089145e+00 -1.060760750984040879e+00 3.229073833665553339e-01 -9.854478606803283858e-02 1.181683884813910929e-01 1.411767659321389923e+00 4.989759220024027053e-01 2.974922451209255914e-01 -2.291241735818287384e-01 -4.683893524754165205e-01 2.236218521406239945e-01 1.502127944400536874e+00 3.938009018449407095e-01 4.831391740353471187e-01 -3.598015285158407406e-01 1.243272957520439315e+00 9.983785941747832515e-01 1.000286335793746685e-02 -1.101096211390726110e+00 5.601047192343212577e-01 -1.908315848839947204e+00 2.775048603221141885e-01 2.088790574341236050e-01 -7.324563635781566884e-01 9.401328772064450057e-01 -1.423927352024746407e+00 5.850126633117948005e-01 -1.192030067720869724e+00 -5.467892837642183146e-01 1.964045084131140761e-01 -2.526855059208638288e+00 1.917587427091002328e-01 -8.256648350328229524e-01 1.935219974431694190e-01 1.436174941971454455e+00 -3.567791652182450979e-01 1.817862406435410971e-01 -8.727549205404280253e-01 -8.435913482732241286e-01 -7.069563718060070112e-01 7.046091635690462374e-01 8.166351071203165057e-01 2.400250847678993271e-01 1.277152754775398580e-01 -5.984042594338153664e-01 -5.933470193122305503e-01 8.050701908629001036e-01 -1.070493170978097819e+00 -1.038496234857081646e+00
-4.629914357059858841e-03 8.446609118492087731e-01 -3.809911786543398460e-01 -7.351590678667973000e-01 -5.052315841306835864e-01 -1.277348632426273278e+00 -8.761449532218373859e-01 -8.304086519043301085e-01 1.165530198121194350e-01 -1.129801331202363146e+00 2.292180798225656457e-01 7.975398681826032510e-01 6.972420737393923984e-01 2.298545684869631511e+00 6.372012581760677641e-02 6.300447435791085571e-01 1.421960402860800832e+00 -5.253687147584650274e-01 -8.414205064975303905e-02 -8.133125368200140315e-01 1.258781925252810741e+00 6.748979411443192244e-01 1.013960309558802342e+00 9.089787233864016214e-01 4.953646645977029250e-02 6.200127929074742417e-01 -1.462392313509014663e+00 -5.101917360176269067e-01 -1.712083467909410350e+00 4.847137207669993675e-01 9.797269884661023998e-01 5.259001575751994784e-01 -3.727361551846500864e-01 -1.003195153892525671e+00 4.011605982983690866e-01 -1.607411113316266960e+00 4.547859953972497871e-01 1.642305459238109888e+00 3.119326732615826381e-01 -8.032810041272096802e-02 9.299068608528682223e-01 9.240653395177717000e-01 1.493883599194159029e-01 -1.761830943401173410e+00 -1.169603354049777166e-01 3.816163535720724642e-01 -8.895543792031312957e-01 6.131146798071419601e-01 -1.371703965481727884e-02 2.992007645832513441e-01 -2.037067361696524692e+00 -1.061886733382017667e+00 5.417978889538567211e-01 6.681798073439418895e-01 -2.802210472989729029e-01 1.564839839391717113e+00 1.206944104810556556e-01 7.221583731471020728e-01 3.792182668924973798e-01 8.725473096986626764e-01 -1.528943202271004997e+00 8.187808440056868475e-01 3.755075685831543719e-01 -1.682232359165754865e+00 1.380548469569691905e+00 -7.075110397469279722e-01 4.461724738915044952e-01 6.627635303043399873e-01 -1.628476025747584988e+00 -1.180606618934366969e-01 1.610455202707352873e+00 4.050315475705965618e-01 1.045274516123133157e+00 1.066233973721951278e+00 4.487399619311577270e-01 1.302963534483406294e+00 6.925081687703403821e-01 -2.466308172740647453e-01 -4.539603912218195814e-01 -2.052758464810654715e+00 -1.408182357480364466e+00 -1.313030943863784605e+00 -3.985308051446807553e-01 6.768499748353235153e-03 -5.369105704645094068e-01 -9.411589837986260587e-01 1.325639407985449658e+00 -8.427528828681134510e-01 -6.175019510987422855e-01 1.984802680422104171e+00 -1.742496673139042773e+00 -3.284445475874453457e-01 7.051184680072800637e-01 1.289273391530201263e+00 8.934019806520617779e-01 2.434453424402300836e-01 7.784186665929596627e-01 -9.465112599832976592e-01 6.587948421964511247e-01 1.288656270955247929e-01 -2.479353422206171054e+00 1.108052792044113666e+00 8.412938982492415008e-01 1.424344386682683261e+00 -1.271452386908398013e+00 4.911989375547098358e-01 -3.514082717117009147e-01 -1.088743117103799340e+00 -1.662146708810719464e-01 -7.847188050366413758e-01 -1.061437511533414479e+00 -2.951874954903882520e-01 1.015731614033363428e+00 -3.383391944120304196e-01 -1.894720836445802581e+00 6.325228035401008198e-01 -6.147315478116035514e-01 6.863041287421179915e-01 -1.084504056338679190e+00 -1.195165447917593049e+00 3.322387912022624068e+00 5.012410987822489838e-01 1.366140905752103452e+00 -3.899257131591711278e-01 4.996010543175608554e-01 -1.121672630484271904e+00 -1.115634219649501713e+00 2.497393387471350534e-01 -6.185478993046338303e-01 1.555606993632276058e+00 9.673609926482319432e-01 -6.195083124789544371e-01 1.179925737835001293e-01 -1.092913499359065010e+00 6.662768829745171484e-01 5.596402089218064368e-01 1.363837175153338022e+00 -1.242768333374485001e+00 4.026736604282996068e-01 1.768143909868501451e-01 -1.233705345717315049e+00 -1.949584719618933315e+00 4.652939617899650160e-01 2.888007076032209852e+00 -1.297147377959245729e-01 3.643051716573692533e-01 2.073908819896228273e-01 -3.360954625884661207e-01 1.410057190679314010e+00 -2.486814881141628242e-01 1.462025631251272495e+00 1.703269721456327213e-01 -1.170998809776119032e+00 -1.034062490570863302e+00 -1.197507009200055705e+00 -7.566180300020566296e-01 1.589709480631481542e+00 5.736708468229273494e-01 1.290955398441522295e+00 -1.216038562894903974e+00 -5.324807857132741323e-02 -8.782286525621951778e-01 -2.224582342243502708e+00 -1.224604966636805958e+00 3.562080494914103834e-01 -1.531547907416700993e-01 -5.676329534566894042e-01 7.741247803066648725e-01 8.337734475886199315e-01 1.733474149633468686e+00 -8.838554347278002599e-01 -2.699080431441229777e+00 -5.815888687274839430e-01 4.146905441241158230e-01 -1.333732314383283768e+00 3.887529754105952251e-01 1.231254015198527396e+00 -1.133712122572913428e+00 -8.145548036205034759e-01 2.067869582094782999e+00 -3.342996865932477135e-01 1.487139060051674511e+00 1.185486274179214927e+00 5.150668873637138656e-01 7.115317293204838078e-01 -1.670258391358354633e+00 8.443138329318601309e-01 1.757903130217380649e+00 -1.369089040448864258e+00 -7.673426254631163790e-01 -4.425318689462920396e-01 -1.845973323629331198e+00 -5.874826026269723833e-01 -1.137696940051532213e+00 2.226357146813328081e-01 -1.939285634335383424e-01 -1.939678913670151994e-01 -1.032457567532450327e+00 -1.729039795421881687e+00 -8.423509926892990274e-01 1.823175018393234703e+00 -4.047849454626467613e-01 3.583946084405322807e-01 6.452542528548228518e-01 1.307739202203570095e+00 -8.254315913493940338e-01 -7.977793960556514019e-01 -3.862749926664264810e-02 -6.916254849989627029e-01 -3.801736848807816815e-01 1.720997425974139405e+00 -1.147843909408098328e+00 -7.631408457047497151e-01 2.477748065845371550e-01 -5.054071859505241404e-01 -9.797509326664567419e-01 7.951178618487809713e-01 -3.750294657716756741e-01 1.208124898522807827e-01 -4.207343902983973760e-01 -9.985723181847376839e-01 -1.443045401530748117e+00 -1.099954261177332082e+00 5.228792356482686587e-01 6.886187437283727286e-01 1.360165891342262068e+00 4.587290464351194141e-01 9.061451792680439432e-01 4.962741598313587590e-03 4.364279405691523506e-02 6.935048654802337120e-01 1.799874031978228595e-01 -2.573053941161178582e+00 -8.208138092778308748e-01 -3.425107981434715732e-01 -8.537627907877295974e-02 -6.760714908637679432e-01 -2.186225267778181269e+00 -1.480340700697077239e+00 -1.419541439694885110e+00 1.948832594012299246e+00 -9.546294306936831120e-01 -3.696463552392638130e-01 2.717994563492414084e-01 1.549614709796341749e+00 -6.062007489126084447e-01 -2.588941338292679806e+00 -2.555316620347336618e-03 1.391656576425010228e-01 -5.110833061873577138e-02 -7.307665400018577007e-01 -6.041361015243980059e-01 3.989013614865918322e-01 1.063364459877376822e+00 7.553612401339121485e-02 9.408788413876298939e-01 2.798272565401917600e+00 5.782131409764647012e-01 8.461168630106525868e-01 -6.316734482675101514e-02 2.118338132056974743e+00 -3.089747228589830863e-01 2.243772103002767970e+00 -6.760849530202243107e-01 4.647976321018090773e-01 4.002710804782070309e-01 8.962499089820211151e-02 -2.771693633927025946e+00 -6.903745683368069930e-01 -5.496435050788190529e-02 6.635294858466892487e-01 5.454443604339649365e-01 -1.303247968230607956e+00 5.060776708691006043e-01 2.403320002282065548e-01 4.400914711978578531e-01 1.380833609252447358e+00 -2.949675264576226072e-02 1.567009008632321621e+00 1.208508860111496830e+00 -7.275273205406301846e-01 -8.174057779050206696e-01 -1.008727151636011454e+00 -4.884539139552884213e-01 -4.080778008078669306e-01 5.745546035283122244e-01 7.270260542493480749e-01 4.205478288668417219e-01 -7.559258766028728038e-01 -2.481052067704412889e-01 -1.031280021208807796e+00 -1.637258220727824787e+00 4.323646424015669121e-01 1.056419964609697004e+00 -2.657567861718177493e-01 2.030493605117603684e-01 1.205482295373784041e+00 1.558378308590633532e+00 -1.791238796463999305e+00 6.785909875849416295e-01 7.580599886057982628e-01 9.914803493933082024e-01 1.036040598786140521e+00 -1.354191289720363178e+00 1.018086130852728033e+00 -1.395053862076817142e+00 1.379396238975006739e+00 -1.066961413684243354e+00 -4.641375279039043344e-01 -5.062217765339782627e-01 2.307158388563060603e-01 -7.261870187400586429e-01 1.006355101108049377e+00 -5.818988439690003789e-01 -8.815828456757450748e-01 6.677676708257668237e-01 1.147842691777753998e+00 1.472704484787266122e+00 5.565664592175464387e-01 6.080535781844667031e-01 1.727964438960723825e+00 -1.848448411078655873e+00 3.245643346679261687e-01 3.775394314250099526e-01 3.700351800477997277e-01 -7.711425112295333673e-01 -1.161257052991326422e+00 1.016623177789926391e+00 -3.068684000975626519e-02 -1.233619402062406722e+00 -2.096641511248430678e+00 -6.622927204926740696e-01 1.381447559281096249e-01 -1.583889820263504777e+00 6.890734571467133085e-01 4.851402104678312899e-01 -5.589865665278004325e-01 -9.865374152103957295e-01 9.769089807130562630e-02 3.874253357103119456e-03 7.033705198729911512e-01 -9.282142859430417836e-01 4.572899871788045911e-01 4.904693205863692174e-01 -1.773098896418431325e+00 -1.705141598092485999e+00 5.734857107906953244e-01 2.939162690287011603e-02 -1.375771509130319314e+00 -1.512478234280225375e-01 6.951923786678920747e-01 6.015448772759804941e-01 1.546224595976141591e+00 2.352180824917315505e+00 -1.727898668587062536e+00 1.665348365614302661e+00 -3.462718686553329372e-01 1.277423200274319104e+00 -1.788970973723968405e-01 1.290241286851854685e+00 -8.004382487936401169e-01 -7.115069663991177018e-01 -9.319335934153368806e-01 1.090842346026849485e+00 -3.551731397578515859e-01 1.083530597146987517e+00 -3.636133553369290672e-01 -4.528768307013781858e-01 -4.845402513840446068e-01 -5.343373043706950432e-01 1.611304568303075113e+00 -7.131087701463227901e-01 -1.672436985681543087e+00 2.797677473521612002e-01 6.821027182933119271e-01 -2.351517952957616342e-01 3.936146220121998218e-01 -3.700017692766809918e-01 -2.751882552362932555e-01 1.629428307984345237e+00 -1.422015792233859210e+00 -6.635109683892627119e-01 -9.442095608410244756e-01 -3.356971324418995262e-01 1.374030360787018124e+00 6.829693673250920583e-01 8.575286559977755019e-01 -1.962528873272105165e-02 5.520837059978702666e-01 2.887000129112881619e-01 3.110915523069022193e-01 -5.654560393264362883e-01 -6.506731567542017869e-01 -1.092721224121275120e-01 -3.093046756136827447e-01 6.682960604290367757e-01 1.199936425611614510e+00 1.312578929676615935e+00 4.174982881832585424e-02 2.093989983787868603e+00 -4.395635553187793865e-01 4.699325158446966411e-01 5.867148416024132729e-01 6.431304622784270730e-01 1.630669044232584686e-01 1.037927260199814405e+00 1.041631158832168502e+00 -6.759955410900357897e-01 1.697150868507005361e+00 4.368265066260066942e-01 1.007925971711087554e+00 3.745455916600041180e-01 6.138045557923694773e-01 3.827831185542323600e-01 -3.282157427619801782e-01 -8.702471708121931049e-02 8.513374599467444792e-01 -4.959788203874118118e-01 8.484778681582022530e-01 -1.552346092176362768e+00 1.164382525539975344e+00 -9.353535045916288038e-01 7.282926190945270273e-01 1.972256515110419051e-01 1.407951755013008066e+00 2.409814527586212896e-01 8.183636217073950725e-01 -1.082557815453791594e+00 -4.881633968885057961e-01 1.077238793898376068e+00 -2.020639621823724585e+00 -5.401373449755892953e-01 1.553478080379232962e+00 -2.638004785280416709e-01 1.344578378397756069e+00 1.579639496703472146e+00 6.104857827143532756e-01 -4.648060059241470587e-01 -2.022320425425803148e+00 1.168686880852832122e+00 -9.621115027405681142e-01 1.069212618726489566e-01 -6.747605438731821836e-01 2.909098797868972408e+00 1.210011403421009518e-01 -4.004147176404255770e-01 5.430090763722907887e-01 -1.235300380782170304e+00 -3.262168916706097155e-02 -8.668164747727498121e-01 6.417704123243556102e-01 -1.934271189788523346e-02 -9.964598984552409666e-01 -2.508305912197694720e-01 -9.843119808538979276e-01 2.389786232611665340e-01 6.850374088278287088e-01 -7.891685588177950184e-01 1.057249239728934170e-01 1.559628464088750777e+00 4.024843841959186430e-01 -1.043097356737056502e+00 2.854036087801630969e-02 -1.765998696632504750e+00 -7.308898301062910496e-01 2.334195383030418791e-01 -1.505741878045534499e+00 -8.026076341296848327e-01 -3.022953690890668454e-01 -7.413868173671477324e-01 -1.724378328627106605e+00 1.572953710947504025e+00 -7.163839049324484121e-01 6.818597203128343720e-01 1.643101534954681364e+00 -6.140685794478577542e-01 -1.254279589883907420e+00 -3.001098473239856568e-01 2.012460666236272899e-01 -2.058879222791853703e-01 9.998607453994502459e-01 -6.618060760487768368e-01 -9.325642707962851219e-01 6.242316632100796125e-01 -4.212370735346252643e-02 -1.755611789534366585e+00 -4.404486668868590749e-01 4.876748407769307958e-01 -2.201464711324309098e-01 -3.591597070661656788e-01 -1.851700906685853007e-02 8.173135614185752518e-01 7.676115311228279836e-01 -8.767060444635682570e-01 -8.840316976918895231e-02 1.853583040493911094e+00 -7.809483399239829371e-01 2.866073326010930566e-01 -1.934677772388764261e+00 -2.432816582903408464e-01 4.338591287465573543e-01 5.110888828585531396e-01 -1.252844703776967883e+00 -6.401196205330234035e-01 -2.345632881720813856e-01 3.953668374868017921e-01 -5.830628541650657581e-01 -9.779881872289766243e-01 -1.223545404184689378e+00 -1.096154872007371495e+00 -2.216406770735237064e+00 6.599370899998362461e-01 2.742742902512718475e-02 7.634145894877256699e-01 -1.092341137868652945e+00 1.942432883443818259e+00 -1.619999481468108182e-01 1.240476174335733317e+00 8.917353648341894701e-01 1.588490788730453795e+00 3.745741824042219531e-02 1.295610964363485662e+00 6.326785716513474433e-01 1.039619565579170263e-01 -2.596490278560692477e-01 -1.388164296842784751e+00 -1.056406750611065481e+00 -5.473699710901432924e-01 -8.533196291128769539e-01 -1.205066195956983499e+00 -1.267181397663303066e+00 2.649482540717964518e+00 -1.140928774699634829e+00 7.953490697507898943e-01 1.013431656940446013e+00 -1.702451996272327239e+00 3.856830046185756311e-01 -1.192358277899754349e+00 4.683739973259394285e-01 1.196947198906744614e+00 -3.201461852662829677e-01 3.490593418613501808e-01 3.598247127765260428e-02 -1.002780525782890786e+00 -7.055554698623961452e-01 2.186139374190649021e-01 -1.097903914734172703e+00 5.207849700183562192e-01 3.544905644957611901e-02 -2.253588276969438198e-01 4.873516830576936076e-01 2.063648481843206595e-01 2.523586392177295384e-02 2.052179187702563912e+00 -5.085669784152855311e-01 -2.995613731729950269e-01 2.364368014134324847e-01 -7.270008081539561795e-01 -3.597491454225740237e-01 1.247285375713178268e-01 -1.638278628331917508e+00 6.901607270804621663e-02 -9.613591053393226726e-01 9.135136973853428266e-01 6.451092201244423840e-01 -1.339461202698192022e+00 -7.420525880103302496e-01 1.113966756925042073e-01 -4.520833336595068142e-01 5.209961701287871838e-01 6.402077649429610551e-02 -1.459527407908832064e+00 3.178760029884851179e-01 1.148305477265691987e+00 -4.123727420410088218e-01 -4.803085432807714938e-01 -1.471928617793316629e+00 4.780520304651612873e-03 -2.441430706764087688e+00 -2.529952497874976003e-01 6.733147179541537630e-02 1.157488477870639298e-01 -9.206069486115995293e-01 1.362607250089842070e+00 -6.654924541795953497e-01 -7.293241212981145527e-02 -1.685575718730200290e+00 2.723996451605714686e-01 8.938116675763543295e-01 -1.481586466540016078e-01 1.287069544029109391e-01 -3.640917580598239112e-01 1.739730827908070876e-01 2.911838707973506968e-01 2.535066703876508676e+00 -3.330554515733563092e-01 -5.889112684296270439e-01 -2.586822913515089972e-01 1.073350319352866789e-01 -1.297636162485306388e-01 6.674120565682981621e-01 -7.734349645126342709e-01 3.049332452531838822e-01 2.702786367518820315e-02 -8.682743809553344905e-01 2.480388287294941485e-01 -9.718494373327752900e-01 -1.798270159962738479e-01 1.033870995255585346e+00 2.074016808536432444e-01 -1.731722976063593544e-01 1.486537579739016790e+00 -7.288383693348948755e-01 -2.834022735054548825e+00 -1.297640891246899519e+00 7.801405777483712001e-01 7.669786998135569300e-01 -4.665977779370344414e-01 -1.069806084103826826e+00 9.823032553854140758e-01 1.961124036321033326e-01 2.291176541584819260e-01 -8.699860937393193161e-02 -6.199865878378056916e-01 6.666522650177433285e-01 8.473578405799289670e-02 -7.545906886332848229e-01 4.650570601401879389e-01 -9.702784334708719483e-02 4.067313993001117067e-01 -1.757478845120942879e+00 -1.889806979073128945e-01 -1.288948744377055866e-01 -7.965296607807051954e-01 5.458626191618232149e-01 3.770342447601762736e-02 -9.319515577077660540e-01 -2.564136629314054394e-01 1.049390698744029904e-01 -4.825889093652332984e-02 -9.648837091437280078e-01 1.220343748617253032e+00 -4.198243355174212377e-02 -2.674226356556895556e+00 -9.419917712791181508e-01 2.289092066806006076e-01 7.551177757017878411e-01 -3.805617323101686544e-01 9.056329047263589338e-01 -2.222299607962884505e+00 2.222059251672403868e-01 -1.051614769630933477e+00 5.736618017169381467e-01 -2.309201004519176037e-01 5.370922883093069977e-01 1.534504345909810663e+00 9.803031138860457405e-01 -1.420641887306169027e+00 -1.173340342083945886e+00 9.956755614137124955e-01 1.061501809187750167e+00 1.068152624202421075e+00 -7.171841704501252801e-01 -8.251270651602580219e-01 -1.168428934104812078e-01 7.440684766113347948e-02 1.055847978806506271e+00 1.687753509391990203e+00 3.971473764996139577e-01 -7.120151239326376613e-01 -2.169952143855547355e+00 5.227792458723212743e-01 6.517652592813842904e-01 -1.790980055697737397e-02 -6.982376528141345240e-01 2.847645729705177708e-01 -9.939912106792817559e-01 -9.196947375460837737e-01 -1.433368166287817713e+00 -1.967552573858662557e+00 -9.405954440769191960e-01 7.864960127711637661e-01 1.304614228236103735e+00 -7.266126092119835622e-01 -2.496551751296211541e-01 7.085434026763304249e-02 1.672403787796745034e+00 1.373020256514152493e+00 2.852271970905242426e-01 7.168532338776396617e-01 -4.353196731413930265e-01 1.013407775079627982e+00 -3.598518443417340618e-01 -7.725862654201467450e-01 8.355441327941874885e-01 -9.467401131649176571e-02 -3.420952863831094870e-01 1.438026052534461918e+00 -5.978102871633432791e-01 3.400031194249569233e-01 -3.454493494419049737e-01 -5.211650272100836201e-01 -1.132829541468791890e+00 -6.218432878556223731e-01 8.708373582921594691e-01 9.884685070121151940e-02 3.186013028223014243e-01 8.620654446631365042e-01 2.503961022709766948e-01 -1.378823186982360838e+00 2.498335424876392707e+00 -5.490685714530609829e-01 1.308806394600530998e-01 -1.797368090218285364e+00 -1.746017728004899627e+00 1.651205101258887087e+00 6.336616976356663766e-01 9.697579457269789316e-01 7.294012772121464261e-01 4.551967660385839998e-01 1.141369521080554117e+00 1.154684046877422432e+00 -6.775867990835140464e-01 -5.083843758733557205e-01 -2.781315375594677758e-02 -1.453608190550845336e+00 2.281170568179172964e+00 -1.004479640172469601e+00 1.883384922299534470e+00 -4.035196835972614249e-01 7.361875618179044567e-01 1.766650227925266048e-01 -1.500325982494739585e-01 -1.217716152137352958e+00 -1.617912244878926487e+00 3.285324987628305826e-01 1.246407838067152237e-04 9.033978817488084179e-01 1.054308169452404131e+00 -4.433532614853780696e-01 4.373400113711020665e-01 1.028355247272143558e+00 2.315962488533885644e+00 -1.655018848463109427e+00 -1.851075702880158602e-01 1.582682796768301481e+00 -9.921548366619178383e-01 5.846093169067072548e-01 -5.599861386202257263e-01 1.438514866075242538e-01 -1.473323694001125617e+00 1.379065736814032661e+00 6.969593124836239717e-01 -1.685581351810224171e-01 -6.409578962316617723e-01 5.715789247139149154e-01 -7.911122556943098738e-01 -1.197125624504077779e+00 3.906542693146585615e-02 -1.132809267632049588e+00 -5.983123407453193598e-01 -6.226412236775252795e-01 -4.972045262086396966e-01 -1.250982586137589503e-01 -1.379934981751698597e+00 1.092541374021041900e+00 -4.059751138712306417e-01 6.840050241867375869e-01 -7.104878186151050157e-01 1.948169035294997631e+00 -5.638584201869324408e-01 8.572303388571621552e-01 -1.137285551061473887e+00 1.012310683419699098e+00 2.524891073494979210e-01 -2.476624237147821983e+00 8.260076838812916433e-01 8.792476157000241876e-01 1.203382808152985151e+00 1.371099062614363095e+00 -9.137751322521535657e-01 2.958692305530443156e-01 -7.727806764985168941e-01 -1.617173585765189658e+00
2.383701624196027033e-02 1.512676157926537313e+00 1.579953053401742302e+00 -3.744940394722761634e-01 -1.393235586669396620e+00 8.177619550642568624e-01 1.393510458949141384e+00 -9.033379895235308377e-01 -2.234394709755935349e+00 1.569640529882797564e+00 -4.987212465670705086e-01 7.272493223550470232e-01 -3.990670182230905971e-01 1.296452447381376549e-01 2.510473089913488609e-01 8.891253748313644456e-01 5.487429450015859356e-01 9.303947939075237761e-01 5.715919285475470346e-01 -1.106483948853179688e+00 -1.547326181318652738e+00 -9.478877309545572505e-01 -6.232586706095607498e-01 -1.629574897086685459e+00 -1.665958084460813060e+00 -1.050128633430133629e+00 5.977064969477640100e-01 -1.399487842063833476e-01 -6.400595844157548342e-01 -2.171415024099678348e+00 -1.524024785784877933e-01 -8.799176746592081155e-01 -1.031930595624633185e+00 -5.341361754278590723e-01 1.074035297176556991e+00 8.847958573993757181e-01 -9.693824278169704822e-01 -1.749347422924043327e+00 2.255873507906338768e-02 1.365020668966615558e+00 6.425684476638399145e-01 7.842088420894562928e-01 -1.612947982568782856e-01 -8.135360388897557860e-01 -6.536271005126113032e-01 -7.435677798529243265e-01 1.412705539645092712e+00 2.352074667230975302e-01 1.232131854657103620e+00 -2.577815158626098335e-01 8.395428365526794723e-01 1.043566824942052218e+00 -4.566189364749322355e-01 7.696694666073626845e-01 1.483774539912175450e-01 -1.591130547043541066e-01 8.006909010056395548e-01 1.173009024214777263e+00 -3.798671281340124661e-01 -1.168215104928643999e+00 -1.987535093997742974e+00 -1.411617530032506229e-01 -7.887536109264122741e-01 2.947265737399734076e-01 -2.464064307397167752e+00 3.278775793362890267e-01 -4.561981054105836431e-01 -6.349890991831345088e-01 -1.686356118218599043e-01 3.162380313539658316e-01 2.382672925885650217e-01 -7.479102943354671851e-01 -4.734894751018828979e-02 6.911399627463495066e-02 -3.485494834139956088e-01 -2.489644947750260795e-01 -4.132257281881451250e-01 -1.726324225575432747e+00 1.518970476863948649e-01 1.362779162204190486e+00 1.442620332559007679e+00 1.498849911358681286e+00 -2.378287464640005955e-01 8.749155972911174528e-01 4.365818193097030786e-01 4.874479210063124568e-01 4.363362689942937300e-01 6.891772786693889374e-02 7.460007139570646872e-01 -1.277844894808896514e+00 4.478737015753996298e-01 -7.767441755306210283e-01 4.753310698797498790e-01 1.174031967589174386e+00 -1.126310821403698093e+00 -6.874258461679348953e-01 -1.480625808284707634e-01 -3.218388873391560545e-01 1.486511192075389509e+00 -9.833865601662038491e-01 3.611166516927219461e-02 1.497271600142857872e+00 6.552539343032379726e-01 -5.946311679136037087e-01 -2.147807707775018837e+00 1.460553574202442917e+00 -3.475914405435014398e-01 -1.386858090720887171e+00 1.266993258141853929e+00 -2.639790034865226453e-01 1.077225637095470256e+00 -1.448018962461246950e+00 -7.978774249998279444e-01 1.008859720370891555e+00 -1.884774396078534031e-01 -1.398319345856824381e+00 1.122380295184629118e+00 8.510036464332969286e-02 -1.853085411982573760e-01 5.954910012321721346e-01 -1.092309597987302788e-01 -4.596224470918084948e-01 1.838940091653302522e+00 9.525420784645909356e-01 7.787367153299511457e-01 2.358824967615409829e+00 -1.267724039990533624e+00 -6.165165401537453516e-01 1.218574819626839188e-02 -8.029926632201119796e-01 4.664069133953535617e-02 1.302515304536002505e+00 -3.117176047637356118e-01 -1.688081571776454570e+00 -1.037178968512868948e+00 -4.366779413652007169e-01 -5.868361223631534118e-01 4.600511658505606061e-01 2.025342494207930333e+00 -1.172555175776144987e+00 -6.104328020299748525e-02 8.469682028593332745e-01 -2.584020663775503102e-01 -1.513745318746242630e+00 1.578946940488245465e+00 -2.649005594020274579e+00 -2.967543110868609002e-01 -2.766831974683964159e-03 -6.837810583242596163e-01 6.603479752130541058e-01 -1.381715811829566098e-01 -1.654557742084062089e-01 1.759143268604968835e+00 1.967299643598079406e-01 1.056541291480403544e+00 3.667150704983313525e-01 -1.560415138001053581e+00 -1.438581885987768594e+00 2.512130841680045301e-01 -1.373749836778667355e+00 4.257879981970626448e-01 -1.533278184054652710e-03 1.004607251873823603e+00 -1.399128381058137416e+00 -2.376692150754692034e-01 -2.473644693115781279e-02 8.754752285207131335e-01 -3.072839878180119028e-02 -6.985916140730344046e-03 -2.251862554192881616e-01 1.100887054955922428e+00 2.950051972084537510e-01 -1.769232715463190941e-01 5.897281688902223928e-01 3.858789026227504304e-01 -3.433319666143302418e-01 -3.188656993785803362e-01 -2.378942435417948364e-01 -8.008838414212952062e-01 9.565295608785565618e-01 4.459536789281804969e-01 4.389350596967004359e-01 7.342020311514252384e-01 -4.547576854285698134e-01 -5.289724949438288082e-01 -6.207137343210482605e-01 -4.883358493328497363e-01 -2.292364269649926900e+00 -1.286269969966386650e+00 2.556390111566583245e-01 -1.084773619466900207e+00 1.163698098272854420e+00 6.769814186235208198e-02 -1.419717609475826148e+00 -3.657193177871037593e-01 -1.542161274592964704e+00 -1.044491853622936117e-01 1.194925714643326087e+00 4.827045566232947282e-02 2.740527491251701919e-01 1.455577846083567106e+00 -1.084952430179993987e+00 1.439820367061030559e+00 -3.887640282105977452e-01 5.299948899190289747e-02 -1.191650022069594250e+00 -3.058631994294530587e-01 -1.163273321330224430e+00 7.584788430124632663e-01 1.438647550465563141e+00 -8.863608041428996387e-01 5.205920015833294112e-01 -1.849517158332837585e+00 -1.988219412007078635e+00 -1.736448773693492598e+00 -1.589930542016005921e+00 -6.422024934157466447e-01 2.577714467326616354e+00 6.070270316904169405e-01 -1.492097615574724534e+00 7.521231977681218650e-01 -7.141036965737391773e-01 8.367297096861280314e-01 8.573475126793183021e-01 -2.461474994454949383e-01 2.112203332941798295e-01 -1.853553212310663723e+00 1.436494926840502784e-01 -2.971469307780271407e+00 4.456086644753244341e-01 -1.487436300070761330e+00 1.184916932858385508e+00 1.470719081445584386e+00 -2.520717515703120859e-01 -1.627416156553776583e+00 4.531707757305736273e-01 1.441373765273648910e+00 -2.253362208059079830e-01 6.302858504156195751e-01 -9.476695915053469088e-01 -8.900077435245361546e-01 7.113567020323610102e-01 5.844131785557964420e-01 2.143785939103789229e+00 -1.123156301993232686e+00 8.432134383039167069e-01 1.709220597996971458e+00 -1.267100392934759290e+00 -1.290734931632516513e+00 -1.470428659858128428e+00 1.119037789601091903e+00 5.006711812955710883e-01 -5.306430938973766276e-01 -2.100552076450585559e-01 -1.981151217234361273e+00 -8.950460654607786948e-01 6.480185864095190373e-01 -2.365061185165084623e-01 1.688086998807419414e+00 -1.448264579639292782e+00 -5.771384403556967246e-01 -7.000755683813725261e-01 5.810035634694522555e-01 7.756631430781645298e-01 -2.653835639482547415e-01 5.275755653376019705e-01 1.902055627749772437e+00 1.977226807203912862e-01 -4.609670191130130212e-01 -2.688147748000153658e-01 -6.496039340411206009e-01 1.588669250809390254e+00 1.135039868895431486e-01 7.497481447863184600e-01 -1.147123375030915993e+00 1.619797983836022581e+00 6.447161423720275675e-01 -8.465531588856558542e-01 -6.732874599901761403e-01 7.814844093475009634e-01 1.614725390892973067e+00 1.514094444000492867e+00 -1.195267326561437610e-01 -6.075219605907411502e-01 -1.223844210006116429e+00 -8.126079844641977967e-01 1.161162802702098595e+00 2.000649486317494397e+00 -9.557314940199725106e-02 1.453177907312642292e+00 -1.644064553620802338e-01 -2.802103595706787242e+00 3.953132426168335933e-01 -7.048164192634217562e-01 -1.551931002298595708e+00 -3.065574978553106122e-01 -4.411999800765155078e-01 -5.505114336245482409e-01 4.265937835313388660e-01 -3.547797373693459266e-02 1.568483239651499717e-01 3.079602312790945540e-01 -2.368994667880596483e-01 -2.853702682876285035e+00 -1.589527586055827335e+00 -1.575156839711041368e+00 -3.600309450722979226e-02 -1.226300338964847914e+00 -8.003621639727173109e-01 2.130660261035108652e-02 1.286007886210837503e+00 1.809274624909747553e+00 1.692719281686903221e+00 4.394526121993563850e-02 -5.880378772230734352e-01 1.064314385486897274e+00 3.745405828676131588e-01 -1.281887152242244254e-01 6.214216284460137851e-01 6.959802171035179841e-01 3.863524002009672276e-01 -1.374609362484226160e+00 -3.327707936523374155e-01 1.998292107283465291e-01 4.341675734890137472e-01 1.390171307663975231e+00 -6.606371465364311302e-01 3.679767253413198103e-01 -6.806407078206531958e-02 1.740727961403031043e-01 -6.488789785337608640e-01 -3.284491407355981107e-01 2.084305775764251911e-01 6.289899895913253491e-02 -2.631130504326584796e-01 2.677594903997767561e-01 -3.976078197315702223e-01 1.870649007613346404e+00 8.370313185709298276e-01 -1.633154945513216827e+00 -7.380103488907236581e-03 -3.113805266547438506e-03 -2.674156592362202378e-01 -1.481362439763244387e-01 1.279824820739575486e+00 -4.838691400133337539e-01 3.831933857341243699e-01 -7.100128570681512041e-01 1.347350501258982591e+00 -1.608239475886435454e-01 -7.109079989390997278e-01 1.039536878245876927e+00 -6.187939709999743521e-01 -1.506229744536048187e+00 -1.834460901184097881e-01 4.849625750310168626e-01 4.092222910017964677e-01 1.631523355170052314e+00 8.980393383373110883e-01 1.150397759695890865e-01 -5.741069872925351758e-01 3.084655763702155995e-01 2.044098461279228562e+00 -3.270647592419932970e-01 2.627146350942689557e-01 -4.694494852033873067e-01 -6.108419673396732197e-01 3.537048133715849918e-01 -2.067943574480937574e+00 -1.991208297811455585e+00 1.359884200914003527e+00 -1.189803721600836972e-01 6.203585441181405091e-01 -1.975132843039404534e-02 1.263981940760192657e+00 4.433837563705358975e-01 -1.194399867396078951e+00 1.913030339290297199e+00 1.256483586209877212e-01 1.334459303146761644e-01 1.247730802570444775e+00 1.032454467943536791e+00 1.253253260894178878e+00 9.085997112213964333e-02 -3.766247016854915586e-01 -7.944952958283340028e-01 4.158055503698206423e-01 4.731451436570963121e-02 -1.157068463209325326e+00 1.558270921980138057e+00 -1.724729512720305946e+00 3.085158943265642328e-01 -1.064561358114604950e+00 1.197548710229336733e+00 9.791548878704614545e-01 -1.072570816413041639e+00 -3.414455647652345216e-01 1.520496739184932000e+00 1.290150146970364231e+00 -9.638139297629761959e-01 4.785651098994696540e-01 -9.614971207530416397e-02 -6.147857926487101388e-01 1.307435695560434270e-02 -6.969813899152179637e-01 1.346924640255192651e+00 -2.817617203572504447e-01 -6.490274451208990492e-01 -1.787859300072628110e-01 -1.804856841026546199e+00 -4.463942449423387582e-01 -1.045379133599875221e+00 2.453069040974016901e-01 1.019450270543028836e+00 1.421914120549068183e+00 6.386947655396563173e-01 -7.781719932062497458e-01 -1.990801709098597883e+00 8.121552337611731565e-01 1.188550202749531159e+00 1.503070288176624025e+00 -1.424235413788277338e-01 1.642613829052535016e-02 9.161010178640446311e-01 5.470046065890072501e-02 1.892315368808771048e+00 3.523470960853738454e-01 2.007422734107021878e+00 -1.549589191071213179e+00 -2.773600565062895318e-01 7.215951310251890183e-01 -1.405560041327830412e+00 1.049400765960933235e+00 9.467054979203676224e-01 -7.635673435162525224e-02 -1.658657866937819580e+00 -1.187601386291784245e+00 1.251761187550976540e-01 -1.045607207316165743e+00 -8.832895079087899060e-01 1.834622755357493862e+00 -3.256034116202602413e-01 8.807957767040212049e-01 2.172946508021227352e-01 3.592841133191169156e-01 -4.069211864250621424e-01 -1.272563333212474612e+00 -1.968201528269498679e+00 -5.608272625881915996e-01 -1.072961720427824117e+00 2.815478111550669960e-01 2.772986029934678687e-01 -1.021718449526862971e+00 -3.805505718621183808e-01 8.897104577527681357e-01 7.740883656921179190e-01 1.021581440636280647e+00 1.598918073703698761e+00 -1.291844438207752355e-01 -6.397246845386467262e-01 -1.034187053009613999e+00 7.877132951025159202e-02 -1.190195693791966436e+00 5.809670085539595519e-01 -7.424654007755735474e-01 2.309922807250401888e-01 -5.119505443443125303e-01 -3.068202577098156358e-01 7.290644342772277797e-01 6.050491782780887950e-01 1.149632117194273384e+00 -2.006924829270622102e+00 1.441674611232261816e+00 9.529746762539884619e-01 1.107047782647650580e+00 -1.761991124256654606e+00 -9.617025693049359170e-01 -1.220954738036876680e-01 -4.829154270763494905e-01 -7.739443044250868819e-01 2.165558296393062410e+00 2.366300079862831751e+00 5.480010099659048395e-01 -4.044189213108224240e-02 -2.029713654100600839e-01 9.748482461093884721e-01 1.749411599386385463e+00 -7.869461298981684783e-01 -2.920359660259991275e-01 7.408613475537904058e-01 8.987924055249248978e-01 1.560949350890763476e+00 1.049643638700905046e-01 -7.434560373057012006e-01 -1.538419928500071698e+00 1.654113758253406896e+00 9.553428678918102213e-01 -2.671038209523308171e-01 3.191376702517738362e-02 -5.793985168750396264e-01 9.759932001117321843e-01 9.596039149247442834e-01 7.396676742083072575e-01 -1.228230831252965283e+00 -2.696219469222702059e-01 -1.966987361631430842e+00 -8.716638160413149317e-01 6.254807369402458628e-01 3.461783445354801869e-02 -9.247984193958697086e-02 1.024328559822161644e+00 1.485448271361832218e+00 4.591485934955441550e-01 1.099884579311045441e+00 -2.976918629211317002e-01 2.301303015720423117e-01 5.033029504039470137e-01 6.991818267022755773e-01 1.630227595134252194e+00 -1.529634966166994181e-01 -1.163555863317727201e+00 2.133203466782324753e+00 -8.107405335805456525e-01 -3.713352473982650670e-01 -9.604478155630612468e-01 -5.401249379919600413e-01 -6.874887481814656587e-01 -4.649773815315344505e-01 7.105148165972683394e-01 -3.013733872222979504e-01 -1.450802502687876583e+00 -6.964062059067052113e-01 -2.126280814146424891e+00 -9.210196775262160518e-01 1.633401892346964535e-01 1.206535251574344825e+00 2.282631263767488650e-01 -1.243258315114296408e+00 -2.038708864767560247e-01 8.695359709509091484e-02 -3.099792842282668714e-01 -4.644135757256872554e-01 -1.174607830493620414e-01 -1.369395640858114049e+00 -1.127578828211994733e+00 2.024944910277083565e+00 1.988666009427531911e+00 9.832807354682555623e-01 -1.442159172909420528e+00 -1.456347421227559336e+00 1.630856126256242655e+00 -3.095724647473056534e-01 -1.861149683580304526e+00 -1.338005445982392905e+00 4.860670252036921046e-01 8.225762141041647046e-01 -7.867149502494970026e-01 5.312368068822417855e-02 2.427646008674572697e-01 8.142921870119899097e-01 -1.809683595398162426e-01 9.505987728332787601e-01 7.653314131159270894e-02 5.135570575942632887e-01 2.452048029229045578e-01 -6.797070985422239975e-01 3.726265282284143415e-02 2.334449458934798327e-01 -1.457462209025393474e+00 1.468546690443041536e+00 -8.666001473016915480e-01 1.150568251887315485e+00 -2.416496705254137511e-01 -5.465245880537624723e-01 -8.099651213973758646e-01 -2.335005695354996080e-01 3.311465338852633000e-03 1.236839431732519312e+00 -8.830322791006761651e-01 4.197841468716517754e-01 -8.770586966952284569e-02 -1.127749478983125275e+00 -9.459202124058672945e-02 2.920866395396903847e-01 -5.343763768884378651e-01 7.386428435575929097e-01 -3.233622755595746967e-01 6.099535357533476532e-01 9.424110283376434527e-01 -1.004439361134002562e+00 -2.250701635260272671e+00 -8.287601457280530104e-01 -1.028040702280734742e+00 -7.624000913143372804e-01 -9.949775837480535623e-01 6.127309430675051960e-01 3.181024856858851724e-01 -6.179633702728420941e-01 -3.409391299103219364e-01 -1.632913309941470104e+00 -7.170344443449373495e-01 7.206192309923278305e-01 -9.900652702659602789e-02 -1.432478043721646443e+00 1.090747469642106893e+00 -2.588288391153843460e-01 -5.487047634734784074e-01 -3.070149108616248568e-01 7.975922469630195577e-01 -5.405365988254616783e-01 -2.396262597789693416e-01 9.853440920598640629e-01 2.164521747447297265e-02 -2.310126895085381216e-01 -1.949906437085927591e-01 -1.202461986304248359e-01 -9.503881785549213035e-01 8.033069754559378772e-01 -7.313770112315953753e-01 8.304901349549188572e-01 -4.002225646399136250e-01 6.040912488610020725e-01 1.204160696249829021e+00 -1.967836005163982049e+00 1.664307588661801396e-01 -2.000368139119262256e+00 -1.175652507477549458e+00 5.271747597448507294e-01 5.383078530506096165e-02 5.576459635125490255e-01 1.903730343538179826e+00 -1.091567445011571769e+00 -1.092228332625057252e+00 1.049507767349207032e+00 5.767008560769217862e-01 2.425993114724329658e+00 -1.860286028252012766e-02 -8.770362479388038590e-01 -7.403489557821558986e-02 1.287852385754215456e+00 1.333216891793208569e+00 4.547039908016250465e-01 -3.112028549219102991e-01 -7.197773623278833632e-01 9.540032766656894037e-01 -1.935489950516761093e+00 1.990819948805122808e+00 6.417045000498220464e-01 1.969488658669122649e-01 -5.451931230641035020e-01 7.091229061686263879e-01 -9.870600094812660430e-01 6.874995097873164429e-01 1.197242184569019541e-02 -8.094557950630417720e-01 2.013509695043086134e-01 4.322386924297843547e-01 -1.090455324991044472e+00 -1.927214451048647081e+00 6.439037676726200310e-01 1.231294496364492286e+00 -1.059696133551514707e+00 1.486266720114335083e-01 6.942902375815972471e-01 -8.051588012598759336e-01 9.062131146276597438e-01 1.924845561140473560e-01 2.097828775155405889e+00 -8.667061861957527924e-01 -4.953616048430722202e-02 -7.118460505386656756e-01 7.356444344534829316e-02 7.857741108978616440e-01 9.041674174153155885e-01 -5.780618212141468426e-01 -1.570212491361676843e+00 1.170857030991179881e+00 3.434197611071892475e-01 -1.682714537294703661e+00 1.196084543200463424e+00 -1.809441896904261937e-01 1.687977257226348726e+00 1.443258453500297689e+00 3.267146194812349802e-01 1.071888035139670903e+00 2.014934830079277428e-01 6.252467507254618750e-01 8.901438397935677871e-02 6.283991746084751640e-01 2.412172370288805934e-01 4.299837571763001076e-01 -3.174518056456858139e-01 -1.667738249364291381e+00 7.354888934716364846e-01 -3.635969919339701040e-01 9.577678809517312652e-01 -7.296172079255371923e-01 1.651043218258072542e+00 2.723379946652916495e+00 9.962247712290859258e-01 1.130511803297742812e+00 -1.123104423334362778e+00 -1.307958679662181989e-01 9.354924041772876009e-02 2.045971159416588581e+00 2.076065591361493823e+00 1.312001215281215050e+00 -1.618367097012513689e+00 3.219909589631961278e-01 -5.412531848767536680e-01 -1.381988830279091973e-01 3.415792460877539044e-02 -7.294619990168030865e-01 -9.248563965352669669e-01 -9.116180495969348208e-01 8.127961933567998676e-01 -2.362721805886995874e-01 1.111485726339193070e+00 -1.189621704095061183e+00 -1.590132890821596590e+00 -9.616049645679098923e-01 -1.116652492994829826e+00 -1.566864634596943917e+00 3.626733025603124383e-01 -4.898480054295424602e-02 1.199370382251889078e+00 -9.394418447894716806e-01 -3.595090838482574713e-01 5.864985172267851432e-01 1.111727945767727738e-01 1.922587401483338176e+00 -1.076961334068330167e+00 1.728829248495095783e+00 1.430674107794993599e+00 -1.418556501818621030e+00 -2.526931805196721559e+00 -8.682006367217303122e-01 4.637454053649237573e-01 1.218303219588959679e-01 -1.381939672834945565e+00 8.802967346736986221e-01 8.981884776252000435e-01 1.751802905892289930e+00 -1.623283524250019427e+00 -4.474180684965510524e-02 1.884762490909524191e+00 -9.722696746900728604e-01 -9.320681809932425121e-01 6.029858081634644762e-01 9.441350594001212126e-01 -6.283523516605124537e-02 -4.255276881209701934e-01 -4.350098768860167220e-01 1.818087928483517635e+00 -8.188380940533303010e-01 -6.333606974279840651e-01 1.317441120118109987e+00 -5.690824565658278988e-01 -1.811136335574727030e-01 -7.558420160464968118e-01 -5.582800050046031748e-01 2.456687788158729568e-01 -8.666610416493190083e-01 1.203851990858328058e+00 -2.060144158195245545e+00 -4.634605112205028021e-01 -3.264799970978754518e-01 -1.733755054314294330e-01 3.906364504871105980e-01 6.149505639041019656e-01 4.217941249336167736e-02 -9.443920502435908526e-01 1.458086022414119887e+00 -9.419093997580509914e-01 -2.698454521000716033e-01 -1.116066905397823245e-01 -2.095464035291826121e+00 -2.927927061628493588e-01 1.095551492858811260e+00 -5.483579402499496602e-01 1.346912290841752569e+00 4.091228437552107966e-01 -2.123520095442361644e+00 -9.393108203679614299e-01
-1.065326232704896459e+00 1.737774805255184463e+00 -1.857993760793546500e-01 -1.845563353275243568e-01 -1.843976877300569139e+00 -6.725374317204721453e-02 -5.835620511080803485e-01 4.044593226982470813e-01 -1.477420446123089315e+00 -1.545525458121521367e-01 3.051122199784032495e-03 1.232116341421760186e+00 -5.702596242328382414e-02 -3.747707681357489995e-01 1.930238528400543274e-01 9.959299662754081961e-01 2.000907248545737149e-01 -2.454320395077740358e-01 -6.007423499061339545e-01 1.069991689748131414e+00 1.940348124694213139e+00 -6.231119093527315300e-01 1.563465340163364470e+00 1.111400751208607263e+00 3.549588057989610523e-01 -8.930977595718621043e-01 -3.306999831880830798e-01 -4.172521988175785235e-01 -1.652581076942109650e+00 8.854320387135378168e-01 -1.427917426252652167e+00 3.342364980107954686e-01 7.934669856912314190e-01 -1.629415221039079986e+00 7.308420546139973162e-01 3.298387899144560320e-01 2.078145285456442171e+00 3.076445468222738011e+00 1.808548971122859950e+00 3.322840864072190703e-01 -9.805143070303767860e-01 5.706741943904483083e-01 -1.274751149746515599e+00 -1.162128411982917386e+00 -1.123068793275614707e+00 -3.680448225386113159e-01 -1.893996496982801314e-02 -2.941839324886446616e-01 -3.603820845402770368e-01 3.170751432948042403e-01 3.019802921945263230e-01 1.405485882075609094e+00 2.395607455724763635e-01 -5.631089625404768484e-02 4.346860966373716217e-01 -7.739423549056638763e-01 9.691176194362178808e-01 -1.237088537916904762e+00 -8.287225056206768414e-01 -1.760254226222286444e-01 5.284781099293619500e-01 5.817196935526435242e-01 8.351459340315829927e-01 -1.242870491577503955e+00 -1.009936068017299293e+00 1.332911503397658848e+00 6.132359284998586402e-01 -2.829277869558623149e+00 -5.961803852233102941e-01 -5.962378833705204162e-01 3.283504835448660675e-01 1.582491430502493968e+00 -1.142660866473453662e+00 2.914901628052378735e-01 1.275150786947469639e+00 -1.264797207520483302e-01 1.342769363282701467e-01 6.747284968085085488e-01 8.051618860781366294e-02 1.463744135689852843e-01 6.217412194327101016e-01 -3.284284633874918757e-01 3.470871615284808476e-01 -1.182528337898060444e+00 2.254069126624876074e-01 -4.723598681909223496e-01 4.438960091673176400e-01 1.196786278842113305e+00 8.970085847665063561e-01 -6.998652078143982047e-01 4.910593913781873265e-01 -5.911705642006907097e-02 3.212207738347174768e-01 6.767034938556891754e-01 1.114408328478696308e+00 9.445718390339270520e-01 -7.171099179872326701e-01 -6.656102334391302000e-02 7.220838534490384708e-01 -5.961493126237696893e-01 -1.158903829029620081e+00 7.820197023897077493e-01 -2.192484330771299061e-01 -3.781788897582272768e-01 4.163530503928654092e-01 -2.841671682008193450e-03 -1.671490600677141058e+00 -9.767252474421445063e-01 5.704398177254920155e-01 1.057194511103667356e+00 1.260017614435942956e+00 8.669495265383284632e-01 1.141419778620247794e+00 9.773914646931493311e-02 -1.331782620180368193e+00 -2.409875486162931235e+00 -5.560924445345448719e-01 -2.775246427593136556e+00 -7.794656001405193546e-01 -2.241413083158340314e+00 1.845663556996792257e-02 5.612526999898156954e-02 -1.401509598345715979e+00 8.079516581234043315e-02 1.133813878419005050e+00 4.023803470077100264e-02 1.025046037024805790e+00 7.745524420823158840e-01 6.694269885277127630e-01 1.143169110179137027e+00 4.832338960588407062e-01 1.405432059474447382e+00 -2.390143151528602294e-02 -3.667594883130186889e-01 -3.207252244879857384e-01 -6.788235303720664415e-01 -1.542147102634109368e+00 5.443365749814099708e-01 3.448585246055241305e-01 -1.261808329034798670e-01 4.406982907414028761e-01 3.571045068686578561e-01 3.139920393585617919e-01 1.694724725314624980e-01 -1.097028984397957041e+00 -9.862042886332396119e-01 -2.031978657378185726e+00 -1.832873021138903491e+00 6.913063564365385938e-01 5.081177469481484854e-01 9.428247631953008412e-01 -1.033052016953160512e+00 1.040687600162697013e+00 -3.809044008448048690e-01 1.283043263180806193e+00 3.677602260465860362e-01 9.030640580345581370e-01 1.869515914433259318e-01 1.678923424658011060e-02 7.385270627888975703e-01 1.250474444876037428e+00 1.542639764156470639e+00 -1.297028480354791569e+00 -1.322550196333992512e+00 3.886502832982848682e-02 -1.231164052759248229e+00 -3.820131667294610622e-01 4.284693649258045633e-01 -1.233119344232297632e+00 -1.839029312036621067e-01 -9.237546041822121135e-01 4.505115046168636783e-01 -1.130658727157995314e+00 -1.463071207954194763e+00 -1.563653593363529826e+00 -1.079113942148364425e+00 8.553360415228079550e-01 2.191948680101479141e+00 4.333822004179938570e-01 -1.443885249053344644e-01 -1.435573173319008466e+00 -8.981137338717326557e-02 1.761089816076804926e+00 1.832909413605063209e+00 3.520789469130253951e-02 5.715976629354915239e-01 -1.952886332106828771e-01 2.146491489775048667e+00 1.097924891341977682e+00 2.297295422164052914e-02 -9.831770586068455664e-02 -9.319474520699529974e-01 -1.407075888055096813e-01 -1.067869385963182927e+00 1.378974250778300714e+00 1.286067643850061781e+00 -1.921649925528019498e+00 -1.042061091496299108e+00 1.243273418208985515e+00 8.530370169863717988e-01 -9.986667231659663857e-01 8.797398084013526853e-01 -1.622267023194745583e+00 -8.457256360342708668e-01 -1.295273596301283137e+00 -4.573562456321815239e-01 -8.064103385480695385e-01 5.915105825931703531e-01 2.599147355566912565e-01 1.122702909111296526e-01 -3.452236759442894876e+00 2.170554423808919609e+00 1.408891613914785568e+00 -1.600102831468200426e+00 2.404924904292062571e-01 -2.282210114279435709e-02 4.729165259141944744e-01 -1.691752636207350280e+00 -1.871959673368716326e-01 6.567769730141328477e-01 -1.278998067862325838e-01 3.787497383365923120e-01 -9.938129605610106221e-02 1.010967151252786245e+00 -7.018144831478780876e-01 -1.420003337719215386e+00 -1.227616455692054631e-01 -1.620093891449178480e+00 -1.554812504915127125e+00 -1.469990520822228808e+00 1.140890462688466611e+00 -1.894178892836994699e+00 1.198243481739140470e-01 -1.971093420806497021e-01 -1.657129301065613847e+00 -4.950121380517711334e-01 1.828437465084583602e+00 1.377670185307513284e+00 8.422973071955095481e-01 2.105476346299857138e+00 -1.282012928043147371e+00 -7.824458044705303594e-01 2.332865969170525577e-01 -8.967172909799393521e-01 3.645790457585088018e-02 -1.819940563411120982e-02 -3.456582088884928572e-01 -8.144438622532343963e-01 3.712781677021240179e-01 1.982942121532504265e+00 -1.543940691498520312e+00 -1.193000665286042095e+00 3.763141535820886396e-01 -7.364989858447785753e-01 -1.330872151399658421e+00 -3.192852965466577153e-01 -1.168107813132323924e+00 -4.429087348469110674e-01 -1.416913575788600332e-01 9.464574954441381527e-01 -9.304393873815850480e-01 -4.807519520955785830e-01 5.217003506046725692e-01 8.743149812527441223e-02 1.699512296801539701e+00 7.762876278320842705e-01 7.470800065372444898e-01 -5.866722859596850137e-01 7.834345511279831864e-02 1.195119325324936144e+00 -9.490596896568064267e-01 3.428218879107799433e-01 -2.009377640327111525e+00 8.293278220307143123e-01 -2.631033271215870717e-01 1.644140643472788987e-01 -4.605289045848672824e-01 5.653307578784907417e-01 -3.883623171483402414e-01 -2.218789641864345796e+00 5.955634784547041427e-01 -8.629815163687223900e-02 1.015133076787342548e+00 -1.190611354433386504e+00 -7.569210721246178997e-01 -1.753216659764406105e-01 -7.477405691562433177e-01 -4.878073984638158223e-01 -1.227038042648210148e+00 -2.274614847843908494e-01 1.551358237053631628e+00 5.382517091315747182e-01 1.446378063459087482e+00 1.479440453659411236e+00 -2.549108610053728796e+00 5.842520468116506605e-01 -8.727038050733162411e-01 9.083478008333408793e-01 1.159625036336747961e+00 2.186589919766201984e+00 6.986385873285019255e-01 5.549785145454547708e-01 1.060947410560604709e+00 -4.317229185152320903e-01 9.307201071090164257e-01 2.915682677890094610e-01 8.985395467788769297e-01 -4.818774767040223117e-01 5.692326280636015312e-01 -4.977188534989769320e-01 1.169744351511081693e-01 -5.135539737653158632e-01 1.880227446837737793e-01 -1.155615335130431465e+00 -2.612750810949728275e-01 -2.042993087116832474e+00 3.013278787591397445e-01 -4.594973598896709976e-01 -1.658069847879990677e+00 -5.589735288306134642e-01 2.377688427113259506e-01 1.046388962711843479e-01 -1.073175684103419902e+00 1.000812219752675203e+00 -5.575190160038511200e-01 -5.979600012580965629e-01 -3.830942007827122242e-01 4.168763542642197617e-01 2.863446232429079918e-01 -9.500248657065617497e-01 4.679211363279823233e-01 6.112341004183841076e-01 1.365500953008573548e+00 2.020684872716537184e-01 1.888342310843106886e-01 -5.457209241048170956e-01 1.303952009530805922e+00 -1.111771387637366715e+00 6.129440690631382527e-01 5.602579805638350230e-01 -3.877628011076158510e-01 6.861224807865692332e-01 -9.081491337550331444e-01 -8.571054795019915351e-02 -2.074581359358355748e+00 -1.400431636972060856e+00 -1.464029785074923984e+00 -8.637716076702968426e-02 -9.658690907319632535e-01 -1.958687538214943721e-02 6.912800338544998757e-01 -3.855729306532457712e-01 -2.808639269572408281e-01 1.207333497578817916e+00 -1.928994072496526879e+00 1.578222990824020844e-01 -3.516211922774234444e-01 3.061993073929634157e-01 -1.740594697843537375e+00 -2.311152301194056152e-02 -1.026693146202490636e+00 -2.272788872718211339e-01 1.093772226972407502e+00 -1.762025886797485841e-01 -8.521417790602546782e-01 -5.694165841279356099e-01 9.672101454037186352e-01 -4.566497140232517737e-01 3.440057154609079682e-01 7.226242658096105886e-01 1.416623830275174800e+00 -8.748186663982452371e-01 -1.598517842558357716e+00 -5.864680237509545258e-01 7.901895244271667229e-01 1.776626458493685834e-01 2.416229496195470450e+00 5.985541052245474392e-01 -1.043924721700199232e+00 3.091293844695275697e-02 -1.100706864753821929e-01 4.225201190874900981e-01 9.693250152320329605e-01 -1.546296405868137436e+00 -6.826231049287007080e-01 2.095849583543450745e+00 5.631497740057287427e-01 1.086246954429658906e+00 -4.674060926285290019e-01 1.155582473985349967e+00 -5.682209870583107003e-01 -6.063916178647713734e-02 2.465853839703915806e+00 -1.286221425432497290e+00 8.473964256323567312e-01 -8.658834179745712456e-01 -7.448767491807332108e-01 1.224238576514204313e+00 -7.641989567821453333e-01 -1.132830196588432869e+00 1.779134761924934527e-01 -3.383706566104406344e-01 3.388476306455844855e-01 -1.180262872022294074e+00 -2.762578886853631621e-01 -1.406981136484277695e+00 1.269725922373109883e+00 -3.292124405373985097e-01 -6.186900832204208500e-01 -6.775879261270524312e-01 7.214644754009676975e-01 9.110627520898055831e-01 1.095605505238506527e+00 1.145776415513715563e+00 -9.985748939979885441e-02 1.205805743064165991e+00 -8.649227964765641152e-01 -2.010094783621437509e-01 -3.071144626755981655e-01 -4.948427615067473861e-01 -2.173288804705176547e-01 2.710229840290377668e-02 -5.710901470214976294e-01 -1.458910266632592601e-01 -3.816558905462437146e-01 -1.839035178765346501e+00 -4.249255340781245005e-01 8.348059735739632448e-01 -4.070360405773431611e-01 8.840689197608678773e-01 5.031472363849727181e-01 -8.314419999747312273e-01 1.457668075040338795e+00 -1.047757143342700648e+00 -1.381780011539999187e+00 1.125171691275141495e+00 9.468674049168026574e-01 4.299889661319251655e-01 6.621111306563797205e-01 -5.422540813339303822e-01 -1.459548560847501730e-01 -6.127018983680286857e-01 4.437361301306785855e-01 -1.050845803033097825e+00 -4.720450443225066572e-01 -1.119324424283837827e+00 -7.303162048510823956e-01 5.217372745871475814e-01 -7.246649013608145173e-01 2.662931445365400718e-01 -1.365915508335343587e-01 -1.775630608999435811e+00 -1.477501569648856483e+00 -6.980457902086889543e-01 -2.586339245964414113e-01 -6.429677903425861096e-01 6.776138580134053457e-01 -1.867874800700627835e+00 -2.655436769415357723e-02 6.578533991482163890e-01 -1.120094534908284922e+00 -8.981633428510109596e-01 -1.547879305067673794e+00 -1.896305548056935741e+00 -2.255347631218954096e-01 -9.403647104714194516e-01 -9.790329440630005098e-03 -2.179404383067555795e+00 -1.911494146109647130e-01 2.520738083481363079e-01 2.867065379420926652e-01 -7.226071533131230851e-01 9.284310611143083147e-02 1.274683001780481550e+00 8.107696595175640786e-01 1.391387285848547650e+00 6.053110486618740183e-01 -2.320611840841418250e+00 1.261009574758418517e-01 1.188424031470948439e+00 7.021288702977022123e-01 4.465339934346013173e-01 -6.669010447883662041e-01 9.714052741177061634e-01 3.828485938735766703e-01 3.918583558389920896e-01 5.718633204065316500e-01 1.003619816324500702e+00 -1.457487089796091428e+00 -1.929973223745481192e+00 9.391539621098408119e-01 1.197454697943365565e+00 -2.153140724639521775e+00 5.887279654591822675e-01 -1.726103325568774105e-01 3.741923445498042122e-01 -2.177910425420333251e-01 1.702913135852437643e+00 -1.177783596238619168e+00 1.595880532996283963e+00 -2.383860308596669420e+00 9.868019384233771563e-01 3.398714219571146167e-01 4.436587686265797692e-01 -1.445719567494733737e-01 -2.263326437453068718e-01 4.058477255186143107e-01 -6.966436347455690070e-01 7.066166211664274277e-01 -1.171564070339895069e+00 2.424516456414906040e-01 1.693743785544031821e+00 4.838339185393238373e-01 1.231628854184893651e+00 -1.144480532560427699e+00 -3.553090296659279501e-02 1.895509155689744096e-01 9.197348242917080530e-01 6.096631716511461407e-01 -8.147881659832745260e-02 -1.011205468353039372e+00 1.068029809628324278e+00 -3.830953441703296436e-01 1.296852104874838929e+00 6.541046465266227017e-01 1.098159453755314763e+00 2.138138808413592995e-01 5.785582091843374242e-01 1.287176005801157874e+00 1.704551233124966592e+00 2.687037911557006720e-02 -1.027923475310805967e+00 1.357462150298738512e+00 8.266780034971842051e-02 -9.145599673137002616e-01 -5.464755859161570806e-01 -6.791042636611627215e-01 -1.403857713072092617e+00 9.823226509455430522e-01 -7.628970103657994883e-01 1.190160022338003998e+00 2.453687797975867557e-01 4.233485137906615736e-01 -7.386710456281714299e-01 -2.581929984025317815e+00 1.586228560025054191e-01 2.401059192867571301e+00 -5.782736685491531858e-01 1.415553346573310556e+00 -4.444600116132387257e-01 1.040888727619555088e+00 6.200416703525917228e-01 -2.895227592490676183e-01 -1.104004536863393837e-01 1.051407421098802919e+00 -6.397945672395721761e-02 -1.578842720783983467e+00 2.696391169174072559e-03 8.975518075050924471e-01 2.473760305366534684e-01 1.307663600302565454e+00 -2.201402339528129914e+00 6.561395555452427253e-01 6.842171939285695004e-01 -1.300237442346938055e+00 9.615846619080301583e-01 2.596918874628276530e+00 -8.408777835903070708e-01 -2.559089141789592792e-01 -1.283448834918287540e+00 1.459968388987282539e+00 -2.701639342266547450e-01 -2.072904644648085049e-01 -1.189255529871960260e+00 4.312273033542879386e-01 -1.653042109839381324e-01 -1.550930407290899149e-01 7.975276339821537608e-01 1.015358117448985853e+00 -4.836560720752204334e-01 -6.821831613557427509e-01 1.324225590270752928e+00 -4.980032338064466768e-01 -8.049800970178137005e-01 7.119236530072811098e-01 7.051394992942747741e-01 2.034365014275190398e-01 6.693762128127813682e-01 7.755799813756139027e-01 2.827580867268643661e-01 4.497109110516878117e-01 1.578413392155077810e+00 8.351298572508184526e-01 5.086725332398071009e-01 -1.548972485955017131e+00 7.723683733128802187e-01 5.852232973318615555e-02 4.630491904657554891e-01 1.087467139757737483e-01 -6.524371223618450344e-01 -4.448427264451888519e-01 -4.260950956830228398e-01 1.455369361069657752e-01 -1.542465791113720952e+00 1.180084562977847362e+00 1.580833549820842343e+00 3.041473236833101002e-01 -1.526048519852915009e+00 -1.924619372974799292e-02 6.979938685660259656e-01 -8.511827033040249013e-01 -8.082760778500917009e-01 -6.834575431836954484e-01 -3.436040913199641667e-01 -4.841241967842353500e-01 -3.059987202281665153e-02 -6.914624365962198649e-01 -2.298682878868854029e-01 -1.450185810426031008e+00 -1.035288844165701549e+00 -2.368582994572223932e-01 -2.461578682375150373e-01 -2.247308104171702681e+00 2.968846432785919587e-02 1.431379308621364643e+00 5.076223987703898377e-01 8.712018018599356761e-01 1.193665761702699779e+00 7.183635116847326696e-01 -1.645893779790830180e+00 -9.129923342233859929e-01 1.940541811257321392e-01 -1.479869623263986578e-01 -1.939728585777549252e+00 -1.320798051559498143e+00 -1.013394064597579192e+00 -3.181388039661048883e-01 6.003742582403320815e-01 1.029480388165886773e-01 2.563673925581779200e-01 2.026199633960970303e-01 2.679345384454809853e+00 1.088643082195660083e+00 -4.710534296141141719e-01 -1.202042054396477599e+00 1.464307271030012680e+00 -1.840300626827002795e+00 1.193220125904479179e-01 3.696987491428872508e-01 -6.835402178321322575e-01 -4.304785511916611185e-01 -1.210068192659285724e-01 9.693615150097688593e-01 8.343032178478290151e-01 -1.710178204319844575e+00 -2.785541593465130084e-01 1.891303062082042352e+00 1.118647664608673903e-01 5.788059314583794412e-01 -1.819228125784231875e-01 -4.942146461071100227e-01 2.084020959978710452e-01 -2.636621142808759921e-01 -6.075314174996975236e-01 -2.773753064722029316e-01 -6.044244589899763209e-01 -1.438625877956071442e+00 -2.560370956865113956e-01 1.407998786852912687e+00 1.213157434365346177e+00 2.762160173269089247e-01 2.056866640214183750e+00 9.522532013475898394e-01 1.952409985767031841e+00 1.594065454678866622e+00 -4.195858721806742242e-01 -1.177532284068758400e-01 -1.860497463108301996e+00 -8.641202350553062184e-01 -1.351011292497764193e+00 -1.020789112410939836e+00 8.609184618309840831e-01 1.107401933033772989e+00 1.422035374272442310e+00 -1.946284719882179992e+00 5.229955159619037453e-01 9.831507966861250392e-01 3.299409681809260531e-01 -7.833584938525351982e-01 1.641016189651230694e-01 -1.513558609421683965e+00 -5.036069863760954668e-01 -3.305731396792919163e-01 -1.276511386331142583e+00 1.335398078692025869e+00 4.846444646173797000e-01 9.267237779069459336e-01 -1.053472312576120284e+00 -1.198863785248319713e+00 3.916635850674629049e-01 -1.826529339647981365e+00 5.559254264740236540e-01 -2.956082789296771152e-01 -6.085620780715566003e-01 -2.010881093997035407e+00 2.084954612925264072e+00 -1.252321974785052916e+00 7.504457969257529726e-01 5.819450188116138678e-01 -3.180021765389239863e-01 -2.208143395804661457e-01 2.573652167521742196e-01 6.218356399577388283e-01 1.372637620179730122e+00 1.203132736695742278e+00 8.297037914613329956e-01 -6.512304112911083687e-01 5.162064282202433185e-01 -4.114765645887212830e-01 -4.678788639587971865e-01 4.431355699462696807e-01 -1.467018207820550257e+00 2.629795871229806958e-01 -1.498225220439543648e+00 -2.335200244470974663e-03 -1.753540360850129431e+00 -1.118643186472159323e+00 -2.573027963979602983e+00 5.152961826845849913e-01 -1.574650751790116709e+00 1.720527216488129341e+00 1.006927256338704169e+00 1.157214859667179546e-01 -1.350429305552323989e+00 -1.548632227916416193e+00 -4.876782474073711460e-01 4.543519404708185050e-01 -2.263571084834228309e-01 1.226343035443539370e-01 -1.198993535886921924e-01 7.077497648435319144e-01 -5.866672332596187811e-01 -8.037278683675048718e-01 -1.318888412337864413e-01 1.159705754388448140e+00 4.198103754311823255e-01 1.813728834820189650e-01 -3.455399936506516334e-01 6.937332084171703439e-01 -1.381377918721642395e+00 1.117904466515128536e+00 -9.283020428877690466e-02 1.775937189086414625e+00 6.179082956137638138e-01 -2.418605150690990024e-01 -6.031600030465412710e-01 -1.406936734451345039e+00 -2.210026867198562894e-01 1.398072267478884134e+00 8.213425446238303840e-01 -3.333531470754786952e-01 3.529195528345535626e-02 5.923299797758713181e-01 -5.905918105101495286e-01 8.094420117624653299e-01 -1.520361571600959305e+00 2.442527095150357763e-01 6.230729602535727274e-01 1.118287452123281733e+00 -5.868342240241848362e-01 -7.078230606586982665e-01 1.391920128504522847e+00 -3.034542343341804504e-01 1.272876924404364729e+00 -4.818942532553656122e-01 -4.532407954607254874e-01 -6.413715550555016964e-01 -8.602102092851614534e-01 2.188948343356561244e-01 2.950921874413508367e-02 1.241400934861235816e+00 -6.648042197851015134e-01 -6.788149873782799437e-01 -6.795107058073429629e-01
4.144824263693973609e-01 1.987578998465247881e+00 1.024970661592163879e-01 -2.372898905396083613e+00 -7.325094688760234174e-01 -3.940034746078941059e-03 5.162237164242413634e-01 1.569168510454398979e-01 -7.540986922765638978e-01 5.202415123428165700e-01 5.617869581223999820e-01 3.847198764453243491e-01 8.734574068335433372e-01 3.353809730850824261e-02 1.350564383739224716e+00 -9.072117367290032097e-02 1.058081303315296262e+00 5.126142990791093812e-01 -4.209377656893242836e-01 5.629945627693917487e-01 -5.698281634048532052e-01 -9.165748855733862888e-01 4.295607694758284134e-02 3.307478358776000937e-01 -7.490086624394273751e-02 8.108974013995282615e-01 1.899914625112645028e-01 1.328789346398534743e+00 -1.650516349323513765e+00 -1.329614836673542522e+00 8.330100849453608847e-01 7.934416009441085382e-01 7.432124444804855123e-01 -1.153451274931683646e+00 -5.654995319073086169e-01 1.197008040500135463e-02 -1.682031364496402448e+00 1.159507704235251291e+00 -2.158122805208410599e-01 -2.859783045336911078e-01 -2.484085411342173422e-01 -1.430289622720462228e+00 3.574233801517374687e-01 -8.858005094660803547e-01 5.357329600626952182e-01 1.173390194081020077e+00 1.739336713569343162e+00 1.348397764568301793e-01 -9.494913804957033632e-01 1.689844003714569221e+00 7.888681666639130174e-01 6.525764670298950243e-01 -8.626962753630835756e-01 -3.012362470160574041e-02 9.805279353825415711e-01 -1.293107384987601360e+00 -2.971184028833652735e-01 5.422907656500316337e-02 2.109688765874148331e+00 -1.278762742471213132e+00 1.124820614331593971e+00 -1.153429609116815441e-01 -3.426538664855718341e-01 -9.635961925858264054e-01 -1.337360132103811328e+00 -1.623676013694678399e+00 -1.147396408917893407e+00 -3.743099419507367465e-01 6.988296857349824975e-01 -1.388495358396457435e+00 1.275244777626160175e+00 -1.175598277985219875e+00 1.277338770071616558e-01 -1.051303124710948778e+00 7.761078805556368421e-01 3.337500935214350317e-01 1.110202465101870040e+00 -6.480840977737649666e-01 -4.834826706142251740e-01 7.224254335990237808e-01 -9.418426387002853950e-01 1.644704885066246292e-01 -2.910916311633906725e-02 -1.465138872716805540e+00 2.833392589326756972e-01 2.029120264204865354e+00 -7.767902547662461354e-02 1.478885085740878347e-01 -5.457027061362660358e-01 -3.511988826935512065e-01 -5.074499165583419291e-01 7.698069365354485993e-02 6.857369833563484729e-01 3.210223452605128758e-01 -2.427614808726585582e-01 1.604931807177729930e-01 5.890499719129304035e-01 -6.929321518087502296e-01 2.807831453171136804e-01 -1.118525424539260849e+00 8.295987898304428843e-01 -6.969503683896888235e-02 -1.426572728905603604e+00 -7.299147115350747284e-02 -6.466254947687223309e-01 -4.106836294787730678e-03 3.645844285828191422e-01 -1.312672922104155503e-02 5.694523491237895030e-01 -2.693041057658570048e-01 7.154009741238654962e-01 -9.414514047400925900e-01 -1.862331439910480446e+00 -4.470864510381616364e-01 6.371063431779097064e-01 -1.445073761071031582e+00 1.338653854012997968e+00 1.582521386687555820e+00 1.379875736059108737e+00 6.752035470658347416e-01 -7.680658149723862405e-01 -7.154643986202608996e-01 1.546084377109916419e-01 1.126450878611865880e+00 5.598941975201268129e-01 -1.569551980257575252e+00 -1.220640587982007252e+00 1.990015745582207063e-01 -2.405262659352460641e-01 6.039500247008328104e-01 -1.311183598575574649e+00 -9.203972387687945345e-01 -1.069997722306238463e-01 -3.978984391648007213e-01 -4.277129504661105197e-01 6.960998112357920098e-01 1.008984189510057222e-01 7.467224647496993883e-01 1.306079883822548471e+00 -1.451555363259077858e+00 -1.288737321402537939e+00 1.891929794205871485e+00 -4.841124811706106756e-01 -6.374299083039466352e-01 7.156269803348953851e-02 -2.364750904014585320e+00 2.683851193041357219e-01 -1.296542789918486704e+00 -4.110899228632000080e-01 -2.669025012294821697e-01 -2.030523566029430516e+00 2.045984895368986312e+00 -7.411633543642258681e-01 -2.214748330094537199e+00 5.511449207827535668e-01 -3.340589315055443320e-01 1.026692103870230799e+00 8.191875188374854178e-01 -1.102490276530632314e-02 -1.037707278276642553e+00 -2.388490988172089491e+00 -1.033116983948043632e+00 -9.948970852956816602e-01 -5.582227473742662482e-01 -1.367913313499080630e+00 1.052279546199432536e+00 3.803417458336769141e-01 -1.390884522410466839e-01 2.423267872351373142e-01 -2.148105205206184420e-01 6.346119924320112737e-01 4.445281118205449689e-01 1.628802649515181722e+00 2.216899746167053653e+00 -1.953549166518536440e-01 -1.197284360543159121e+00 6.314357152066332746e-02 1.531649043026231283e+00 -5.600803430004969163e-02 -6.602416641550847842e-01 -2.095033240823316323e+00 8.429597533718757862e-01 -1.301907627225344366e-01 3.451750050576560813e-01 -8.525430200880765863e-01 -5.965958486426113927e-01 -1.866508165314903211e-01 1.354021358703240419e-02 2.380294238053408118e-01 -1.488198734534946555e+00 -5.934242572279967154e-02 3.945719742931603768e-01 2.214482869066998205e+00 1.313448473898514823e+00 -1.204723090736142366e+00 2.302611422458553658e+00 5.828946874885917451e-01 6.614594320060068755e-01 6.507357960386099816e-01 -1.981062357656233175e+00 1.217067395118850426e+00 2.188938090606205034e-01 -1.604749061435964297e+00 9.299282119948769632e-01 -2.033054466850957032e-01 -4.088222640602670599e-01 1.424198821301656759e+00 3.184147673430207659e-01 1.870200827477667360e+00 -1.247668515286728619e+00 -9.639021672966964494e-02 -1.293537364702815440e+00 -1.654225991374617344e+00 -2.772067248598413802e-01 9.581761636580714558e-01 6.430649535811528983e-01 3.443331103506519497e-01 7.440474279791330359e-01 5.918983188879830548e-01 -1.788017438211442489e-01 1.175865094173722092e+00 -3.699402187268387987e-01 3.335485150298247992e-01 9.364190814833247556e-01 4.621629026773619309e-01 -5.263530069210965445e-01 2.780293777893903893e-03 -3.835756001868693976e-02 -4.448281960715286948e-02 5.994588701219493165e-01 -8.566050211076251530e-01 -7.480285144093359317e-01 2.251597390957214839e-01 -1.333116634161706893e+00 -6.937765721945033937e-01 -4.964155496077909263e-02 -2.228298292003799697e-01 9.979565390291836313e-02 -2.008727375011957750e-01 -8.415413862031491110e-01 -9.246661938962724703e-02 -4.405242181074351393e-01 2.909452491134417729e-02 -1.161546023118788185e+00 2.313759529532723180e-01 4.083973587210314449e-01 -8.493893163049081041e-01 7.299399011668534776e-01 -1.585858390899095527e+00 -2.552736157076301304e-01 5.447145131346187164e-01 -1.266912848002675673e+00 -8.119744056433657597e-01 -4.585163134761863768e-01 6.610605645625183824e-01 -3.626651351791565503e-01 -1.617757817434868794e+00 6.851441923967253045e-01 -1.088145325077107151e+00 -1.650763792437192290e+00 1.994970669729687340e-01 -5.276488798259423296e-01 3.322186342360330946e-01 1.052033829835847589e+00 6.177402375805557400e-01 -4.311347486487208946e-02 -2.155074152930641862e+00 -1.774307403030162822e-01 7.677914912782070056e-01 7.571718449920884497e-01 -8.226058061630396878e-01 -7.547685653406306372e-01 -8.680345817974730593e-01 -2.348106188474252398e-01 -3.415158603937439724e-02 1.191779544593320805e+00 1.840084657474551744e+00 1.502006041057520669e+00 -7.206949099602867337e-01 -1.242736449560443157e+00 5.196845414050603462e-02 2.026609048587761641e-01 6.665001152938246909e-01 6.467082765687738322e-01 -2.028877580672726832e+00 3.337651615729363419e-01 -7.261183430783214598e-01 -8.669821492454789225e-02 -2.294828636712477721e+00 -9.767594378070030281e-01 -1.415257608656797395e+00 3.733300325541041853e-01 2.483053482270990153e-01 -1.103476117604434092e+00 -4.056350691513808115e-01 -5.773558054347289747e-01 1.071592473344214147e+00 -1.076710640850872425e+00 -1.027319087666294095e+00 1.866197533983564028e-01 2.304371279484573432e+00 -9.143004382442827538e-01 -6.457908765793592964e-01 -7.031261872570695459e-01 2.419146085650318856e+00 1.690211282033078577e+00 1.800796183105826787e+00 -2.410090472196190436e+00 1.652750311756402635e+00 5.402875287828581286e-01 2.811486296763983650e-01 9.789768003213933367e-01 8.990649321267488725e-01 7.074939368389954186e-01 -3.972007918821301303e-02 -8.139918055278277942e-02 1.262274480535123367e+00 -4.583922536060646147e-01 -1.878263406766815524e-01 -3.944069694030875040e-01 -1.618698662879475725e+00 7.633202840973720704e-01 5.517372887520322067e-01 1.152822544870055310e+00 6.621891016807265329e-01 5.081210903531043765e-01 -4.472670888713209392e-01 3.860867068865975749e-01 -1.270988991969514981e+00 4.090398806678769428e-01 -2.340046295169308233e-01 -2.092099263480250215e+00 9.002108789196966443e-01 -2.429550084943255417e+00 1.759241517829199131e+00 -7.697006154276050394e-01 -7.628745117413360255e-01 7.348821778691551343e-02 -1.077930171426483064e+00 1.437766437343498127e-01 1.673011391395528014e+00 -7.705883561156035011e-01 -3.375302482689245265e-01 -1.499638511244157479e+00 -4.841586135998990903e-01 1.005831577610472038e+00 8.365562262717337605e-01 -4.479624669072067022e-01 -1.157275900239358890e+00 -8.883624509338899911e-01 -1.322777208931427140e-01 7.399571966421928382e-01 1.324366629903780401e+00 -1.811469579715124512e-01 2.426231327403602644e-01 -1.592994991820623207e+00 -1.531819290648048781e+00 2.773226821562064237e-01 -8.855447096887433256e-01 2.192172936132882888e-01 -1.140987539532151818e+00 -2.330941045543814261e-01 1.427330807807146495e+00 1.327444077175949033e+00 -2.416765870285060569e-01 3.322309699929024140e-01 9.849654623921285657e-01 -1.561313942461202586e+00 1.341293233399873053e+00 2.165482469979965741e-01 -1.664821935692466504e-01 2.448311714573966347e-01 -8.231724968029000555e-01 9.565557098772922706e-02 1.065512802712690610e-01 -1.474607344536488229e+00 -8.201683611975986443e-02 1.363067097026524621e+00 -8.584219215936608194e-01 1.545316463279769112e-02 2.618420858778864879e-01 1.269667993624185254e+00 -2.500330223778726602e+00 3.888170835919136925e-01 -4.668115060160150653e-01 6.132152976458062899e-01 -5.271550014973291204e-02 -4.468618296063846529e-01 5.647293096096278608e-01 5.434080525718747445e-01 4.362500708842880215e-01 -1.263790572053973937e+00 -1.317490600553768543e+00 1.785339764026614873e+00 1.627953921924613967e+00 -1.667905004034529348e+00 -6.153707227552791537e-01 -5.302550213559962256e-01 7.514746311071607288e-01 4.286863589612160963e-01 1.968809044502142225e-01 -9.714009102743269564e-01 -8.402811564973615421e-02 2.424794847087973437e+00 9.214442954982714484e-01 2.276303747727769222e-01 1.218278873329245782e+00 4.387371633313964514e-01 2.038788332235319078e+00 -4.767933145421547891e-01 -2.371560256129138233e-01 -5.403391536871847700e-01 -1.297786956577777540e+00 1.158571037081297606e+00 -3.465896163056692014e-01 8.878309993903757968e-01 1.444374667495766484e+00 -1.048339387050373217e+00 1.985293189179882845e+00 7.599585545413144461e-01 5.336958903202002752e-02 7.006232599732098443e-01 2.415225583685445265e+00 8.644645133364433631e-01 -8.388147020357790140e-01 -7.246239017495781365e-01 -2.555761845152603740e-01 -1.105407920105391684e+00 -8.032884724914377550e-01 -1.237936744322558402e+00 -5.988865895042569942e-01 3.824270321075239343e-01 1.754082157735865621e-01 -7.136385304054766454e-01 -4.206278526449045985e-01 1.297796134195298601e+00 1.556757458052956844e+00 6.236107592008426348e-01 1.551001765091674089e+00 -2.972419458698795647e-01 -1.651403734308728222e+00 6.432080535689460588e-01 -2.388225486472400072e-01 2.597949740879019198e-01 1.325896555797718035e+00 1.041664180201273826e+00 -1.169958597352297014e+00 2.291456652267125915e-01 1.222234599314645287e+00 -5.643838170075489158e-01 1.539330558845638297e+00 8.318389525994670519e-01 4.567102079986234409e-01 5.872309814115573845e-01 -1.360477392484514547e-01 -1.862524518235309401e+00 -1.114803417742094904e+00 1.143903128425646648e-01 -8.201124587605250760e-01 1.480322338307604291e+00 4.096091815208400266e-01 8.546555043858208855e-02 3.826318495802861208e-01 -6.619953764296531151e-01 -5.802565014553132672e-01 -1.334348097263054755e-01 -6.125409856396003550e-01 -1.021062639875300881e+00 -9.650233390934221944e-01 -5.687256929807801287e-01 -4.563487264016866662e-01 1.024146140553363477e-01 1.971382710310894959e+00 2.428989517594542846e+00 1.405733120789342649e+00 -5.828036104435066478e-02 -2.359348227521254060e-01 -4.622460578510697582e-01 7.170380729430944067e-01 7.914891748309448027e-02 -6.366618290710533978e-01 -1.946871126511197092e+00 -1.064756816973705167e+00 3.299793969093846591e-01 -4.788918410084346683e-02 6.729231180533873369e-01 -2.349448585354902141e-01 9.753019155683658736e-01 -1.307310304439890158e+00 1.105981178568210543e+00 5.129653698873163359e-01 6.763230749512575413e-01 -2.072689035236132127e-01 1.489801567762112297e-02 7.529576500342610723e-01 8.477504702599601982e-01 -2.170771119596979215e+00 6.997303958471138285e-01 -8.050042943883974900e-01 -1.129776389967877964e-01 -8.722653750828678332e-01 -4.567316059136476425e-01 2.421476026583298802e-01 1.722183616605442724e+00 1.136544486061851905e-01 7.158427696298633736e-01 1.590423983315018441e+00 9.977279693851787146e-01 8.709187836394657323e-01 3.029076057319848303e-01 1.152088763567285401e+00 -2.622702961917626752e-01 -6.041810246566454712e-01 1.476443549051827064e+00 -1.433461440237293383e+00 3.186999283345177680e+00 2.753088687792615286e-02 -8.872215898694800762e-01 -1.307728398151722704e+00 -3.038357527688812509e-01 -1.476363503590625070e+00 -2.362591626225503949e-01 1.579678732859282730e+00 -1.337973740695438840e+00 -4.536629793045936498e-01 1.092161148331099174e-01 2.001380467616480807e+00 -2.182851742355460811e-01 -8.940455767607073945e-01 2.500188637434931915e-01 7.965946869490483362e-01 4.643845758990093331e-01 -1.699516003449267065e-01 -1.057245970984452832e-01 2.989890789836403828e-02 7.416557057330198655e-01 1.691186684134622586e+00 -4.209261793754209280e-01 1.858039510801872574e+00 -6.717615598191286619e-01 -8.437841727988573126e-01 -3.017552725811964431e-01 3.113520579849802239e+00 3.162762913901726591e-01 -1.123105905448492203e+00 3.482452300116887223e-01 -8.700569824749464914e-03 -4.645776437406018977e-01 5.189338241922827333e-01 1.035552072609225438e-01 -6.812513003092022235e-01 1.445593638061621444e+00 2.164265051943814910e+00 1.544339162708225022e+00 -1.046009006966065247e+00 1.740163598122598243e+00 5.426549727967964198e-01 -8.205077557292004276e-01 -1.391899824698911159e+00 1.187870300868426376e+00 1.333671120037913660e+00 -2.578729988021561392e-01 -6.852793164529034087e-01 -8.714592998102136390e-01 5.846541019517076387e-01 1.461447002863061097e-02 -9.837716559780430858e-02 -6.936893024077711578e-01 1.023512639468936225e+00 3.232907982264273672e-01 1.190444732236613179e+00 3.704698823773529548e-01 3.915046481867622830e-01 -3.626184463954105763e-01 6.655946626205533345e-01 3.315535673491817187e-02 -2.149110692986928139e+00 -4.439632779162183129e-01 3.452920941591227644e-01 4.913444914942444730e-01 1.974128923057451857e-01 1.383470855993107262e+00 9.026818732392069000e-01 -8.794919661461195748e-01 6.467672070776269155e-01 4.738089151787994724e-01 -1.311672648143896946e+00 1.661887725213617495e+00 -1.853989223496211869e-01 -5.173059964119800513e-01 -1.481126950659109376e+00 1.868917121297102968e+00 1.116711642114468050e+00 8.570036957280563472e-01 3.234361512175611825e-02 4.274650413339908805e-02 -1.709399708440261456e+00 -6.589280689406724623e-01 -1.114662624786619816e+00 -7.491940838097953526e-01 2.019075021441801621e+00 1.582279608677211180e-01 -1.732632282904435161e+00 -1.859430202306247559e-01 4.759097197468939444e-01 1.522275409128214685e+00 1.647436172992294834e+00 -1.270055857621287698e+00 1.023980188702056648e-01 1.082990362500315884e+00 -7.875408727397377462e-02 -9.224448855425891880e-01 -9.206981042360339318e-01 1.086617482643855159e-01 7.090868035186135288e-01 -2.681409978457516968e-02 6.327760712331427229e-01 1.801924106162095807e-01 3.115633337740477543e-02 -1.460188770351329435e+00 2.931256885316742972e-02 -1.411779369038686172e+00 -1.463392385210860125e+00 -1.182760101662270635e+00 5.084493109964544066e-01 1.539711843824982385e-01 2.199461909545139093e+00 6.749888594882921256e-01 1.228179652191863092e+00 -1.354613882493332366e-01 -6.449437016707795234e-01 2.387136239121733006e+00 -9.481696904729022268e-01 5.474982711725090434e-01 -1.891187504495494276e-01 1.461917456876570487e+00 -7.754075011235206372e-01 3.009468388923636217e-01 7.686707943258777043e-01 1.255899288569777839e-01 6.986225611238515709e-01 4.001410686301858921e-01 -3.684732428549109540e-01 -1.432550462731677854e+00 -1.810574977401846697e+00 -7.211053883746793014e-01 -3.531739025741352789e-01 1.643908900209621882e+00 5.626618124919475772e-01 -6.799737556672423577e-02 -3.836350627927583856e-01 -1.075750015408629467e+00 -7.090998989661402296e-01 4.613882186189040002e-01 -6.776596798715320835e-01 7.666698668572509145e-01 8.487094686895284568e-01 -1.212390242981386868e+00 -1.404881734753501699e-01 1.553027277251640692e-01 5.305553745061331039e-01 3.721433713810882171e-01 2.065132104844531913e+00 -8.376385660633953734e-01 -7.073313409128617613e-01 1.074570824268263669e+00 -1.317058052478060404e+00 -7.662982122234580640e-01 8.798212268675291714e-01 2.159320545864782392e-01 -9.260379081060508000e-01 -3.483173182104124521e-01 4.013135281985328318e-01 -1.050149360991933456e+00 2.272603488978416908e-01 6.613403829984078053e-01 -3.379833493539594613e-01 5.430481282572573454e-01 1.994495194306000474e-01 4.472505212887200599e-01 -6.511905590712573355e-01 -6.495731252590519755e-02 9.171791704670424483e-01 -9.690645810622598999e-01 -1.789722672846812135e-01 1.553911402379460904e+00 -1.578304079731048581e+00 2.538858813317210750e-01 5.459637259726853875e-01 3.456611052544286133e-01 -3.321198104448075394e-01 -1.854169386792191010e-01 -8.748397551838390518e-01 8.319526905092402558e-01 6.393774731471225659e-01 -1.485725431430021892e+00 -3.094069195097805536e-01 -6.560376025392692378e-01 -4.097864943562949946e-01 9.875700521768178419e-03 -1.339799651142767445e+00 -7.214800770686943254e-01 1.420308637324815049e+00 2.159638612512284617e-01 2.431613936679763704e-03 1.602979443539647608e+00 -8.333323237626953928e-01 2.962861940089690282e+00 -3.543394099157141097e-01 1.594741144127450161e+00 -3.678243824759669378e-01 1.147061587110143499e+00 1.884141366263627937e+00 -5.115903859841761658e-01 2.172015798647034535e-01 -1.477265169357694141e+00 8.575046662736476311e-01 -1.635882997266760730e-01 8.270596025718200961e-01 -1.427457117202866055e+00 9.798899246208251368e-01 -3.794825094605371318e-01 1.012110111252026101e+00 -7.591352523279838449e-01 5.241154519703911108e-01 5.396879445243609741e-01 7.863446900941882534e-02 7.959146965132748441e-01 -4.890694128350198677e-01 -1.894027767229830017e-01 3.143982793199196490e-01 -6.535128328475280080e-02 -6.838339168840281701e-01 3.605163319818839307e-01 1.805715540530029362e+00 -5.217312322743870162e-02 -4.621803798311178713e-01 -6.904820625457730454e-01 1.300869027908684084e+00 -5.519328913738485998e-01 1.261940690330926318e-01 -3.073350703974993547e-01 3.599328590297375813e-02 5.339432107122109999e-02 -1.521833904223391709e+00 1.411695788220890257e-01 3.888691330162503124e-01 -1.571338088231093222e+00 7.862611730992731252e-01 5.394280647739752022e-01 -3.756512900814266143e-01 2.875362296336964607e-01 -5.271535621141736350e-01 2.197830658327787123e+00 1.847217781215996363e-02 -8.254662185889750647e-01 -9.451525828718819466e-02 -2.152329101803582834e+00 -1.146823060690385088e+00 1.098863462803513213e+00 -1.618224982391925248e+00 -6.686490237225913014e-02 -3.337179859656014269e-01 7.083830918268868571e-02 9.477912672177966069e-01 7.816665689033079623e-02 -1.847739759360453871e-01 -2.613621185282801740e-01 1.446937609060346519e+00 -2.445657272348756017e-01 -3.819522225047977670e-01 -2.526932573458597897e-01 -7.114235237400078349e-01 -3.085682218905815531e-03 3.587616691706534411e-01 -3.415169786837590205e-01 3.556005482504026038e-01 8.881244502578425001e-03 1.336144807759848674e-01 -3.578237109632107060e+00 -6.169701992426926962e-01 -2.166160330756690400e-01 -7.101134566989283914e-02 -5.821183777367306966e-01
