1.352422378631270850e-01 -2.537011029198547041e-01 3.513581081518618032e-01 -2.326139110302231638e-01 -1.907453528286799038e+00 4.681206653724793165e-01 5.132596320926544609e-01 1.520926476282409290e-01 -8.227732998630942207e-01 1.549798999393374066e+00 1.654589815507172545e-01 1.476453816791603924e+00 1.072406008309932712e+00 1.072819786357604999e+00 1.333229971936197744e+00 5.936963425981578446e-01 -1.039788668506806291e+00 1.321158594093998273e+00 -7.512094792986273584e-01 1.746203949981454784e+00 -1.316657157227938968e-01 3.094924986459534066e-01 4.626666572059142668e-01 3.825297782418417281e-02 2.058660532568410209e-02 4.798922743129396817e-01 -1.462839613001914174e-01 -2.001959689220226046e+00 -3.062679628458812586e-01 -1.768140600835820697e+00 2.231859478700292387e-01 1.797973485256914097e-02
1.335402731217818939e+00 -3.148599968732098686e-01 8.713547951982012485e-01 -1.636740773822029205e+00 -5.752340405128820722e-01 -1.076515593705708485e+00 4.056631360990249346e-01 -5.655716571735128761e-01 -2.107830070001231459e-01 -9.902854244997570943e-01 -2.261538503038579506e+00 5.654346743214131443e-01 9.416726546902423056e-01 -2.300377214215768573e-01 -2.547557783764404227e-01 -1.527119128151764427e+00 5.695783061092074551e-01 4.692882360153881605e-01 1.967195806617065279e-01 1.426310752511070312e+00 1.017574109144844391e-01 2.103205702352719086e+00 1.231868023936413925e+00 -1.685051118782329993e-01 2.554373079111930123e-01 -3.361187237851869791e-01 -4.666464872725721302e-01 -3.507256062513988693e-01 -5.967140605635690154e-01 -4.966518811330719596e-01 1.696247364104915389e+00 1.240626485487938968e+00
6.700664839457833866e-01 -1.914742149122363069e+00 4.820146094342576681e-01 4.791398448141661465e-02 4.492249846482011533e-01 -1.145159720062830511e+00 2.285040615503880490e-01 -2.798894303008876427e-01 1.661981424336521351e-01 -7.622797611239507942e-01 1.638932150652565867e-01 -1.988584102044644586e-01 9.771802567962670771e-01 2.927357060028573099e-01 -6.341348758527671770e-01 1.088009601070502708e+00 -1.331674192141842461e+00 -1.196679585329887052e+00 -2.636259117014563280e-01 3.107698419188900663e-01 5.325495196198356540e-01 4.669427002779850677e-01 -9.482927933728140246e-01 -3.126910207795620678e-01 1.157977410718780353e+00 -5.680822204800791697e-01 3.695529197339045169e+00 3.112750630974984722e-01 -4.393757324568005052e-01 -2.159344526503883976e+00 1.340436195506977457e+00 1.607540282169839019e+00
1.523107826935449438e+00 -8.037540510381725456e-01 -6.048052042282695551e-01 2.346822126780665929e+00 8.004929913762425242e-01 1.705820772536517316e+00 2.735534861397348472e-01 2.065391206831495297e-01 -2.436602328126239447e-01 -1.629994723322490735e+00 -6.918011008448892163e-01 -4.647147844262428662e-01 -4.839140423021723869e-01 -2.699306669120796198e-01 -4.533621086810789569e-01 -1.516101890059041946e+00 1.254600786209571217e-01 6.940003444834057511e-01 6.663772706214069474e-01 3.965297948972633657e-01 2.020004694857196470e-01 1.434889432317112412e-01 6.505896247683260469e-01 9.431803521699974047e-01 -5.492056811966610635e-02 3.936725517077850900e-01 -1.993484506843001824e+00 9.131797618765893215e-03 -2.688295742226854898e-02 2.649432923470393386e-01 1.342382780700101530e-01 3.588983730827028373e-01
-5.742633504571735825e-01 2.144538315828417918e+00 5.561409333075243433e-01 9.274383688040765961e-01 -3.749021372687609266e-01 -6.178605013811084845e-01 1.656198630361178425e+00 3.048126495156884275e-01 1.314836680631519261e+00 -1.269979271450876857e+00 -2.805629218266760261e-01 -9.509213140397513309e-01 -1.294909024794803631e-01 -5.293696731789694354e-01 3.192321140159484760e-01 -1.872377159677235836e+00 -8.756197253851649709e-01 4.587282447641288230e-01 7.766226459161515994e-01 -1.913489902696032141e+00 8.601119637267284901e-01 2.135255149583927259e-01 9.456250227965142807e-01 -3.215546342107561961e-01 1.632257518384266026e+00 -2.251797395565657833e+00 1.868882453123381637e+00 3.211273872539356145e+00 -5.359257325077547707e-01 -1.262831554770023956e+00 3.332370932729056268e-01 -2.082380684989363906e-01
-8.824331674146100868e-01 -9.525796277902591758e-01 2.123362194927173041e-01 6.768667821217928537e-01 -2.674490840128291413e+00 -1.467446060313711831e+00 3.625827817192207592e-01 2.501402232706512740e-01 3.875642161434502131e-01 -5.694224336859936564e-01 -6.119919804976038380e-01 2.908512472401018067e-01 -1.528330259801820912e+00 -1.598357643227331648e+00 1.289605083779165717e+00 -3.819048857991015622e-02 -5.778846393166928164e-02 -3.895568002780114836e-01 2.856924163901707336e-01 -5.848650463992678683e-02 -2.200457998421641304e-01 -1.343131558114314172e+00 2.841861290370361059e-01 1.713756783212939006e+00 2.317002614905229116e-02 -1.641877322713679144e+00 9.769283791540966932e-02 -1.089427009592182083e+00 -1.840002413901223877e+00 6.120651318106855587e-01 6.594368432476296338e-01 2.308368237252574229e+00
-5.846882792993319811e-01 -3.547665562236707038e-02 -1.135681265833048181e+00 -1.187274446501978220e+00 -4.156102661394357467e-01 3.445388289119480918e-01 -1.043649123597345296e+00 1.788121897214856704e+00 4.149321331459115414e-01 -1.560811125050665549e+00 5.323220312007922450e-01 1.930338834433837913e-01 7.468165487041803496e-01 -1.598818959392864780e+00 -2.064739872921570255e-02 3.011550372133572129e+00 -4.518756117164306474e-01 -7.266372295279239779e-01 -1.775998229458024991e+00 -3.157983072846545225e-01 -1.851736005415362207e+00 -8.441163934986812833e-01 2.030692218846298636e-01 5.297527056305324084e-02 -1.228808899479103545e+00 1.099410824549307497e+00 -9.870251416751587570e-01 1.889246317998891644e-01 -3.865086471882916985e-01 7.052563376253701000e-01 1.427197995981736245e+00 8.132734612085633641e-01
6.268536463280832693e-01 -6.067372343326337125e-01 -3.126702064196996145e-01 -1.020700270173352742e+00 1.200102449858633680e+00 -4.864932597721516316e-01 6.474977828285062298e-01 2.068389845930279858e+00 8.842166635157387988e-01 1.853158761176801061e-01 1.881443202094303380e-01 -1.198250758022284396e-01 1.977450010839191252e+00 -9.009518367689399732e-01 -6.808484062161185291e-01 2.518473033393256455e-01 1.577917541846745708e+00 -4.657306321875890887e-01 2.776182376914158173e-02 2.205407479245691693e+00 7.810847040197904656e-02 1.202673898922446138e+00 -5.631506081805680575e-01 -1.464717282584035773e+00 1.674867490137201265e-01 1.810709323746437560e+00 8.969144905607592463e-03 1.228665491775285563e-02 8.409142020228044245e-01 -4.117723044519273901e-03 2.114305141670512533e+00 2.915057676302216794e-01
6.759394099492436192e-01 5.208308585553500514e-02 -1.593777039044555810e+00 -1.262395973238135349e+00 -7.741454138630293746e-01 6.871479621436328289e-01 1.382031856929668345e+00 -4.312446523989918457e-02 -7.319801858877327261e-01 -4.327900048678575695e-01 1.467700667539635351e-01 -3.617472054184288632e-01 -1.541781238259888887e-01 2.830537641087722989e+00 -4.417975746302880147e-01 -1.645844538982913718e+00 1.012331337345333093e+00 1.790794826165491793e+00 1.096057634891620225e+00 -2.305677496976471508e-01 -3.936422910991689839e-01 5.318772038317444162e-01 2.144752471928876858e-01 -1.210463556430538129e-01 -2.648152588379576455e-02 -5.216695649532878676e-01 -9.587249146731052774e-01 -8.717779819520486695e-02 -1.111827846587202906e+00 -2.961777127534054657e-02 2.560404160121200756e-01 -6.638006321093479212e-01
-1.436618683618780645e+00 -1.261910172833046406e+00 -7.397016765382157244e-01 -5.991334587427911140e-01 -1.524890816615207312e+00 1.152775794667134646e+00 -2.728409726602163965e-01 6.853943822172871292e-02 1.693167242711315135e+00 -1.469596382491046072e+00 4.951049794952719907e-01 7.261856585696484512e-01 8.185037821040097583e-01 -7.661886365588234105e-01 9.876891880459295892e-02 -1.297400568821196476e+00 -1.102284152210778467e-01 1.564152933568834891e+00 6.665484799561751661e-01 -1.408744378447557732e+00 1.203653438908282469e+00 -2.966864325686119908e-01 3.398399763989300437e-01 -1.632621777181100464e+00 5.266532310194369515e-01 -7.591504801104228539e-01 -1.452199063497484177e+00 1.846456857720030764e-01 -7.078618296659253684e-01 9.064299350313093084e-01 -9.377577619280316190e-01 1.086986191718734007e+00
1.683443837486930272e+00 8.004654930038759275e-01 3.385769116904001341e-02 1.133037902396377472e+00 -1.175611630067784352e+00 -2.212780570575018368e-01 -1.323267766817154412e+00 9.257553993842779216e-02 1.067703973221120067e-01 1.051778369425729220e+00 -5.805614309914682199e-03 -6.019730065973903921e-01 -3.055372308558950145e-01 4.919275622337876963e-01 1.824382051689111828e+00 -3.412197459152873091e-01 -7.795092213296767047e-01 5.687475106131948399e-01 1.426446859703731640e+00 -5.235507284015729068e-01 -2.318654035951210057e-01 4.859048514906171290e-01 9.449453070202838978e-01 1.921990658214620229e+00 3.618901521314613762e-02 1.140833079034238029e+00 1.180568146224567627e+00 -1.063016326291005953e+00 -3.909626726009278186e-01 2.017719087062460392e+00 -4.524135302803833358e-01 1.944077874940300654e-01
1.159513751866700026e+00 -1.636889173112257456e+00 -6.923191967495273547e-01 1.632644014974051094e+00 8.022454542412070788e-01 1.590158464894661505e-01 7.098784875877013345e-01 -1.822061325179189506e-01 1.776647560940881887e-01 -6.813694035545611039e-01 1.237276395515761074e+00 3.973787929939463504e-01 9.597469196829977456e-01 -5.582721899954314893e-01 1.517197244562613900e-01 -1.511970943500172915e+00 -5.130337266082648506e-01 -1.673955685222560552e+00 2.354521624054253803e-01 4.491554703146597993e-01 9.697485272306545223e-01 3.504712423034160307e-01 -1.460786738787454464e+00 -1.086953272391554481e+00 -2.938887951446890745e-01 4.299501784916198027e-02 2.313641464606316145e+00 -1.884684047425947695e-01 3.066904320015415020e-02 -2.076871640839735300e-01 -3.150164449051326421e-01 -8.572286879262085157e-02
1.079605568684874006e+00 7.910714830595139135e-01 8.652552594267861608e-01 -2.690603849384202162e-01 2.860631959036869620e+00 1.063322091639269384e+00 3.624115806421736030e-01 -3.072212385040935523e-01 1.192574225726329651e+00 1.084987647367869679e+00 4.958458325702956859e-01 1.381556403899349306e+00 1.439856256406917057e+00 -1.115551036574650379e+00 2.082536921868227975e-01 2.494108039930689399e-02 -7.211484933829006572e-01 1.954998281043246466e+00 4.922461151248095912e-01 -1.241728441971466035e+00 -7.864750668896455243e-01 -1.936502016940354898e-01 5.808250139996444517e-02 -1.405775192227009196e+00 6.171766202053247108e-01 2.019106766664101049e-01 5.891117862410785166e-01 -2.569598296347659905e-01 3.421717265042953371e-02 1.364867571121786805e+00 -2.063596216525314664e-01 -1.119493397669495405e-01
-6.715484971764409949e-02 -2.160181546929197616e+00 8.928436174994248686e-01 -1.018039243066130167e-02 -1.136297324391601471e+00 -9.597912941598216729e-01 8.130501765841402495e-01 -4.059511199375764323e-01 -4.715568446802725737e-03 -1.741391235377331426e-01 4.598855653245120800e-02 -1.317951642995191630e+00 -3.854957930959388990e-01 -1.028659111319353281e+00 4.077548566514715978e-01 -3.917854352462515899e-01 2.050344879852999291e+00 -5.531133977629387743e-01 -4.729987563540153928e-01 -1.592149466955964598e+00 6.048385796590227681e-01 -1.204356483426545443e+00 -1.929179556148381991e+00 1.191369757165451126e+00 -1.497503151416120559e+00 -1.700592693010158030e+00 -1.361717086772696206e+00 -7.961188282843441044e-01 -3.874015425455538120e-01 -2.019183483112634014e-01 -7.169493954387016199e-01 7.327166602691230768e-01
3.368303087805202822e-01 -3.237060308247906026e-01 -2.866498566362298828e-01 1.714205194882689964e+00 -3.334777799556704281e+00 1.678795082579754572e-01 -3.322825914510173506e-01 6.031119659995802795e-01 1.660996387894918769e+00 -1.214392127357538514e-01 -2.261671090794218908e-01 -6.242823153394679719e-02 -1.380497238017333483e+00 9.665724301038285393e-01 9.273520782229779380e-01 3.504343283546417775e-01 -1.707782735355333648e+00 -1.985728107113314267e-01 -5.566423865589846792e-04 1.153952037968663857e+00 -3.600900518998990940e-02 3.393312027020676386e-02 -2.251660108609002120e-01 -2.047306659790540731e-02 1.474053455104638921e+00 -4.502843945384282787e-01 5.800701962050056615e-01 -5.160794429743698064e-01 2.811114227008513350e-02 1.456770478737888119e+00 -7.170157101812559830e-01 2.132447521461200868e+00
9.942438669841251464e-01 -1.513794073376047988e-01 -1.235911974230663901e+00 -2.216478840366994593e-02 -8.513672685457720490e-01 1.372425350215032758e+00 2.472914592891678753e-01 2.828463525019181413e-01 -3.084442077474906507e-01 -1.376420687238119722e+00 8.682956373142495243e-01 3.883955091397943427e-02 -3.431297849778168207e-01 8.331091352266546401e-01 -3.602552528208918248e-01 -6.712907691404951249e-01 1.278298896999748635e+00 -1.415087990221974845e-01 -3.946485905231682523e-01 4.159113828880689478e-01 4.611503617653957554e-01 -6.405734593633065632e-01 3.647221385584715758e-01 1.305757964641488522e+00 -1.267619121449364172e+00 7.165914148889410695e-01 1.864663423616451099e-01 -1.862419157396849823e+00 2.434438320282760415e+00 -8.845397222715413177e-01 -1.419727177876760171e+00 -3.441632776222906531e-01
