9.122453979019050363e-02 -4.458238506882427621e-01 -1.903301456054837137e+00 -1.788662697341900643e+00 -1.185454716520389029e+00 2.910343786880884367e-03 6.351476770287982632e-01 -1.007397461667407929e-01 4.542565982330570407e+00 4.390409198353994458e-01 7.963944895716267361e-03 -9.784179549447750146e-01 3.530139349889335754e-01 -1.927776709451655801e+00 -1.196159678393689946e-01 1.542368544655677409e+00
-6.135664787029456946e+00 -1.706424313060685760e+00 -2.327786275605223221e+00 2.056218633981239385e+00 7.252433197653296304e-01 -6.118931149705678640e-01 1.264254674452577332e+00 -1.094416375091225246e+00 -7.277330988151674562e-01 1.022414255616730938e-01 1.575900221098742282e+00 -1.108748932967560163e+00 1.347171909880761742e+00 -1.549409062812472815e+00 1.158539338158269594e+00 2.278710026777659881e+00
9.689334308314722088e-01 1.044838993771103786e+00 -3.018153371214028269e+00 -2.460170929875292511e+00 -4.422644237407247214e-01 -5.330754474660281267e-02 9.452273322024125068e-01 1.741513931467354892e+00 -3.179614986504894159e+00 8.426501189980023510e-01 2.658698445008322420e+00 -1.817913584232951074e-01 -2.679506468376404715e-01 -1.333024592782200868e+00 -1.473964095757075189e-02 -1.057734256764478076e+00
4.501276926166591363e-01 -2.396803146021766029e+00 -8.283260149369652270e-01 1.300113790906584743e+00 1.405821709915196394e+00 8.973860350883589021e-01 -1.680343497485644821e+00 1.597482718817819558e+00 6.697844159305036404e-01 -2.265133909001996848e+00 -3.265687054190376942e-02 -2.625743146037211595e+00 1.316557025621308552e-01 -3.943814694369980334e-01 -8.344218309253344235e-02 1.219914935776682086e+00
5.766106680406519747e-01 3.194835450107156305e+00 -2.321157215956715536e+00 5.939072948154682230e-01 1.319155411519431498e+00 8.528623333517711957e-01 9.815803624431297392e-01 -6.012484385924478092e-01 -3.230352856703440079e+00 -4.918407245082462853e-01 1.686278706837679220e+00 -2.435417245574862388e+00 -3.239418070252424009e+00 1.218854806074423647e-02 1.650397539158068305e+00 1.615634682469545558e-01
8.787701585541761728e-01 1.201983046106990916e+00 4.813633902532530762e+00 -8.668017221889899870e-01 -2.056485338433758692e+00 8.027604119425324480e-01 -1.928406073340212412e+00 1.365801741476667663e+00 -1.045035390698394462e+00 -8.981774567681418686e-01 2.046988100533629673e+00 3.238256752770751312e+00 -5.264659405085184707e-01 1.221993483025766380e+00 -5.220989976193038951e-01 -2.032647362139830882e+00
7.844715102765272841e-01 9.883081610973054598e-01 -1.962578284752111824e+00 -1.539611595744577954e+00 8.148487633735209679e-01 -6.842058746453560936e-01 1.845196244729592872e+00 2.166993847396163075e-01 9.609768226695196702e-01 1.309632182275610068e+00 2.114500708889050229e-01 -1.808778731062782086e+00 -8.664147995368407518e-01 -3.051907307426125482e-01 -1.661787412730620084e-01 1.512513149385022571e+00
-3.316907921745897436e+00 -6.867556142523351115e-01 4.067784126450075810e+00 -1.304192670306138169e+00 2.736695933917002166e-01 -1.175022517995190779e-01 1.041648550081960334e+00 9.311046801132198958e-01 -1.823048923188183457e+00 -1.652090820713150165e+00 -6.335113117223362122e-01 2.740320568789545774e+00 5.552714681827559673e-01 -7.206095376360555083e-01 -1.319930658870664075e+00 1.398153821351719728e-01
-5.831096994985011106e-01 2.906296915593091779e+00 1.243594000679983103e-01 2.159938782069549923e+00 -3.279644572546543957e-01 9.871863203042309243e-01 7.293647791772512878e-01 1.688988456172357822e+00 3.953237002149407320e-01 6.954915866904963773e-01 -2.713100345871512165e+00 -1.337282649288697112e+00 -3.606706578970539923e-01 1.202195299564106978e+00 -4.017519026256325176e+00 1.280050303942368295e+00
1.262671974650648066e+00 -2.815384988039288050e+00 1.457919468278055852e+00 7.199914091745993616e-01 5.182340150735493811e-01 -1.258120524897522907e+00 5.250741475129139246e-01 -1.542543515482331484e+00 -9.340242471647937084e-01 1.429265798168521506e+00 -3.137766117119535902e+00 5.050457560538371027e+00 -1.213028981222617819e+00 3.775611129209560657e-01 3.659569116364600472e-01 1.843399692754884092e-02
