1.220512585565186381e+00 5.643878365349874748e-01 -2.628455554346773027e-01 -3.972462547541319999e-01 -2.822115526152895182e-01 -7.277205792858434386e-01 1.461281889332278761e-01 8.815698403228788838e-01 -3.611252241103466432e-01 1.419482168153083812e+00 -6.292258336919522022e-02 -3.876928344152207329e-01 6.016486889153012108e-01 -1.481188246494596350e-01 -3.144636560047379126e-01 7.762700452669311080e-01 8.459110872489811195e-01 -1.300470349910657630e-01 1.253921036565455172e+00 -9.491131738295810472e-01 -8.838512410317210799e-01 -1.872832181413092378e+00 9.650480165696486701e-01 -1.146974245463331599e+00 1.572760042243214862e+00 6.875090261605751873e-01 -9.460782316558632443e-01 3.582080716433218015e-01 -5.542876521576247661e-01 8.001625634572530066e-01 -1.563394680670226466e-01 3.653943456128889711e-01 -2.191776159057308604e+00 7.641109435061191335e-02 5.032570644844894803e-01 -1.169062382975288861e+00 4.107992267311360024e-01 1.294661029532947927e+00 3.798994402054257091e-01 1.261988177669763456e+00 1.707984504775336421e-01 -1.272102577859430816e+00 -3.726723263984602075e-02 1.536130656291509133e+00 3.782749495404189033e-01 1.604788377261212595e+00 3.152483075849821792e-01 -5.216230490389899277e-01 5.774461436882550869e-01 1.608165410068725487e+00 -9.765179055526793661e-01 -7.091442259483281552e-01 -1.365124195346754332e+00 -8.585574713064829666e-01 -1.359038687976806825e+00 1.386543154886752172e+00 -2.285659280809290816e+00 -6.358691325470136047e-01 -7.623644058076586294e-01 6.966099268409281509e-02 3.884300243079477077e-01 -1.582827771049617027e+00 1.981087101960963937e+00 -3.829272562049236828e-01
-8.279062238601651857e-02 1.826710745215756271e+00 -6.580888611043214653e-02 -3.139566167833089394e-01 2.118314254501721949e-01 -1.644085967415173988e+00 5.748568450287611098e-01 -3.518201433821401825e-01 2.750639447024709194e-01 -6.713531927587905734e-01 -1.547564400546235230e+00 2.054111954154720643e-01 4.138627916577815591e-01 1.567685206941271225e+00 1.935088285309847222e+00 -1.315385367774353442e+00 -7.169030447426413266e-01 -3.662008245819265428e-01 1.792078208443613541e+00 -1.878663863690225977e+00 8.347616002104674138e-01 1.581798064979683949e-01 1.344416363168905226e+00 7.315256000594962948e-01 3.900093069430177195e-01 1.577732464073410945e+00 -1.769188696403081185e+00 -1.275299597068522806e+00 -1.800717626698861706e-01 1.267274783791752180e+00 4.395471569453768268e-01 5.853829105991307236e-01 1.034163753127717467e+00 -4.269315412294882872e-01 1.201029617934979754e+00 7.823780333290689670e-01 4.612705595322234009e-01 4.498152834020028301e-01 -1.728778914463722449e+00 -7.013978619510884416e-01 1.151083032326533639e-01 -1.469477896581544263e+00 3.588426783168092160e-01 -9.204283195257670913e-01 -1.142882339697556482e+00 -8.316326839524167125e-02 4.225332310028200311e-01 -3.694735698990442296e-01 2.819413752344830937e-01 1.283794242163452504e+00 -5.039711590876163605e-01 3.174316678739059761e-01 -1.668538794258288105e+00 1.793378209833976111e+00 1.989193931252149605e+00 1.779600352287963982e+00 -9.932285756502052809e-01 4.172372853589794151e-01 9.184764730635552876e-01 6.770625557087242008e-01 -6.913500305352064945e-01 6.583900473524327834e-01 1.543746653671006275e+00 -1.090689426344249702e+00
1.026746459312007032e+00 8.543585924623313677e-01 -2.759891997317301393e-01 -7.551925900627762811e-01 7.118397703725283243e-01 8.771260518254835326e-01 1.313994952899446123e+00 1.277030685910638952e-01 2.398658053959338565e-01 -1.211097289890658901e+00 -5.074678957674482183e-01 -9.403607017899612286e-01 -2.707294110598514325e-01 -4.624305657011964499e-01 -1.464931405042891210e+00 2.719035262162891042e-01 -1.452247544907293852e-02 4.184509701130965653e-01 -4.357711664146045050e-01 -1.526090158578930156e+00 4.239708687599705317e-01 -1.429912668213694893e+00 -8.214981321075502940e-01 1.011715187573273556e-01 -1.027497190726121667e+00 -1.240534838724311140e+00 7.394810313916048150e-01 -6.657443852902243941e-01 1.701815434410366701e-01 -7.120951367847160318e-01 -7.493536996367656799e-01 1.080459758051324215e+00 -5.667759913503870317e-01 9.543051598530785662e-02 -1.387468757658983698e+00 -1.807516426936688347e-01 -7.364995876372238959e-01 5.070929811255275865e-01 1.313091032114847012e+00 -1.837873549037263299e-01 -3.873988765337461060e-01 -1.734836922518780689e-01 4.785679953376165696e-01 2.235609261913668322e-01 -1.365189857700915832e+00 1.175591779758171418e+00 -5.285249767495410200e-01 -4.591355647958359487e-01 -4.068954674917958925e-01 -1.020913205309249117e+00 1.564563060216923179e-02 1.840755354330378957e-01 -6.175300876327201038e-01 -1.311050631251115331e-02 1.264020396010871572e+00 2.399681117596680069e-01 -4.027827004697342450e-01 2.313306140392229204e-01 5.649849359883816202e-01 2.044285029489656402e+00 1.197078286037519979e+00 -1.035693392510764310e+00 -1.133136613824197836e+00 1.191146640797632772e+00
-6.022507847381012303e-01 8.100100447993834329e-01 2.609914570653941168e-01 8.049717018333131247e-01 -4.356585343367054899e-03 8.909682132873351090e-01 6.270348641913174870e-01 -1.427246520216941983e+00 6.635508439766605315e-01 2.869081629632085906e-01 -3.121666306056206652e-01 -3.055734542236930307e-01 8.321180338607350735e-02 -3.203308884544496582e+00 4.559777143629717422e-01 -6.362252884241291762e-01 4.951788030569069243e-01 4.414632668346726851e-01 -5.369206055412598655e-01 5.841143266496157116e-01 -3.068011307626605233e-01 1.255307623608841183e-01 -9.454474307317527471e-01 3.333474196318159111e-01 8.533415144040416844e-02 3.148516300426397463e-02 -2.205761481158369008e+00 -1.030405140782143070e+00 -1.650206442979575083e+00 1.957064169300887446e+00 5.082075578627640589e-01 -2.189117682607622850e+00 1.727252731872002678e-01 2.163226245152751304e+00 6.128552562399764980e-01 3.429831742041887788e-01 4.524220051307131785e-01 1.093522357888150436e-02 -1.129207732499953598e-01 -3.614086980791696435e-01 -1.085497243131342326e+00 8.057554559120914117e-01 7.506308895053961372e-01 5.617946558110465949e-01 1.675506670849140844e+00 -9.637772034903439033e-01 -1.289070328757012440e+00 -1.857174580760615479e+00 -7.434830435697464823e-01 -2.044661538282105950e-01 1.368110434752653148e+00 1.416500995968749121e+00 -1.330279452787964667e+00 -1.585208608797577634e+00 -1.925616145722888195e-01 1.892973305706896259e+00 7.859910031531965879e-01 -3.578204869005634503e-01 -4.726480289847242305e-02 5.259165177464208973e-01 1.080680021083920472e+00 -1.758762576588728921e+00 -6.645720816779706608e-01 1.134216084322652085e+00
1.572141044311323732e+00 -7.329753275640906729e-01 3.456801698782011600e-01 9.515746283532765526e-01 6.183682985779650337e-02 7.335677365648564097e-01 4.591218995290409777e-01 -9.137564294071854887e-01 -7.068661550657727721e-01 -4.037132424908430606e-01 2.258240659287102936e-01 1.582970771139307509e+00 -2.465508264691235463e-01 -5.008242415825173710e-01 -1.680730631647971540e+00 -1.665148207092943533e+00 6.975115751955829335e-01 5.048084943580721795e-01 1.184516953184211241e+00 -4.771708011604102184e-01 1.139307293204390309e-01 -1.339284190837796817e+00 -7.283534139593331735e-01 1.004563865907997178e+00 4.268399853680311939e-01 -3.815193448823180900e-01 -2.592539009182124876e-01 2.110298354884768413e-01 2.142429287888990341e+00 -5.220039359640881171e-01 -1.488757344620882384e+00 -5.918690548761760400e-02 2.064128555588140290e-01 1.084446564897915355e+00 6.447017058070888540e-01 9.603717461268466149e-01 -6.187146717863537537e-01 1.372958016058949404e+00 -9.179707946017978681e-01 5.005343362235524785e-01 -4.504318561299221479e-01 5.873398988440647200e-02 3.738632844966757740e-02 -1.045759555840503729e+00 -4.657215598059574191e-01 -9.292419077281024453e-01 -4.854150056321879791e-01 1.959917604087313969e-01 1.696579827038991461e-01 1.173888783331956259e-01 2.286739148480573455e-02 2.471430648193635005e+00 5.183675717387096205e-01 8.710618158525896826e-01 -3.415227863755572746e-01 -3.919843314922581978e-01 2.684805051063345882e-01 1.029461085820721974e-02 1.543511641948104307e-01 -2.555875382785303129e-01 5.487630118749796670e-01 4.385283156604073973e-01 2.399235581893027214e-01 2.753270975057797720e-01
-7.539786808720235767e-01 -1.709303362632406120e-01 -1.191028260298694574e+00 8.711429736558742309e-01 1.381040798729021302e-01 -3.921444123221688449e-01 -3.160296265408403249e-01 -6.997591973869397020e-01 -3.373769738950560537e-01 7.853290860626317427e-01 -1.869878416631113871e-01 -1.740655678796812822e+00 -6.636602675975500354e-01 -1.385113132004902159e+00 -3.643669739810323494e-01 1.119640667360300990e+00 2.880102764332562182e-01 2.046328914432333709e-02 6.645742531929061947e-01 2.970857717411780285e+00 4.718263675318274536e-02 2.354785681716243528e-01 1.282607307019640208e+00 8.200666713283693010e-01 -1.525241033983026906e-01 1.685520744399364945e+00 1.846025678135361892e+00 -6.174483956009487740e-01 -1.392647008321310498e+00 4.895415524933046103e-01 2.475674981297279198e-01 -2.516626025987813153e-01 -1.193452778438246487e+00 -1.271203498676724886e+00 1.350490568186464957e+00 1.874235514796010471e-02 5.960901490481717024e-01 1.432015614935723935e+00 -1.379128003472025021e+00 1.435856312691762282e+00 -7.946348846097844865e-01 -1.572115676935158080e+00 4.033968944765943809e-01 3.605294731647381568e-01 1.045764958684991086e+00 -5.139752488024893484e-01 -1.849828535472364921e+00 9.977128557259814512e-01 2.870101810281282528e-01 2.397680348066973943e-01 3.258970864131320866e-01 1.182952529778837497e-01 1.705094747277871470e+00 -9.213178013136424926e-01 1.321839731755850289e-01 1.609211362991513239e+00 1.306067601344973905e+00 -3.250468322065376836e-01 -3.483070578137240081e-01 2.322849940209058772e+00 -8.756851336709711719e-02 -1.027210486257372546e+00 -6.041258956947607173e-01 7.090401466239587558e-01
-1.481452531916054749e+00 4.206323004331742332e-01 1.613209906325167475e+00 6.232692333644751503e-01 9.613882078225998162e-01 7.465220845750240031e-01 1.185335938235808184e+00 -4.990363665803154158e-01 -9.885832124110919272e-01 -6.539825659460370977e-01 7.468597162500287268e-02 -3.887300275803561300e-01 -7.594329216267532434e-01 6.521900779139403470e-01 1.851885234887701515e+00 3.950466940859208576e-01 -4.877199152668987292e-01 6.106172081377480021e-01 6.491388470978866343e-02 3.796003972940596993e-01 -4.929993322157904534e-01 9.366572297865549679e-02 8.777230613762825040e-02 3.343145855624152923e-02 -1.373097685231257525e+00 1.508862045349730563e+00 5.675767087945036149e-01 -1.111354153855383387e-01 -2.410381417952053018e-01 9.180184277491167943e-01 8.504515139410949442e-02 -8.576452097443673095e-01 -5.406345374134738924e-01 -1.926760765929395325e-01 -1.075585711969865965e+00 -4.381201055975191827e-01 7.240376291580201684e-01 1.180032512917841725e+00 -1.524403362810001994e+00 1.404802943656138448e+00 3.963003009975996083e-02 1.627880734294398613e+00 -7.718092263344595860e-01 -5.242636263361407645e-01 5.748575518379902549e-01 6.204386672881430087e-01 3.748839207670751072e-01 1.280756106880518885e+00 -7.731064877923002343e-02 1.415333032541862823e-01 -9.290688881015467526e-01 -1.817804084087382421e-01 2.904587004185662513e-01 -7.165170002747387468e-01 -7.567539368682784096e-01 -1.264054028241420546e+00 2.296244414907144538e-01 -5.306292349633309202e-01 -1.294781617149991959e+00 -5.085697805194293597e-01 -1.048841172951653578e+00 -3.598715011875782688e-01 -1.758787389384032895e+00 4.516535306315030418e-01
2.068219910204354972e-01 -2.764366064884313245e-01 1.660834623022750423e+00 1.130670505591910180e+00 4.716802867111413167e-01 -1.757427282360072840e-01 -1.966235881448044509e+00 -2.815956897058232489e+00 -8.721289809407349880e-01 -4.000279523999851761e-01 -1.459584518976026812e+00 -1.320288633904713071e+00 -1.077549545430676048e-01 -6.598698061009447002e-01 -2.383554902710787626e+00 -1.298988216750098346e+00 -1.991101647807323793e+00 -1.126141236091701865e-02 -1.350071500022710591e+00 1.520698756858245737e+00 1.965350700168665699e-01 -2.007738628991261598e-01 9.127145391052047252e-01 1.637548908025636685e-01 1.396519813368387819e+00 -1.595298774894220450e+00 1.404434010916140452e-01 -3.813545629630548106e-01 2.645042889273984121e-01 -6.481125296593381879e-01 7.099548414240889338e-01 -2.149562257607191551e-01 -2.969043240023451768e-01 2.157454219815133634e-01 -1.549292312826558771e+00 -4.839801316871156778e-01 -3.153181049879979270e+00 -5.575332597461568618e-01 4.350210012720131525e-01 -5.383590383214310604e-01 1.327670398914591710e+00 1.323574995249916786e-01 3.259436217741837893e-01 -6.612491764408893191e-01 -5.844048686077583099e-01 -2.963124756605968191e+00 2.967865955716150195e-01 1.356742516201364102e-01 -1.123709489413649454e+00 1.941917201292194362e+00 -1.087138755547141900e+00 -2.693536612300123645e-01 1.120485647612916802e+00 -1.457653054808900894e-01 -5.748826159226977373e-01 2.824444569433535168e-01 -2.515647606343084930e-01 -9.500057391738164769e-01 1.090511859817396401e+00 6.624887172172537753e-01 -6.481413274775348343e-01 1.337719272088778055e+00 -2.344333235899473400e-01 2.210842766101024648e-01
-9.917065713178468966e-02 -1.124110211865178011e+00 1.095663472535506749e-01 5.802935769603685401e-01 -7.182446447851382754e-01 -8.681443080778058485e-01 -7.342516100287334313e-02 2.142847100366740698e-01 -1.723876251473803467e-01 1.135710067305998550e+00 2.343960485000453620e+00 4.889270668860072333e-01 9.040263573692622900e-01 1.048915734428925051e+00 -1.500787194525284307e-01 1.902263700916499989e+00 -7.495634394626506936e-01 1.796458048927287221e+00 1.552738133653970731e+00 -1.073005794252259060e+00 1.074317067289799477e+00 -3.675287792262099673e-02 -3.504729677382359410e-01 -1.296519331218604520e+00 2.381065501633332915e-01 -1.906475131160909331e-01 9.393728138841634934e-01 -1.757627875655374039e+00 -1.145251087113500876e+00 -1.235894922618237191e+00 4.373032383209622398e-01 -3.073588757091675894e-01 -3.453099773641882808e-01 7.324944258163026412e-01 -2.616382227001018412e-01 -6.600775328076333159e-02 -3.715284385640510445e-01 -7.515796291732668166e-01 -4.028593438484429079e-01 6.890290515624136747e-01 -2.181327096624483264e-01 3.585505546241760100e-01 6.753129696405247850e-01 1.256126585243794169e+00 -2.768768348971520354e-01 6.278825777928526142e-01 -5.829914244723052308e-01 3.317623196504138061e-01 4.145797100360979481e-01 5.485333306540369769e-01 -7.933446824484909898e-01 5.969453972091032234e-01 -2.006689481162216460e+00 3.678904755752539502e-01 4.506019069092393470e-01 -1.916537645419272851e+00 -6.559894677790457651e-01 1.300954898649981928e+00 1.848607397959610987e-01 1.940703519780305086e+00 -1.935816840853088694e+00 -1.472960062629533884e-01 1.608653982197601806e+00 9.667931949210918363e-01
5.099617364749927523e-02 9.350189170438194530e-01 -6.028940648390676560e-02 -1.168600405686950117e+00 9.273805307054191482e-01 -6.976430655547692927e-01 6.453874808744479719e-01 -1.549424044575662684e-01 -7.674781452312582353e-01 -1.774949270476857410e-01 1.770708456031961364e-01 1.169556279613542360e+00 -2.651858551872840128e-02 -5.665303867261201054e-01 -1.698046523160649246e-01 -2.699107212735891159e-01 -3.341598205243276887e-01 -1.374086528099349502e+00 -1.957464354215408819e-01 1.712733953490098715e+00 -1.542315518142173270e+00 1.571788105470149355e-01 -7.036182860014807972e-01 4.124431521403226081e-02 -6.111462306357994256e-01 -5.264471291303721712e-01 1.148198758848396478e-01 -7.042382709776557892e-01 -1.398733864822903517e+00 1.207036038106356068e+00 -3.595869050383935783e-01 1.226229331097849901e-01 -3.512785732247825643e-01 2.430322659712201294e-01 -1.451472154251286284e+00 -8.940935576856021694e-01 1.894658627512478155e+00 1.852104161487820588e-02 -1.233998409970710641e+00 -1.751444410494802650e-01 -5.573068331937081066e-01 5.338563590195916087e-01 -7.034219914758027548e-01 3.085160992272939495e-01 3.816429440785976124e-01 8.385050715812469857e-01 9.675345101673061832e-01 6.365307570267124682e-01 4.351037805773642075e-01 -1.615938820242517338e+00 4.192342708367150506e-01 6.628997121093326284e-01 1.725193372470620989e+00 7.303986819298645683e-01 -5.874727512402035945e-01 -3.521593314981338874e-01 -1.064770194404154463e-01 5.433761449739695770e-01 -1.259854435201198442e+00 2.459114028561371068e+00 7.448954703712633574e-01 1.844081524843340203e+00 -2.617349829369792213e-01 9.057917679152057699e-01
-1.154888297993047486e+00 -8.805668132473107312e-02 -8.021199619101674338e-01 1.555029057143946236e+00 5.327226897109847981e-01 6.283665676661690513e-01 -1.542277576293285657e+00 -5.009803322930536096e-01 1.117178645872857201e-01 -9.468130435811780155e-01 -1.359349704069537257e+00 7.087174626684803469e-01 1.194246265518865480e+00 1.143366600034761094e+00 4.295842676182461961e-01 1.225788516930553129e+00 -1.966685188551965613e+00 1.517836468464721866e+00 4.932567506486543740e-01 -8.563453075135672721e-02 3.519616750970419594e-01 5.782138203166615753e-01 -6.717107697988519144e-01 1.500486451737410354e+00 -3.328817593004366193e-01 1.736041901791862407e-01 2.683545826807968715e-01 -8.969466674581113574e-01 6.403712820003304440e-01 -3.911427045795790591e-01 -7.821953208855846329e-01 1.061167611009251166e+00 8.838778071745947984e-02 -2.932024213573390381e-01 4.604864885465394242e-02 -7.584475933147656335e-01 -2.475117367677622582e+00 1.868328925823427022e+00 -1.641664875009342661e-01 6.309937724832007655e-01 -7.384120127236589726e-01 1.456704246537955161e+00 -3.500265073668699101e-01 -1.503286192810861788e-01 7.474102186917273016e-01 7.457915920673588994e-01 9.668223427423812133e-01 1.188471927755047286e+00 9.985525401493995368e-01 -2.015202599791110494e+00 -7.922800505438957197e-01 9.141143873844964629e-02 1.930773456300498292e-01 -8.424185987583131530e-01 -9.951587937822334862e-01 -2.416187961628498415e-01 1.046506471481584377e+00 2.322034865755479294e-01 -1.602553713826537551e+00 -9.326613028689866303e-01 -5.531101989631682647e-01 -1.406218152243041919e+00 4.010959909078678359e-02 3.324379351706547303e-01
7.308870311086946847e-01 4.375398570159321765e-01 -8.440543045728886584e-01 3.693136254916007388e+00 -6.543035512880441829e-01 5.161705802516201036e-01 -1.153380371054530951e+00 -9.949124281622183652e-01 -7.963764559911520879e-02 -2.505995485057581629e+00 1.428841557610998070e+00 -1.157100810905161481e+00 -1.600409181759058219e-01 1.507893487635187102e-01 -4.062842161212947278e-01 -3.525876621309689263e-01 1.490024680523598155e+00 9.451799662862977458e-01 1.620285151686665426e+00 8.448176111965691737e-01 -1.790879968648347864e-01 -7.414105565886676130e-01 -3.252692368188342953e-01 2.738715346339423706e-01 -7.925242599400578181e-01 -5.568364375928592791e-01 9.260417875003226218e-01 2.052590980678772048e-01 1.087708066972356447e+00 2.318576017315742366e+00 6.208240861686147305e-01 5.223724213008004713e-02 -1.886368458631941580e+00 -8.506971242254431909e-01 1.228425382333968585e+00 6.270081690574318412e-01 8.686452113280214160e-01 -3.199695225368002216e+00 -1.079355061757713230e+00 -1.694039531246933850e+00 9.263910320035965151e-01 2.304322731112282696e+00 -2.559344165623279599e-01 1.561779644611739126e+00 7.133655865549918262e-01 -8.220274756230584456e-01 9.825065522937924678e-01 5.734981110985136743e-01 -6.179476387247223590e-01 -8.722486671272473568e-01 -4.618319675237009814e-01 -5.333695542688954294e-01 5.141345311364250437e-01 3.997498982446269500e-02 -6.143486123030579282e-01 6.979981343878431665e-02 -1.203586098510391222e+00 1.116036655121704024e+00 5.741253911003645349e-01 -6.075517526249351041e-01 -7.835186752621416950e-01 -7.651538425967602253e-01 9.322619561441172764e-02 3.643462984659647241e-01
-4.654345304964890850e-01 8.738087759936464805e-01 -5.323692458166060515e-01 2.145354933709291423e-01 -3.178138652559147626e-01 1.482655790917754013e+00 -4.380943460477599860e-01 -6.463562478284319290e-01 1.732282995270509662e+00 5.204641100112650243e-01 -1.996601797657361343e+00 -4.317028856871906184e-01 -3.057555444163569391e-01 2.965984450249448123e-01 -2.206518081703687517e-01 6.537070983912468547e-01 2.800744972613092298e-01 -3.617388322578150572e-01 9.196927656453103561e-02 2.526847170007832585e-02 -2.184829174483247982e+00 -2.053347831656750222e-01 1.881928147038538016e-02 -2.042507364117309432e-01 8.513608950141727805e-01 -2.341934359421560252e-01 5.783276888925650283e-01 1.910833064550214733e-01 -1.526898475936360466e-01 4.135881590485711995e-02 1.012407833925387024e+00 -9.434275525585055222e-01 5.587061255694920625e-01 1.140809747075404612e+00 -1.668729042085828729e+00 -3.543981721159158438e-01 7.832502251181233666e-01 -1.053388959351897025e+00 4.616803871230184542e-01 -7.484639633224907662e-01 5.714220460364685117e-01 7.848862575568864297e-02 -1.085910315084951394e+00 -2.506898617700832776e+00 -6.653835067374107570e-01 -2.952967408468984423e-01 -3.157915878064275206e-01 -1.795785173243178656e+00 -6.838073696476940633e-01 7.414909628234741534e-01 1.518635086786266075e-01 -1.424730274455575652e+00 -1.109936834939873940e+00 9.676983070302109802e-01 -5.039588552914864295e-01 1.367248961861800449e+00 -1.117408483187899870e+00 5.905954089983683764e-01 -3.208938037331895976e-01 -7.936135012880831674e-01 -1.022912092563581732e+00 1.063438971565364266e+00 9.341821230773461604e-01 9.730779316705427950e-01
-1.392536869452533077e+00 6.934028477053763018e-01 1.524775788285351874e-01 1.375687986027948062e+00 1.574792036948286844e+00 -1.548330998270979864e+00 6.089412812991288337e-01 9.457005671090358556e-02 -1.645905897016034292e+00 1.304254992886204612e+00 -1.230001424120985287e-01 9.275444695329060352e-01 -2.602330826697924482e-01 7.653853948378790129e-02 -1.652317609165496970e+00 8.349169889528774979e-02 -5.239043835839150010e-01 -2.897054837197710619e-01 -1.239289339468548246e+00 5.578907571692035550e-01 1.338092911846913369e+00 -1.149138509432843902e+00 1.259227027985092340e+00 -1.034673249537802486e-01 -1.023721983673491431e+00 6.367862245216183714e-01 -3.602598260250629569e-01 -5.611750043130746962e-02 1.734814105813194729e+00 1.142683356185189680e+00 -6.594907854592101382e-01 9.475486562859424255e-01 1.498353319599175171e+00 4.176663500241688531e-01 -2.335253081487911608e-01 4.644964874932901999e-01 9.856776926726990018e-02 9.399672416427911070e-01 9.138515489787456536e-01 -4.576740805321294348e-01 2.166977038255541999e-01 1.498763848955028566e+00 -5.063544486687241442e-01 4.922256913451212856e-01 8.420948388085380820e-01 1.981682700577804823e-01 1.041615421253530682e+00 -8.056687718054981184e-01 1.460153271177002665e-01 1.136631945845473002e+00 -5.180661580944517786e-01 -1.174609349832183680e+00 4.954409238985655328e-01 1.020420020409797290e+00 1.454231293333262620e+00 -2.391193891618512701e+00 -1.091987428811752148e+00 -2.338958185498614950e-01 5.118870631528902315e-01 1.178812010867464011e+00 -1.170872553556336015e+00 6.295218471033934282e-01 2.055162870184751078e+00 -8.051922388925206731e-01
1.525432925381755012e-01 1.667670587130077875e+00 -3.855346712802485420e-01 1.359833565838671543e+00 -5.211667295276860568e-01 -4.785345883648452481e-01 5.177947983085376960e-01 -1.288652093393716669e+00 4.752289423821353699e-03 -1.458868843593073672e+00 -1.242897130175321108e-01 1.604302554293999816e-01 1.842257604958500439e-01 8.321288327642917260e-01 8.461813468555138273e-01 -4.118488161586345768e-04 -1.056207032366988097e+00 -8.798961817342301761e-02 2.402507784606394026e+00 -6.017469365233207856e-01 1.122863918249871418e+00 -4.357146291796951676e-01 -1.519582852370281179e-01 -8.860688540511089117e-01 -4.506421429077354102e-01 -9.927196280496592973e-01 -1.161581728648791861e-01 -2.646904272927710355e-01 -3.231611493959430370e-01 -1.751640118460459750e+00 -3.908233662594060021e-02 1.320729504357364359e+00 -2.215431361639721985e-01 -5.879868922645526963e-01 -1.485587138598458146e-01 -7.398566591162390738e-02 9.513851472304869494e-01 7.349685189197786572e-01 1.156100581345719913e+00 1.485733695045384994e+00 1.330318722614545868e+00 1.299311333412516367e+00 1.028151604724311996e+00 6.982253154745770019e-01 6.270625187425987734e-01 -1.731860391326217385e+00 5.941198396305794605e-01 -3.579382502242720032e-01 3.367086938936272172e-02 2.010180259465067232e-01 -4.317965356197548399e-01 2.026109374932575924e-01 -5.938189975196993542e-01 -1.376606961737870671e+00 2.644804003513322677e+00 2.091896829977804906e+00 9.560365974001751033e-01 -2.208480568247084275e+00 1.913728116434142201e+00 2.300490573286468332e-01 2.137588138868626864e+00 2.066821410083904631e+00 1.693300412674689781e+00 -7.318674109330461919e-01
-1.851341371046227646e+00 -1.020705576976463469e+00 -1.085537927964711935e+00 -2.372886875182500521e+00 1.520003086261141112e+00 -8.593190169848720084e-01 5.421932678705077002e-01 -2.397585425046234453e-01 4.351751479684255464e-01 -4.811423851484930569e-01 -3.639994688628371278e-01 -8.682257438662319693e-01 1.700744044143153166e-01 2.310707324065663926e-01 1.643168634361772407e-01 7.046573693638736868e-01 -2.520786063514592890e+00 -7.656688040504856518e-01 4.440476225265225230e-01 1.295191673705579749e+00 9.568128182247532809e-01 5.330088111276635177e-01 -2.095750428823133782e-01 1.005205527823787914e+00 1.930122651378574083e-01 -3.156023938562894093e-01 -8.980214217992122938e-01 -1.117269262335271129e+00 -1.653952465655053883e-01 6.437780310565457409e-01 1.315248448936187087e+00 5.745507986295552705e-01 -2.874763983217932251e-01 -1.209873242940619376e+00 1.327464027051824313e+00 -9.377918163016427666e-01 -3.835455602343483261e-01 -3.867770447349195284e-01 -2.700608195184062144e-01 1.164435093127877741e+00 -1.462265972683078230e+00 1.281489305005830026e+00 -7.478996587947681629e-01 1.194072178467217693e+00 -1.475248184698692677e+00 -1.350283635844374830e-01 1.165658300626752908e+00 -6.339341076480903281e-01 -5.434564209353168196e-02 3.354528138174205087e-02 -1.011179653383600607e+00 1.858896990545294114e+00 1.368105883173648563e+00 -1.056409419385396120e+00 -6.417293520014182295e-01 5.798836218982833524e-01 -7.541572637162129444e-01 6.503107195757096282e-02 -7.215268739092366435e-01 -5.617072535956038060e-01 1.941375021129253253e-01 6.746531469804729619e-01 2.016992045729444627e-01 8.315800232547215787e-01
1.911126343565163310e+00 3.471901151658952633e-01 9.911497896607447400e-01 -2.067764270978841301e-01 -7.207255365745528497e-01 8.653293552981748959e-01 -7.550162690146372535e-01 1.367612488725758579e+00 2.871041709310712120e-01 -1.318312369511182247e+00 -4.009903224023939616e-01 8.210782621110300772e-01 -8.983490382990663159e-01 -1.105566616045180195e-01 -4.567448444914709027e-01 7.777009865923502352e-02 1.107267463988920619e+00 3.720420065970693191e-01 1.146707383485400689e+00 -1.481458826253637673e+00 1.687712795050038794e+00 6.297789899912287215e-02 3.678037711760331896e-01 -7.275406313564165561e-01 3.365879889328880770e-02 -3.386473339680603351e-02 1.277932700642026465e+00 2.327229231022904798e+00 1.727282612005562434e+00 -2.000542754181741323e+00 3.608937320828571327e-01 -2.509857416555773213e+00 3.260339840486121132e-01 5.144684197884060728e-01 1.811505529433780071e-01 -1.105159715578881485e+00 2.210359925109223189e-01 1.185359541261334221e-01 1.089585901812199387e+00 2.049094870453588513e+00 2.570842372269037113e-01 3.395071320050180308e-01 5.354187489678520206e-01 1.226753112657061051e-01 -1.359046619960757818e+00 -5.703409853043643896e-01 4.456191297370806215e-01 -6.498608911865970672e-01 4.254664023983504295e-01 4.497816489172700716e-01 1.695375405756128773e+00 3.068154397538563893e-01 -2.638222268030063766e-01 3.601725533410366636e-02 2.602086742699084354e+00 -5.780677174355735026e-01 1.814705342012024714e+00 1.821678461686448092e+00 2.005070943057844224e-01 4.669880093609907190e-01 -4.608612389055137815e-01 -1.458228650482822422e-02 2.092986906838668060e-01 -6.256759962952460619e-01
4.476712554796046240e-01 -5.513884413266957329e-01 3.087804153161965992e-01 8.751152675393065739e-01 1.117253902634395279e+00 1.810071697834214066e-01 4.868033563980172507e-01 -8.524931346342449201e-01 5.548702642402109780e-02 2.037005048586355116e+00 8.884906337875339566e-02 8.068281659528927507e-01 7.214727793032709169e-01 -4.823297374799945247e-01 -1.688996394476688645e-01 -1.604646089357797956e-01 -5.604323840011350422e-01 6.594250449812887327e-01 -6.260359264212496389e-02 -6.345104943685913046e-01 -2.892245296634421425e-01 -8.804674672870617114e-01 -8.809001264251499208e-01 1.689926568020367337e-01 1.294582923169241839e+00 1.890593563283187450e-01 8.676087421783672538e-01 -6.963532446489743011e-01 -7.861485610497207510e-01 8.650232147049158327e-02 -4.486194015879001462e-01 5.719846313135362736e-01 -9.037442858785972311e-01 9.813377917395339489e-01 -1.728079009297495361e+00 1.154488598178640801e+00 -1.602890848311825378e+00 -6.076908594864574020e-01 2.716860724351348177e-01 2.027265734601097158e+00 -6.807337979834358066e-01 -6.380786044491846276e-01 -8.727545273815926485e-01 5.747859326044831851e-01 -5.683722384495490942e-01 2.891042811436581594e-01 -6.689553680046187445e-01 -1.248378820039814041e+00 1.206184649086067040e+00 -4.425624538983926604e-01 -4.221886297139822442e-01 1.320769110382271627e+00 -2.731023453736066142e-01 1.034008412287990231e+00 -1.217270038126252674e+00 2.311716464466004317e-01 -4.951287544770317794e-03 -1.448303970667103258e+00 -3.322121155307872220e-01 -2.285024488590695901e-01 1.107564539593681507e+00 8.638329970079010600e-01 2.533848267275704114e+00 -9.205962587362667149e-01
3.085828187064915129e-01 1.175546905236954043e+00 -1.971892913557465876e+00 6.366582057468601619e-01 -8.892681326953735810e-02 9.357641419293174501e-01 1.161023574184010032e+00 2.140717679267182927e+00 1.221636159350047102e+00 1.632166862608547708e+00 -1.395685006992327948e-01 -1.599412075564683011e+00 3.634472861923254139e-01 1.274259387974769897e+00 4.358370488989228853e-01 -5.717473346741350770e-01 1.869186261644512959e+00 -8.592682714674350075e-01 4.165485141993283680e-01 -5.992685738260435796e-02 4.421089305333121278e-01 1.048797057032593738e+00 -1.390952949327821875e+00 -1.023257706351466290e+00 -2.837646031282355708e+00 1.371382095261296286e+00 5.516514278182003128e-01 2.634461824135235997e+00 -1.266052480964183324e+00 -1.782628467835625230e-01 -6.572475435594721249e-01 1.168315411134870363e+00 -1.208706329461306739e+00 -1.829186414949897976e+00 -1.535067554468805051e+00 7.938788015141008403e-01 -1.244531891780537469e+00 -1.019207559449733236e-01 6.239990527827872224e-01 -1.078722172306869620e+00 -7.447329851256642153e-01 -7.210934963743533821e-01 2.696748472970272870e-01 6.094824254902857508e-01 5.585506356269104300e-01 -5.189528644205599894e-01 1.484865377654021046e+00 7.440834075870465802e-02 7.665069317041247610e-01 1.030814674701024058e+00 -1.226405078065739396e+00 -5.640070720962484518e-01 -3.534960976042647030e-01 5.860738754197379885e-01 -9.895973130524368666e-02 -7.139009144856920397e-01 4.477750956548588041e-02 6.043604659180168426e-01 5.124836743807943407e-01 6.763180837286826286e-01 -8.872080996823705767e-01 6.757410996059395325e-01 -1.333358092663908812e+00 -6.489038749943851769e-01
4.373021449556065421e-01 -1.819019325653977726e+00 -1.062828620357240794e+00 2.665204139340428213e+00 -6.249054575523191879e-01 2.069278904121130580e+00 -9.266106870172947652e-01 -7.207836073154753054e-01 9.326369821680930983e-01 -9.487094983096486245e-02 -9.599048842798848513e-01 -4.163147630587621037e-03 1.267111582351982735e+00 1.553093764978687785e+00 1.155682095872067050e+00 1.151007832978722112e+00 -1.383207888139583286e+00 2.933932089547947042e-01 -1.084010885450676698e+00 1.692400024794360691e+00 7.595562395030338587e-01 1.072112855497241224e+00 9.213576690419518211e-01 -1.353000070699686308e+00 3.005539144527226338e-03 1.585931773982766080e+00 2.357879645527090340e-01 -7.260602508674868227e-01 3.403193775865427373e-01 -1.269472598649989403e-01 -3.554515836794174821e-01 -1.332933750732007816e+00 -8.091816230789825037e-02 -5.959512405967711812e-01 1.388378809233343336e+00 1.142559884337344789e+00 1.023749106943912857e+00 4.700669927126761016e-01 1.708650499856391836e+00 1.182368486288430054e+00 -1.541518385565931570e+00 -3.975492723198532641e-01 7.160131805643251690e-01 9.236166181052239965e-01 1.589970758044110810e-01 1.010952578597672069e+00 -8.321393342173111218e-02 -6.386321321002459417e-01 -7.750074992153302977e-01 -6.797692497026388558e-01 7.972899917093003719e-01 -1.227224921184671524e+00 -1.234461762039505750e+00 -1.453721872022837869e-01 1.967556612256915027e+00 1.884981661870547276e+00 -9.223096387131575202e-01 -4.681869693020460632e-01 3.320129197680996014e-02 -1.690601789421757040e-01 8.455545094873583301e-01 -1.461771718002363274e+00 2.711181568947244269e+00 5.290643810499693345e-01
1.202797399216575691e+00 -1.533670911667196490e+00 1.094672130265247789e+00 -7.816670257365112562e-01 1.966673559073909561e-01 1.663720631020993324e+00 -1.132530504874404542e+00 -2.494805903248923928e-01 4.122675314219299003e-01 -3.593411151611555776e-01 7.485645028857751404e-02 5.612846010273369046e-01 -2.043469046070488793e-01 -5.988439655020119101e-01 2.461501454746232831e+00 -5.940832207902447815e-01 4.619318273677140430e-01 2.105289697590250420e+00 1.688695210883199849e+00 -8.031755475201705075e-01 -1.695452924468988876e+00 3.054228431546123779e-01 6.494634818345148553e-01 9.510282627600128436e-01 -7.952668671256050148e-01 -1.524548357074193339e+00 -1.722526306703758003e-01 -1.415112032078149840e+00 -1.263146887970877819e+00 2.082683955452789615e+00 5.096522736772498563e-01 3.618028336570095482e-01 1.030196043349739465e+00 1.846241878887309840e+00 5.257748662273571405e-01 -4.379312261123816108e-01 3.843761685152504715e-01 -2.670473358376617701e-01 -3.136167040212753387e-02 -9.360966779506985080e-01 2.741032185000973342e-01 -1.247317626672774793e+00 -1.467225045553493423e+00 -2.224771313599141487e-01 -7.851064039024303609e-01 -1.128775755893929977e+00 -1.595477602831945896e-01 -4.379577630241433539e-01 -4.114745651921604686e-01 -2.443483595820858945e-01 9.942422191909151830e-02 8.318812081722085638e-01 2.910278038819179569e-01 1.423453413234732734e+00 -5.389268690400654815e-01 8.631939550729933464e-01 -3.106219963007303964e-01 5.104455537003979027e-01 -6.293293899649182732e-01 -4.651068711988401438e-01 1.822363042290605195e+00 -5.254731562410682733e-01 1.388891845182157025e+00 -1.286112214156672318e+00
-2.161299707474606813e-01 -5.159855020591346264e-01 8.537822249133358854e-01 -9.017752739989106647e-01 3.761847133535052290e-01 2.403082764008942718e+00 -1.518935665530258161e+00 1.746441533749745756e-01 1.930990682797892211e+00 1.016935397874273450e+00 -1.997651847618561627e+00 -3.138421670089659998e-01 1.269007171371782317e+00 -7.676164156171727537e-01 -7.349346924678672455e-01 2.956877955791959445e-01 -2.127879364851659183e+00 -1.350156339270146555e+00 1.550869649096773495e+00 -9.787979071525345631e-01 -3.016191585597282135e-02 -5.605793043069968729e-01 2.125742262925194859e-01 4.283425539758455303e-01 -1.314872081974985951e+00 -7.253155514187193953e-01 1.123446054171556741e+00 -1.456566615034955714e-01 -1.771257930118526280e+00 -9.854590622293285529e-01 9.197719635900378776e-01 -2.563345705378253570e+00 8.093714999757541939e-01 6.714517604688907682e-01 1.830421240374753566e-01 1.045474649918989307e+00 -1.713443286780677699e+00 4.380564693843995161e-01 -3.184803612199134659e-01 -1.218873240128853563e+00 5.989183157328861196e-01 7.940295979597832288e-01 -1.418717507567345271e+00 -2.531867491817944016e-01 -5.731518837181988069e-01 2.019874064960328341e-01 2.958578420667590941e-02 -8.940585365700608467e-01 -4.362130946274226928e-01 -1.314209899979864593e-01 -1.221055519585094506e+00 4.042035715948222308e-01 6.691331595718864600e-01 1.768098781043450363e-01 -1.656912686555449987e+00 1.292483925776927833e+00 7.299351832589227040e-01 -1.716867866284872868e+00 -3.978594759555936777e-01 -4.435097358953251634e-01 -1.341883775951829394e+00 9.482981063172084557e-01 3.110850929779542251e-01 -6.294540008993858293e-02
-3.583741218790882643e-02 -5.851411117394220707e-01 3.021289260234424900e-01 4.993984211865543643e-01 -2.073485599939969837e-01 3.077928649104527126e-01 -6.151626138860512016e-01 8.505726925993599696e-01 3.860092460393375058e-01 -9.011478178342468004e-01 1.809027434061710460e-01 7.184195238304247333e-01 -7.462366896270291594e-01 5.964548028434527582e-01 5.949022884807510930e-02 1.441955999791507237e+00 1.597752961005298733e+00 -1.783550145961262157e+00 3.837585439968799750e-01 -1.066669706262595385e+00 -8.535947826075127587e-01 2.046594828074149164e-01 -2.250565421273309497e+00 8.666308048609434600e-01 -1.134753675810468820e+00 -1.442655934134521978e+00 1.713404132949218450e+00 3.648387218167153945e-01 -2.767488100682661267e-01 3.497686307743785167e-02 1.524322987456342648e+00 -2.051804210604390444e-01 -3.217585959835296272e-01 -2.274728154462221374e-01 -7.209394519900336196e-01 8.881795485850478844e-01 -9.369544938631572117e-01 -8.054624797286488169e-01 1.376778573722708510e+00 -1.362546764368872010e+00 1.700188237846236738e+00 -9.337202881062655058e-01 3.646028793598173664e-03 -1.797413233875926775e+00 1.039017988396093717e+00 2.026734367643403090e+00 7.022644510587428002e-01 5.949567177954030450e-01 7.221749567392183877e-01 6.334195488638101335e-01 -1.609181481636275501e+00 6.266068716550602380e-01 4.307003198998942128e-01 5.041824691497117650e-01 -5.655809758987360158e-01 -5.685311171869403823e-01 1.928857511868740104e+00 -5.472409194435209345e-01 -6.205522237190799067e-02 2.229653470875793686e-01 -2.469218454429027709e-01 -6.717167119867711866e-01 9.357364891230616211e-01 4.687404826081528197e-01
8.214818825975980787e-02 4.650945890765227908e-01 -5.963444883216596493e-01 9.639572546962980049e-01 6.741256112377025378e-01 5.808180748185621800e-01 -1.716505554030631764e+00 -1.341852249411859432e+00 -1.318547688682114805e+00 1.855914274795328611e-01 5.212128863199504414e-01 3.490038513409170484e-01 4.509255198344449544e-01 1.132712894263848691e+00 4.597489315439207136e-01 8.257619584776478006e-02 -6.991262424974519218e-01 -7.329121240097269396e-01 9.436739726496672087e-02 -1.077952821780275433e-01 4.443230220139744446e-01 6.346314325228029629e-01 -1.302152202283530236e-01 -1.316971123734683502e+00 7.419559714017184282e-01 3.417147400719231648e-02 -1.099788497745129767e+00 -2.170180836890975296e-01 1.891794106453431823e+00 1.038038746159050812e-01 2.043938564938563296e+00 -8.963554436763817579e-01 1.348319521375433094e+00 -1.391221141612114520e-01 -6.595298488315993746e-01 2.311454227513736193e+00 1.902172369984861389e+00 -5.946660863568099809e-02 -1.112522786722664359e+00 -6.719752188457179809e-01 1.052302364014108038e+00 -2.369069409822650851e-02 -1.421739465894515941e+00 -6.760697952714821435e-01 -2.757218039160397871e-01 -8.284277240982211854e-01 3.981494141632165862e-01 2.058088123434305972e-01 -8.248216404789335821e-01 1.345115625689830452e+00 -8.012948159496156020e-01 -1.027039520854506893e+00 -1.770400905507575340e+00 8.369618190136312030e-01 1.457928674034253413e+00 9.005393394791305628e-01 -4.833100469497369489e-01 -5.277474529908502410e-01 -6.542066136192566939e-01 2.210265245462789130e-01 -5.712909726473567318e-01 1.798046190395240496e+00 5.972797638447127078e-01 1.865719891106014883e+00
3.900218918750023578e-01 1.205308754059075005e+00 1.863767855038773735e-01 -7.068360732987367667e-01 -2.316051073952382300e+00 4.406182090631357018e-01 -6.222655956559297596e-01 2.194012981082338332e+00 -2.947228009173958885e-01 -6.277963943970931160e-01 3.909424668221677113e-01 1.178664326893073655e+00 -7.958519077545428422e-02 6.121352286463892511e-01 7.165335661233352971e-01 1.774661808358868331e+00 8.840408233413669103e-01 -1.395385471248874465e+00 1.315137330669885030e+00 5.642651817089864297e-01 1.954661854613110705e+00 1.050701359161019921e+00 -3.017631158368888622e-01 -6.538458725200384514e-01 1.057132813647023939e+00 -2.384326493877048314e+00 -6.484053739957642559e-01 -4.101410002911003438e-01 1.739360765464335046e+00 -7.931802930318905265e-01 -6.710804807278347717e-01 3.346900506721756097e-01 9.338098890366633986e-01 -1.462816695139682599e+00 2.043577759541742311e-01 -3.551081355376923376e+00 9.327667428387222959e-01 2.443390379569407300e-01 -4.624107117158830493e-01 3.699649465466260945e-01 -8.060430445165130131e-02 6.628275490454106356e-01 3.211506706383120413e-01 -1.726892876475324190e+00 -3.539095073547423032e-01 -1.193177556299799269e+00 -2.467352237500663181e-01 -1.209195866391852503e+00 1.353660811812057219e+00 -9.464654123602688207e-01 -1.596161750886528452e+00 -2.488285231040689160e-01 -9.159839067977096350e-02 1.363015042935671328e-01 -3.206302097629106784e-01 1.237536535163513918e+00 -8.119203674558085337e-01 -1.253753705958723152e+00 4.431068358767360077e-02 1.364704798833545896e+00 9.439967968484620497e-01 -6.650761603044426373e-02 1.096794400011025905e+00 9.827870344724226603e-01
-8.852181013378586094e-01 1.660771935508671736e-03 4.090604482544593079e-01 3.161276387196715332e-02 -1.146451857542490238e+00 -1.406815652195539057e+00 -1.433372827566438357e+00 -1.638321664748036310e+00 -6.915662823761712374e-01 -9.566029460642382354e-01 1.408934461755651846e+00 -8.231578266660725118e-01 1.541748739994399209e+00 9.936770064704332217e-01 -1.826513468515945648e+00 -8.400669952455493972e-01 2.405403230694824479e-01 5.245400027330145987e-01 1.248486788178304746e-01 -7.806979459150379386e-01 -5.874193184316096605e-01 -1.012109144384728987e+00 -8.489957104165908319e-01 1.724580870505201036e+00 -1.153842072937893759e+00 -2.704843543285642138e-01 9.411655668778964312e-01 2.140401410845141683e+00 2.039773502806639383e-01 -2.724564849067097616e-01 -7.238527297179518927e-01 5.916784338675424859e-01 4.384430294077674983e-02 3.971576570584365862e-01 -3.709713031027080943e-01 -3.049668199277629221e-01 -1.056460775205726010e+00 2.303853187217248522e+00 -3.961466122963339109e-01 -5.355996707559743664e-01 -1.267162552485610882e-01 2.671460862870589925e-01 2.456184674561658760e-02 2.459932192211934654e-01 -1.284293745405020060e+00 -1.023100660692581876e+00 8.985487241518371748e-01 7.858647575353069348e-01 3.702411035392315086e-01 5.328491765995470308e-02 -7.073072147398118403e-02 6.763478194903157492e-01 -8.884506861839015501e-01 -8.836279762111530767e-01 1.141687239566709033e+00 6.953004760838132903e-01 -7.206295277923160381e-01 -1.877373792621596094e+00 4.776554661972952642e-01 5.670830283600197114e-02 5.344462433593393236e-01 1.174284376854026618e-01 1.679938247456604916e-01 -2.148030406974571205e-01
-8.586470261307944662e-01 5.689550303200159309e-01 1.509477473662929892e-01 -2.747921593603211310e+00 8.577427977888008037e-01 1.180257493804079294e+00 8.095960714721007756e-01 7.169941037057626643e-01 1.614110783395887039e-01 1.168238747674895217e+00 9.182720134576592974e-01 -9.662241422092893162e-01 3.745002069838392900e-01 -7.200396995881709339e-01 -1.430650243694779333e-01 -2.425618992483436487e-01 -1.209242404773219981e+00 -1.137675456877141889e+00 -4.790867493487033779e-01 3.750061911788291624e-01 2.159593098048373072e+00 1.114094243444465837e+00 1.310678310761264953e+00 1.042749313958035939e+00 -2.130406672954606173e-01 6.065095465690074628e-01 -8.168308438946321470e-02 5.213331884495485680e-01 -8.808911857361169107e-01 -1.192604503503677638e+00 -9.766495332223785741e-01 -1.361034992712539360e+00 -8.583063307987746915e-02 1.356559045983755540e+00 -8.843002909283810276e-01 6.363594737359108411e-01 -1.737140196783255597e-01 -3.878310514175912771e-01 1.198278488851728385e+00 -2.634419118881281552e-01 4.556894351505249088e-03 1.466299129476788199e+00 6.576950673689538895e-01 -6.470026065613154742e-01 -3.860644189803271176e-01 -1.142862225015909061e+00 2.033892691674416553e-01 2.192515656033804938e-01 -9.435189295887842498e-01 1.125470570769103285e+00 -7.868834081992016893e-02 -2.925863197215592404e-01 -3.722277136903389128e-01 -9.315786129659191506e-01 5.289412885060688074e-01 -6.166602572273433003e-01 1.453097100407232167e+00 -2.049911743029881883e-01 1.609595759476686316e+00 7.744077984685695526e-01 -1.830555790972604902e+00 4.439243778742783808e-02 5.293832775579877525e-01 1.184135959015324646e+00
1.446448783395137827e+00 7.628913703640834987e-01 -1.108148792105283276e+00 5.959763785550920012e-01 -1.928157288042521955e+00 -8.754367479433175503e-02 -1.473720105509867206e+00 3.818548301029508485e-01 5.383180012921567892e-01 -3.390660421619678400e-01 3.803958650304630207e-01 -3.394308351148161984e-01 -6.773349838026776482e-01 -4.009665711627484197e-01 7.779493371527589352e-01 -2.919802822448696808e-02 -1.646070336448314797e-01 5.809183483222667421e-01 1.112137045899889598e+00 7.078573694262603189e-01 -5.898463097327247828e-01 -9.637622167615436108e-01 1.782249054384894490e-02 -5.840556290974743270e-01 -7.155760326852869113e-01 -5.847148525354836091e-01 1.904895001901379947e+00 -2.561309736158115413e+00 1.582633303426951521e+00 -4.018906089686526961e-01 -2.165153901299466666e-01 9.888968760976344363e-01 -1.202972630496420559e-01 -4.798126238600550764e-01 1.167975330795668842e+00 9.460977887452551860e-01 1.168590968105690520e+00 5.662706670149068033e-01 2.053732812336232172e+00 -1.320087322612229386e+00 -2.374799981775406119e-02 1.824842593591386342e+00 -3.155952728634255910e-01 1.301217747218819665e-01 5.982078495383705841e-01 1.151017113998280106e+00 3.117312871330430446e-01 -1.018983783357335221e-01 1.058821981098776038e-01 -3.015832484622498755e-01 1.856462168766132015e+00 -2.608043361506708901e-01 5.513872064511715632e-01 -7.284368293733314292e-01 2.722346060123497669e+00 -2.135046859665989116e-01 7.179657709760989270e-02 -1.072790018302925530e+00 -2.791120928457689263e-02 -6.785236958899095727e-01 -4.978417747273227723e-01 -1.034231021317494559e+00 2.688268348007841202e-01 -4.753063041614782325e-01
-3.761186692704862056e-01 -3.807595209270361880e-01 7.466649145433148504e-01 -1.101994215084067363e+00 7.514671470852662960e-01 5.217868322366823186e-01 8.202341274355601231e-02 8.000913058158016788e-01 -4.551759748477902101e-01 -7.363808910252205298e-01 -1.646496031555310102e+00 5.472239503553690820e-01 -6.843271611255785647e-01 2.410556117481911509e-01 -3.683069970915357483e-01 8.612649903171449850e-01 1.423851117224699814e-01 1.269942501341905672e+00 6.382631420372588682e-01 -2.405265618087552848e-01 1.454179076064022746e-01 4.527820525733964874e-01 -1.030767636733485482e+00 3.372768529332785814e-01 -2.008156471274940014e+00 1.559150783155304643e+00 4.515474175003697521e-01 -5.925515117639824636e-01 -9.230181476750036751e-01 -9.112044531996046359e-01 -3.696176168046468868e-01 2.641638729423352316e-01 1.370083930449627306e-02 -2.252079976738704803e-01 -1.432756360397619222e+00 -1.524535485553430547e+00 3.539443353678047854e-01 -2.140276965183669944e+00 2.392205617249990868e-01 -4.429283926354366518e-01 7.253354771903793852e-01 3.538519251261081910e-01 4.327863805865774793e-01 1.703369740658080778e+00 9.590947624079496081e-02 -5.577477883700496797e-01 1.229975184687499834e-01 4.570381362505602368e-02 5.322307159183493619e-01 1.089744475212558461e+00 4.394039164023431226e-02 -5.474308933809549638e-01 2.314823147032017969e-01 -8.555216942003698311e-01 -2.531233929795129178e-01 9.995867885029813271e-01 1.954823132826791765e-01 -5.996839564612664875e-01 -5.032416848986107638e-01 -1.203441895151685204e+00 -3.291083509074223534e-01 -2.889957452448518871e-01 -8.315452619496568332e-01 1.176728192171387688e+00
4.433131775020964782e-01 -1.433072190365789034e+00 -1.315534019402522237e+00 1.121807614087934724e+00 -2.811323304567674430e-01 -1.022285691661873441e+00 -2.321594777402941068e-01 -5.874790290144140670e-01 -9.030870770512486878e-01 3.291164822580623928e-01 1.486290568652925970e+00 -3.757198040755208579e-01 -1.182927085799964639e-01 8.605995238510795176e-01 1.909822894669727664e-03 5.778242404912714569e-01 -3.742872103201832362e-02 -1.440232924118475033e+00 4.458975089027798488e-01 3.628019092502748344e-01 8.841184272788012999e-01 1.568806781507051884e+00 5.102862435266782848e-01 -1.090479704667457125e-02 -5.883607757515055825e-01 1.751350018333773351e+00 1.063060626925774077e+00 -1.277925099608760329e+00 -8.740925447071800081e-01 -1.107227697004648848e+00 1.267324565727510954e+00 3.184551853756652506e-01 -6.016678880649312111e-01 -1.446473402976220735e+00 -1.050540904456443103e+00 -3.896698253535581524e-01 4.854547480649491487e-01 -1.457923559894017673e+00 8.396639026572961795e-01 -1.535934821748766166e-01 -1.238787780254196003e+00 -4.172454466664041739e-01 5.160403103005741787e-01 -1.705272952792047381e+00 -1.234328026273470158e+00 -5.445279458315609444e-01 -1.735324856163374951e-01 -3.345099526590472605e-01 -1.639070333333635610e+00 -1.716701469164737093e+00 -7.847563007279273473e-01 6.534675612447311543e-01 -6.966400442196449827e-01 9.666079874690178819e-01 2.038470317706186918e-02 -1.691871334666181115e+00 -1.105500910648748780e+00 5.255129985389833669e-01 -6.964272142995818760e-01 -1.231286723736504829e+00 1.039212272199762532e+00 -3.008702946831637859e-01 -6.028277330729778227e-02 4.882209197151388125e-01
6.155851334387247853e-01 6.436925335489299127e-02 8.827736466616860067e-01 7.580522421478781414e-01 1.143980484916851115e+00 -2.241137040035640293e+00 7.095987856291875451e-01 -1.774784391215384893e+00 6.880445005323120311e-01 -1.600046921883011120e+00 -1.865599289662828841e+00 -2.613324245135305590e-01 2.425127304085893387e-01 1.307074626243546867e+00 -8.043621312720077299e-01 7.109671918109288224e-01 -4.947951493742461793e-01 3.039274782603483827e-01 1.305374537784738331e+00 7.211231484506339662e-01 1.156493981930160064e+00 4.809585091790007372e-01 -1.927284448943623885e-01 1.689278826469192252e+00 7.581371754252904660e-01 5.154093436701829845e-01 -8.458868556251206150e-02 7.629172934904186743e-02 -6.192138807289434554e-01 2.342098760173422223e-01 1.638751935414452243e-01 3.028683036373547854e-01 3.675350434996415006e-01 6.616233811715288571e-01 1.047609461676765746e-01 2.377927903447621116e-01 6.539975989122015498e-02 1.002835716612585859e+00 9.936085467317790076e-02 -7.051302832900817608e-01 -3.376266232821393820e-01 -1.066507532937996522e-01 4.054741783589412285e-01 -2.416197488114721015e+00 -3.330555674298235069e-01 2.270952164289851805e+00 -1.136725852595154906e+00 1.054081419361821315e+00 1.597421272000456582e-01 -4.541696618864684010e-01 9.231802896071592546e-01 3.016151641430121488e-01 6.365031443550073220e-01 -1.784288430556068283e-01 -4.396531491959286830e-01 4.732353123089953761e-02 -3.848210254163339505e-02 8.802145330606828688e-01 -4.086069515521380535e-01 7.508341518743902876e-01 -1.447123758248255010e+00 -4.229294641898867502e-01 -1.114276177429111003e+00 -4.193882322667946694e-01
7.729745958589401278e-01 9.923730894397254643e-01 -6.407902589486744738e-01 -2.113338668318851088e+00 -4.510628679391225915e-01 4.323531629680211208e-01 -1.652244362231644503e+00 9.038094678098032020e-01 -9.832896584518462380e-01 -3.592450700695764554e-01 -3.472547486987652143e-01 7.759629568681436496e-01 -3.668637802412836879e-01 1.967101227715319034e+00 1.299850159011044060e+00 -1.357724142479384888e+00 7.860209911674463923e-01 1.346309397787517570e+00 4.746399757036079414e-01 4.799707802832549053e-01 -6.110444972123298957e-01 -2.430948932275657004e+00 -3.714711575983506431e-01 6.876392627082017484e-01 9.824406579941666884e-01 -5.921315233010669976e-01 9.928695914373157905e-01 2.597751675171461883e-01 -1.300202977949951766e+00 5.741783927461322490e-01 1.498473236388694119e+00 -1.574927848619411375e+00 -1.794946576201507105e-01 -6.401244867426679752e-01 1.973454586104285813e+00 -6.424031929718878459e-03 -3.535851547653227067e-01 -7.400570974946055758e-01 -2.521650807315578557e-01 -7.798306671832201387e-01 6.391999879845144950e-01 5.328331160335914030e-01 9.569333697397726102e-01 -4.144282718387153758e-02 5.083088527827814840e-01 4.887026454330686276e-01 6.881645850056700153e-01 -1.415944622644000006e+00 -8.786290268625382982e-01 1.156319854245940748e+00 1.204786737578686262e+00 -5.552265072478933527e-01 -8.972096653253295306e-01 -2.871463017126001382e-01 4.438662483995935437e-01 -2.072613742008110549e+00 -1.817524706096897313e+00 3.280538466465159342e-01 9.662205709918934016e-01 -7.173787103493759476e-01 7.722212924674445311e-01 -4.493606747091595799e-01 4.301742921450155688e-01 -9.571950598027046953e-01
