2.837190007752177223e-01 -5.842486692843746887e-01 -9.080932356719656484e-01 3.309142076126387888e+00 -8.113589133077201421e-01 4.535620900702523328e-01 -1.182193433303393659e+00 1.212619358853848084e+00 7.938447195093801811e-01 5.303133340563708220e-01 1.331684035544380862e+00 -1.380390487350524387e+00 -3.347652196033152339e-01 7.478785102263015849e-01 -2.141421107951982705e+00 2.807091080068379596e-01
1.361595920896661482e+00 2.805912778498039772e-01 7.432778553716963277e-01 1.298343244110251149e+00 2.949079131220572858e+00 -1.513255507475808948e+00 -2.118602278269788197e+00 5.974405290195706764e-01 -1.718807918775977495e+00 -5.535351312197238638e-01 1.349841346166107181e+00 -2.505416764412069508e-01 2.329722382938876901e+00 -2.959754612752964142e+00 -3.164415025371158485e+00 6.900728414342562900e-01
9.925317754107585433e-01 2.098553898069146051e+00 -3.246859696586039234e+00 -4.182958468757784209e-01 1.408704593680690564e+00 -3.800064211530384539e-01 -7.680902787448137259e-01 1.984622463572059292e+00 -3.335652173992773584e-01 5.585440184362645555e-01 -2.125938357869943118e+00 -5.902247265814746235e-01 -1.884937083019010196e+00 -6.335690376836119464e-01 -8.308683201292969001e-01 2.824761531803579917e+00
7.843375932092933045e-01 -1.220443825667625992e+00 1.134239038665413091e+00 7.671183239073818827e-01 -2.303226747466544211e+00 1.816012370742965842e+00 1.019423874100523264e+00 2.237509311716085580e+00 -8.322383633305702189e-01 -1.396551096447596896e+00 -4.290566739030883814e-01 -2.281631928498726106e-02 -5.080661992279709160e-01 -2.294115859641046029e+00 -1.295264596706097615e+00 5.975071981498760731e-01
6.328725993647792425e-01 1.761283839861905509e+00 8.760151620814825568e-01 -1.866262503878287848e+00 9.601317551018265783e-01 1.154800470236407861e+00 -1.739556379338942360e+00 1.188945425852433901e+00 4.982385806289311714e-01 -2.836274333283796079e+00 -2.813348225824418236e+00 -1.137935164448911962e+00 -1.078428301778654674e+00 -4.807576631861357752e-01 1.137183646681841021e+00 1.165023366196844767e+00
-3.930546493742881342e-01 -7.115320203365793628e-02 6.567608959562505344e-01 -1.040217157592845165e+00 2.850770306997632897e+00 -1.275210971659322734e+00 3.738578623584714489e+00 -2.073315104471423531e+00 -6.566179403401668502e-01 3.693020385116190241e-01 1.503589736465184012e+00 -2.457129655933328605e-01 -1.765561981886528686e+00 -1.471487474970706089e+00 3.012854606772580990e+00 -7.043856276489466328e-01
7.015202884765895375e-01 2.331462019478288461e+00 4.648417104019370721e-02 -1.056537711639211202e-01 4.933155560760612013e-01 1.511998531985105476e+00 -1.589195653264945163e+00 6.959096459899170029e-01 1.100593968805906320e+00 2.651507241690212791e+00 -8.421980649205216274e-01 2.274703510866863398e-01 2.538510861977236743e-01 -4.235937751047383903e-01 -2.195475266606740639e-01 -1.140747938685703122e+00
1.157537129155950639e+00 -2.105742497730314078e+00 7.871632886106364468e-01 3.107772521625786766e-01 4.071001356430524187e-01 -1.192861884884188539e+00 8.629552637818633798e-01 -3.563925190576053392e+00 -2.044261437511933899e+00 -1.040454740750143214e+00 1.764804742717236419e-01 2.495096999142517369e+00 1.713303753379306293e+00 2.462262908769605296e+00 1.431030407956296546e+00 7.124464938154724258e-01
3.811724832452182410e-01 2.084834363376618427e+00 -2.359262806428811032e+00 2.998861358874228777e+00 -4.720849370481536300e-01 1.058688544576559254e+00 5.984275363029315509e-01 -1.590868691894587572e+00 -5.498875643500688026e-01 -5.687318165854537977e-01 6.392082079600593936e-01 -8.704065946109054153e-01 -1.434780403592472275e+00 8.004049568531541592e-01 2.986171141029486442e+00 -2.569693345291274023e-01
1.232664358019286838e-01 -9.532784401216322090e-01 -9.193732395559628401e-02 -2.193255468562945065e+00 -1.194822061907203192e+00 -2.091953736994601964e+00 5.043397786304689712e-01 -1.030691473250203299e-01 -2.089627852834315958e-01 3.034720622731676531e+00 6.557163127745839759e-01 -1.433850283657269742e+00 4.863063249447135306e+00 1.001272055541420292e+00 2.097179048207229446e+00 -7.547949257848027838e-01
