-2.877247983064470938e-01 1.502248941949577143e-01 -4.069221984446109719e-01 2.066332431052971597e+00 2.116891518710229680e-01 9.646192799482419256e-01 -1.756283097269680127e+00 -1.462425980102441958e-01 1.889790208376411096e+00 -3.071955584190048938e-02 -5.295889704901407535e-01 2.313973134841572077e-01 8.720361510907853608e-01 -2.169060339497158874e-01 4.137023039160839244e-02 2.825938344356644927e-01 5.179324948618140301e-01 1.211570240720093450e+00 6.667582243731411396e-01 -9.782007674228813121e-01 -2.635742666194223691e-02 1.175584659866340809e-01 -7.322293227694467443e-01 -9.861207679388818148e-01 -5.176970492021636394e-01 3.220155092384033302e-02 -9.500375307224848687e-01 7.408207640015554984e-01 1.602572467315673543e-01 -1.001754883601473578e+00 -1.238197206917416082e+00 -6.834693626507008790e-03 1.824798384447910315e+00 6.107403918148676114e-01 -1.530693140455140211e-03 -7.734006455571813821e-02 -9.580825952354896646e-01 1.099438554707784288e+00 2.134030414893050009e-01 1.064301989135526316e+00 5.413690369767671928e-01 7.308333895152923088e-01 -7.569003488543408764e-01 -8.104891595983969577e-01 -1.016326657985844539e+00 6.716334570760431610e-01 -3.310923771000371940e-01 2.159229024148899556e-01 -7.389496861796241989e-01 1.137773953472725808e+00 -1.015582601740383506e+00 -3.627130950460814018e-01 8.179590954558597637e-01 -2.328735158221328372e-01 1.609198314497907845e+00 -3.481809857994884738e-01 5.622011844834949867e-01 1.508227437208241817e+00 2.258928668767623271e-01 -1.258303794990992319e+00 9.825318485662706824e-02 -2.803736181435487196e-01 2.633622946668324194e-01 -9.511934203090051110e-01 -8.150910714965040604e-01 1.026995458176130027e+00 1.146532656434947478e-01 4.311999156409123679e-01 1.454598055760617736e+00 1.028400541379568489e+00 -1.349187475785944113e+00 2.615041289810580150e+00 4.101065626924920160e-01 -1.225566030204648715e+00 -9.882180569925768099e-01 2.002093635193036736e+00 6.018685582859886196e-01 4.065123691906438186e-01 8.832430812437960244e-01 -1.185997826855635484e+00 6.394552106495134947e-01 -1.106722600631632192e+00 -1.456838668704414808e+00 -1.663367709335417111e+00 -2.875839964606283772e-01 2.642559539685463754e+00 4.369911571591368338e-01 7.285327194092180436e-01 6.196135644470540660e-01 -9.211354147194747433e-02 1.004977768388077397e+00 -9.610544937969127399e-02 -1.823331275112668237e+00 9.543413457557188284e-01 6.530803705243005686e-01 6.484694094078390092e-02 9.705262399156704411e-01 -1.526673987133887911e+00 -6.763856145227278294e-01 -9.288997405083830872e-01 -4.711801872625484555e-01 8.582837324408560953e-01 -9.709684904587808640e-01 5.222859398727883740e-01 1.919068377972386941e+00 -1.881773330826522761e-01 -6.273487767926437808e-01 4.457001307770949161e-01 -2.096252228945490459e-01 8.994666742770477397e-01 2.281861005255123587e+00 1.919006320942021615e-01 -6.028128070982939901e-01 -3.632491256464882579e-01 1.018257723044778545e-01 3.923391083941266295e-03 -7.408365036758378652e-01 -1.470612525929831049e+00 6.386626113479266786e-01 2.922765521884930773e-01 7.989374861771968428e-01 3.063531173509762007e-01 -9.193527016614660985e-01 -1.446841298905741313e+00 1.903609539779061111e+00 1.030260137752352811e+00 4.230370468962499908e-01 -4.966575875442073573e-01 -4.714971049562404759e-01 -1.090602989263129707e+00 -1.893786905757143813e-01 -1.819286546906542013e+00 -1.218896771771135867e+00 1.759741317205292033e+00 3.089392059634016308e-01 5.233368026979449139e-01 -1.148176615458402550e+00 7.665114674500624892e-01 5.206409983644020301e-01 -1.132648905944602102e+00 -1.175263130580564835e-01 1.630291947703093047e+00 -4.669457970328245167e-01 2.124861101633503502e+00 -4.009040949081795202e-01 -5.958576818491995164e-01 -6.825877831601574464e-01 1.447057388599324979e+00 4.273324727588463934e-01 1.681494675751895596e-01 3.372968112706473121e-01 5.175891961065305358e-01 8.837603174167109055e-01 -8.045966645931661443e-01 -5.227502727205514121e-01 1.136189509647976603e+00 3.055669720282354340e-02 1.753701417263161089e+00 -9.726843029267820961e-01 6.678764849527735192e-01 1.365175025683492471e+00 7.583753056790465408e-01 -6.622317522189241634e-01 -8.805256295624953600e-01 1.163767121518402448e+00 4.596650154980129466e-02 -1.756615126717697983e-01 1.539924061633123342e+00 -4.012019311553425283e-01 -5.048048446565588376e-01 -9.901585654336820808e-01 1.010611903914309662e-01 1.209758644502120740e-03 7.275306120258262510e-01 2.105054090380471810e-02 5.427833805231877529e-01 -8.509942793929738958e-01 2.191417786365133513e-01 -5.546354300911114921e-01 -1.225864035947020536e+00 -1.550652014980035409e-01 4.543042360732302276e-01 -2.903631840487402305e-01 -5.553600120965883624e-01 3.027457204672006231e-03 6.577455724602967457e-01 -5.590144178057315782e-01 -5.465795937427126994e-01 -1.085575859813516786e+00 8.196482416017475403e-01 6.802779445496132116e-01 -5.391154354886464883e-01 -3.290526500150178224e-01 4.208361838966435675e-01 -2.023338780165628847e-01 -3.078440731407924291e-01 1.009976982797876177e+00 -7.184825229435799487e-01 -7.001713835647630502e-01 -1.453686753873920878e+00 -2.688762247487627155e-01 8.631757026160334911e-01 -8.226474597876722861e-01 -4.848263091817886505e-01 -9.850796884226312722e-01 1.234642703567040867e+00 6.950745780471605517e-01 -1.062941650044518793e+00 2.094647973638508742e-01 -7.109367932707049142e-01 -1.538487177244470594e+00 9.908961517854996126e-01 -1.855410614612855058e+00 -9.887752046320819055e-01 -8.051558354061346678e-01 -1.134206772589146928e+00 -3.055867548430334368e-01 3.445524013733083923e-01 -1.897916023179600786e-01 1.677496113554103108e+00 -7.638869492095926583e-01 -3.392223484094301078e-01 -6.621665329411353662e-01 1.251607645677668135e-01 2.569102994202678847e-01 6.423183871741500184e-02 -1.152909833290703734e+00 -3.875911378860331657e-01 5.413086005101277465e-01 4.680117005952274395e-02 -2.525996913330940674e-01 -1.314334529759440644e-02 -1.558679042510246193e-01 1.714293591261588201e+00 -1.803040837668584140e-01 -1.090604176258476610e+00 -6.441294959442850354e-01 -1.098117627332535262e+00 -1.387552145656779423e+00 6.737964582051260143e-01 -7.663890325362856526e-01 1.752400836144734741e+00 -2.332635034094728277e-01 7.220566659789151576e-01 1.765227723853697861e-01 1.154795714213744162e+00 8.734709914791496388e-01 -1.418329483604912511e+00 1.271611662881418914e+00 4.463237663747531836e-01 -1.287516176238888699e+00 -1.092749693027865066e+00 -1.048172818368705156e-01 4.423716857587045026e-01 1.074796626989999559e+00 -1.659409072084466474e-01 6.767553436929731880e-01 -1.145421255626942053e-01 1.809225014546580468e-01 2.305957879063157412e-01 -1.334531876350532498e+00 -1.284828812593679537e+00 -3.309404465213242053e-01 1.562646369574003824e+00 -1.089407577205260130e-01 -2.750199140138103182e-01 -1.477713184266167934e+00 -1.020153409558839097e-01 -4.285653220688763754e-01 6.803268058688055619e-01 -4.448241925640595840e-01 -3.897679557019295138e-01 -2.262029727194809700e-02 1.091278011262490244e+00 7.921300913183268455e-02 -1.896004846416226020e+00 2.000338483499740416e+00 1.528581544095029887e+00 3.233671967417884319e-01 -1.314478502875754184e+00 4.570493287448787467e-01 -1.019854191727794568e+00 1.301096153838372071e+00 -1.181695791010122232e+00 -1.592147389429682036e+00 -1.420371157921268557e+00 -6.650389054067212813e-01 1.418240454262147815e-02 -1.033860472396424646e+00 4.279527889228402215e-01 -1.122160456706712717e+00 -6.370077253645024529e-01 3.783605828457225484e-01 1.659203959144753382e+00 -6.680697666792240197e-01 2.679856721742323700e+00 -1.187937233167251749e+00 -7.621747542292439670e-02 -1.277062232797711250e+00 5.061124757500602422e-01 -4.929284560707891671e-01 -1.547077140986362842e+00 4.253055163877588751e-01 4.815082639340403925e-01 -4.010115721762994578e-01 -3.136247196191636055e-01 4.836524432249796335e-01 -2.823007857926774222e-01 -6.595897485834050222e-01 -8.192249159575849538e-01 1.014503876252766723e+00 8.350818006624839418e-01 2.076017983855153570e+00 -1.998100297059409725e+00 -1.573771971204152464e+00 -1.018115562670346558e-01 -3.785087913373152979e-02 3.557018498397725437e-01 8.287484141515248925e-01 2.333026839763445437e-01 9.597227292714445579e-02 -4.520291456019708276e-01 -5.874580156181554713e-01 1.245677905456690215e-01 6.448290727014045765e-02 5.875515385225482667e-01 1.162002845209512275e-01 -2.498542164976177982e-01 -8.026728436931070965e-01 8.364133717380387578e-01 -2.814278477822523272e-01 -4.578981585917250574e-01 2.147091571203403326e+00 9.619844492480256193e-01 -4.670213366551793643e-01 2.601455326039195937e-01 -9.983928486223437870e-01 3.041980277495181517e-01 7.051403065708656825e-01 5.058271940049603455e-01 5.407434101369502644e-01 -2.192995421672945533e-01 8.979736894230496702e-01 -7.436599078650948380e-01 -8.226964980599359434e-01 1.301363953043942256e+00 8.604606041478078948e-01 -1.202426547590649930e+00 1.519755049746212006e+00 7.450547501926243488e-01 9.943324113879657977e-01 4.788847398311453507e-02 -3.462101230072210656e-02 -1.037059999859298198e+00 2.265086815696783218e-01 -1.267781880936020622e+00 6.108588656718256377e-02 -4.464195868436553472e-01 -1.443026159085696869e-01 1.227361521257305244e+00 -1.104921827082847141e+00 -1.362405819150628972e+00 1.837594343373408101e+00 5.657062452342948022e-01 8.019058848173592491e-01 1.339424578247693676e+00 -1.810234060384634594e-02 -1.166717996889988784e+00 -1.449145344499545462e+00 5.327154260534104901e-01 6.768294092968453191e-01 1.061629784191070874e-01 6.844166026538164305e-01 1.673369321586138936e+00 9.463722043600183431e-01 5.795939009001364051e-01 7.176429865275162079e-02 -7.560525067365904406e-02 -1.666898844670466673e+00 4.581990664279415593e-01 -1.882024752727260719e-01 1.094889275436708109e+00 -8.581989143926016528e-02 5.158135675562836031e-01 -2.696907460203137874e-01 8.240340753646260841e-02 -1.158057234229863175e+00 2.297683892041640363e-01 1.563256907242054627e-01 2.204254366330195003e-01 9.353840677862476083e-01 -8.919234931220670903e-01 8.925154490538063090e-01 7.920980803483407273e-01 7.725941421376567586e-01 7.832813561464129215e-01 -3.616642929178312538e-02 8.720679833543937276e-02 -1.949077854639952978e+00 -1.345942758013165264e-01 8.130096166369248367e-01 1.752817980427477051e+00 9.286116901764287501e-01 1.138942123780460225e+00 5.843973023657317301e-01 1.435740440997639311e-01 -3.168011541039691403e-01 1.226842761647773727e+00 -8.251684118613690222e-01 -2.358207507877189413e-01 7.369188030165334524e-01 5.145813922726291123e-01 -1.845144419939825642e-01 -9.583290772730881368e-01 1.759251631744861988e-01 2.845133594189713788e-01 1.354740509301642470e+00 -7.053598105835194865e-01 -2.075040884325171309e+00 -1.189147781514875657e+00 8.763620457748647619e-01 6.129317525855664667e-02 1.381250505497934322e-02 -8.396028254709163585e-01 -7.990014638451994333e-01 -2.494931610446171066e-01 3.094437653221810969e-01 3.682543809500249954e-01 -1.471987890718125802e-01 -2.057232729291022088e-03 4.739283872718608737e-01 -7.783379093033424012e-02 2.228056378980078911e+00 7.749654701920071220e-01 -6.492983352050151202e-01 -1.153371012629304526e-01 -6.006089230774189908e-02 -5.277931492644156730e-01 -1.038333295030425152e+00 -9.191882126258406061e-01 -1.275211755627210009e+00 6.299009571641634997e-01 -7.294879243687544257e-01 -5.394710755043635730e-02 -2.190526398477228742e+00 1.608120351962194050e+00 9.073789191770403884e-03 5.827857071898401298e-01 8.169470351776153549e-01 1.499564782875480784e+00 6.584567749642669110e-01 -1.965827107084197278e+00 -1.903154520823806262e-01 2.322406722208410379e+00 4.777529766443581738e-01 -6.457118217937638516e-01 -6.789452083617436573e-01 -1.457786022405969995e+00 4.794108729734465890e-01 -9.417601282525225881e-02 6.963356855173330473e-01 -1.299099067714752920e+00 9.162052693710633910e-01 -5.403428158870404729e-01 -3.523091682025824428e-02 -3.705121631749828115e-01 8.509644406000026473e-01 -8.512338739450880931e-01 -4.747738867149333131e-01 -1.869134753928917148e+00 1.301295959144748160e-01 6.468938733642393135e-01 -1.053517769701974194e+00 4.028888477954540304e-01 6.445715419767712451e-01 1.936528662094938680e+00 1.052347358537630617e+00 4.818807193566515545e-01 2.404620023697013609e-01 -4.236986043507902644e-01 1.181839724577809614e+00 -1.378813917108706377e+00 -6.170103722896819187e-01 -8.274191286333436590e-01 2.600972186981295731e-01 3.592856340809792992e-01 5.150804249960830861e-01 1.752443032048656146e-01 -2.980190679547250476e-01 7.612893872991836064e-01 -4.988459051706167074e-02 6.115104966984016288e-01 -1.024777980753941664e+00 1.715144696031559168e-02 1.953481007801264990e+00 -2.129417435938198155e-01 8.213172116718555626e-01 3.962845659286277633e-01 -1.077863444020822348e+00 9.595225816479275860e-01 -6.141724847203074988e-01 -1.466170647623219025e+00 -1.372739883022394025e+00 -5.219188869773736528e-01 -2.610636022067640005e-01 -1.947496336560515240e-01 -4.872377573106356774e-01 -1.728622429412711436e-01 -9.498252070374699763e-01 -1.125930546486684447e+00 -1.169794342850350555e+00 -7.394102455002318219e-01 -4.297134502895166297e-01 8.824427768374315528e-02 -3.614503734964304438e-01 6.567536021577576044e-02 -1.504148601370845162e+00 -2.036540845418164380e+00 -7.293439126546304996e-01 -1.361749827887903386e-01 1.273715678324077283e+00 1.775782258898351285e-01 1.048834476102256996e+00 -5.042315019164658185e-01 -1.198237558971929489e-01 3.495604275227613411e-01 2.032987413727254389e-01 -3.350423784546676664e-01 4.133617106789889140e-01 -1.066819956657887758e+00 -1.046410975867474002e+00 7.648535606574317081e-01 -6.405868106690943975e-01 -2.501661275001472104e-02 -5.928878788170242053e-01 -1.664560627548252514e+00 4.124926504735071386e-01 2.083921602118588012e+00 9.970301731850641502e-01 -1.263705185185243662e+00 -9.650545575908249241e-01 -4.424008281739679610e-02 -1.413495426455424031e+00 -1.125248352957777476e+00 -1.143454921183596928e+00 -8.382430112022815072e-01 -6.485873225073376380e-01 2.201756865960779741e-01 -9.255066317426903499e-02 2.116355106154315657e-01 1.740063765131528495e+00 1.510505521010062635e+00 7.202222541791908350e-01 -3.435220604441049236e-02 8.125447378925987341e-01 9.857536922608306496e-01 1.199908700228305092e+00 4.818024500264862509e-01 -7.518550754246680068e-01 1.261254092658752990e+00 -8.035739263309633618e-01 -1.926426929442529357e+00 2.754323267548406395e-01 1.528310873045714002e+00 -9.068400450950832026e-01 -1.154675669942744065e+00 -2.113937304596487099e+00 7.214110858098618517e-02 -9.074075612590301043e-01 8.952752908558574418e-01 1.726788313025744703e-01 6.920854958117352851e-01 -2.026421555779026829e+00 -1.267520060646072144e+00 5.436122639827195568e-02 1.171103905034628800e+00 4.241258795789219493e-01 1.312923709273140949e+00 1.443788703029278642e+00 -5.656791393059376061e-01 -8.091908930808016098e-01 -2.770253740189511649e-01 -1.165264668025800976e+00 1.543109530663066276e-01 -7.121668679593203821e-01 1.505761689698330796e+00 4.275116705991099941e-02 -7.784487976172183021e-01 9.591094900776691023e-01 3.894757830006028154e-01 -1.448020622511692057e+00 8.129881983838489479e-01 7.393374755227933859e-01 -6.763557796299816127e-01 7.827332935016251270e-02 -2.078001688392288049e-01 -4.882471750745934203e-02 5.276989079047591548e-03 5.308958018825570280e-01 3.717594136236046509e-01 3.461508015835741969e-01 -4.697612423279646232e-01 9.839682335251975775e-02 -3.206153810874200483e-01 -1.163480311053233018e+00 -5.439180688915532524e-01 5.091108494878864299e-01 -5.353403915354167930e-01 -1.779598501589889192e+00 -1.183730554647923539e+00 5.916635632823303848e-01 3.225052902565724855e-01 1.428305015138279899e+00 -4.051187114578661541e-01 -7.150110989233537939e-02 9.024446178539387020e-01 2.436977810756561169e+00 1.150924125970634204e+00 -1.201403489332424357e+00 1.714052471304392311e+00 6.018876094042384661e-01 4.871883925093712930e-01 7.041029054875311832e-01 3.617738325020241064e-01 1.722947330971365210e+00 7.396630112799571499e-01 1.105993688961139698e+00 -6.027517437915848042e-01 -4.995799349351703333e-01 -2.160413768264726475e-01 -9.188439276651048093e-01 -7.864978661138464222e-01 -9.658560551238691838e-01 2.854232436776838466e-01 -7.125183404191610670e-01 7.246905498750101648e-02 -1.826570116031551283e+00 7.480646350504798203e-01 -1.293173829329467894e+00 -7.462005859340989922e-01 -3.138013354876828531e-01 2.931627446732641973e-01 -8.170649090975293793e-01 -5.968027877891465272e-01 4.527234935180396991e-01 -1.508646802442337842e+00 -2.001350119901101621e-01 -1.336697430262710151e+00 3.168832587406279072e-02 -2.090538656057995937e+00 1.500059011431683409e+00 -7.764557194121106676e-01 8.740931587055515983e-01 -1.796085906307235969e-01 -1.351240965913335090e+00 -3.026571518004305891e-02 -1.368964378936645687e+00 4.945972471826421413e-01 4.195056821779627465e-01 -1.679778803081732219e+00 -5.425666108512207098e-01 1.412371301470563667e+00 2.250561693195434199e+00 8.522091839115905065e-01 1.344178398930177654e+00 -1.171831221928996358e+00 1.919888370877990691e-01 -5.052408899044363681e-03 -1.292309691219798440e+00 3.995166884321174061e-01 -2.976489639590180203e-01 1.987567952673499949e+00 -1.104541272663636109e+00 -1.160394491199644440e+00 -1.327282046981075547e+00 -4.367271931020370035e-01 -7.782297000681976940e-01 -2.398904953899946957e+00 2.640881683660269097e+00 1.913807447957977859e+00 3.712218101564388473e-01 9.077909430176934746e-01 -2.006259645458495999e+00 -1.423621686971046962e+00 -2.888340056306255565e-01 -1.899504667979887929e+00 7.970165916599015743e-01 1.405371813341783904e-01 1.011573489797395142e+00 1.212116687959401418e+00 -4.084951675596293907e-01 7.181850663952110692e-01 -1.394406981291369529e+00 5.115125300080650694e-01 1.942041122448173729e+00 1.603907167729130556e+00 -8.366343428471781918e-01 -1.913720940283208660e-01 -3.863707107489015025e-01 1.241393252342073428e+00 7.139248430656496280e-01 4.985169842848654609e-01 1.651832107139852956e+00 -1.019491891237814807e-01 7.082824538524310487e-01 -9.777873091363862290e-01 -7.679785069945629372e-01 -2.498393482085538297e-01 -1.095334022007659724e+00 -7.621175566577838290e-02 -1.428512131393971041e+00 -1.687115053039389967e-01 9.090652624773525314e-01 -1.099819438534572091e+00 -1.478980062433970621e+00 2.423763906834405013e+00 8.327448752329946746e-01 1.513885626127660922e-01 5.470062450940001986e-01 -6.976959677850766983e-01 1.613583256626598128e-01 -2.202935287006126119e-01 2.800623569047633876e-01 1.464802827052274603e+00 -7.617705798722190780e-01 1.300111647466582143e+00 -7.589108624895425370e-01 -2.369760007899858856e+00 -8.737151243798346734e-01 -4.493401392345428569e-01 -2.022207143476299207e-01 -7.998947071756130622e-01 -1.780751940810133771e+00 5.821673255524844048e-01 -6.649534987254663854e-01 -1.454896765442287521e+00 1.127793262598217439e+00 9.894403092940557976e-01 5.082770439566047793e-01 3.203324703776807780e+00 2.974145804119477376e-01 -1.295093037016027182e+00 -1.519442043503887341e+00 6.812391473596359770e-01 1.973408581541420403e-01 -2.439110437579027568e+00 1.119155436925445501e+00 1.097828701218281008e-02 1.262533765456169910e+00 1.149523952775117902e-01 -1.505505668474775405e+00 -1.723425997524504483e-01 -9.361603057163507824e-01 2.534371356279856435e-01 9.397051929369979462e-01 -1.521261341195013772e+00 1.225223143011747950e+00 -4.557845961534174317e-01 8.483163885525032422e-01 -2.826880382345760556e-01 -4.761453568555547577e-01 -5.962391645184694777e-01 1.511078645885005622e-01 7.262487676940847514e-01 1.044071818884806241e-01 -5.993503729213797149e-01 5.309056611256295355e-01 1.845962902418366303e-01 -1.826131856892523608e-01 -9.360419448933181286e-02 1.595443283466412510e+00 6.932704063046694065e-01 2.968255272182442450e+00 -1.176630816149712766e+00 2.913500230723457540e-01 3.376927968249721634e-01 2.465020783870790044e+00 3.548604457819383162e-01 -9.387019530991386196e-03 -1.568441739408748647e+00 7.326041948435934037e-01 -2.169708495170364237e+00 -3.389495609505102092e-01 1.792118713109690731e+00
3.245427490747828103e-01 3.543940627832434132e+00 9.197765780562507099e-02 4.536021378326666187e-01 9.426933275176928306e-02 -6.200491291816839778e-01 4.307464295823623113e-01 -8.654178824970242268e-01 -9.394862120404644523e-01 6.473695816004794157e-01 -1.780803898042031319e+00 -4.364933563548060724e-01 -1.471811424988706873e+00 5.532648027259586820e-01 -1.443779702768319906e+00 2.900761923301719558e-01 1.612331256471700502e+00 3.896592917974366355e-01 -1.046592050415456887e+00 2.918354525046976122e-01 -2.087506810110421884e-01 4.575953719151961696e-01 -8.222308929019855883e-01 -1.618554839157085645e+00 1.748579883270079405e-01 1.690810319850118426e-01 3.605393325706731655e-01 2.304473142151005072e-01 5.918897834136470637e-01 -3.815033145822891436e-01 -5.086772386704766502e-01 -1.316158933349287352e+00 -3.885965754686527829e-01 -4.412775247240839360e-01 4.746508149055899128e-01 8.569450350912456438e-01 -3.379253579125803819e-01 -2.122150113539552851e+00 4.549399952186595208e-01 5.339028502725734482e-02 -6.665069782868250359e-01 1.341304578350864141e+00 -1.429776629252826059e-01 7.961921374989811007e-02 8.586299019819140232e-01 1.321056020336211612e+00 8.078427985917365772e-01 4.324327514591836397e-01 4.330108714350946464e-01 5.141986754224840972e-01 -1.211995610586371397e+00 1.840067752787613475e+00 -4.089712445989435174e-01 5.941100359893762735e-03 -1.457342433074010124e+00 1.697538199801301717e+00 -9.324455628484306091e-01 3.373207791401999223e-01 -4.986455771677499316e-01 -3.358359735811542457e-01 -2.053092375412388648e+00 -1.013006775154360772e+00 5.953384615486108089e-01 1.512957998867913378e+00 -3.086132154393312899e-01 1.092737965991091506e-02 -5.878928578203774791e-01 -3.768870387797151889e-02 2.414519505431272917e-01 4.792637210407367787e-01 1.866196866404210564e+00 1.821004771403970657e-01 -6.138916035051865672e-01 -4.337129933280851057e-01 -8.361637568829514144e-01 -8.589969950839331236e-01 5.884492539291138469e-01 -6.844361640524141421e-01 -1.115060850395651476e-01 -5.570211820683086401e-01 -3.412560300284783188e-01 -6.877462840450800918e-01 1.670753122275183244e+00 -5.843991243432040683e-01 6.569728331657050946e-01 8.504149347219817079e-01 1.896627542861644422e-01 -9.670603666347231675e-01 -3.616819475207130319e-01 2.146139488629851044e+00 1.301363810023662859e+00 -6.215525861012010100e-01 -1.028944842176480856e+00 6.857205964659282005e-01 -5.642984519593466919e-01 3.243126409044863601e-02 5.873096538135076372e-01 -8.100482536643754949e-02 1.546470029936795498e+00 7.831514218014714590e-01 2.204702532407404880e-01 1.048674059582119789e+00 -3.473513509698656909e-01 1.159556256554021975e-01 -1.144161563736510595e-01 -2.620634055991166722e+00 -4.090937516398167051e-01 7.371475875971810199e-01 7.417678563081560039e-01 -3.149579580343614404e-01 -5.196928330731860335e-01 9.527795415893780540e-01 -1.010902539064516326e+00 9.612557625910093939e-02 -5.821718962980682033e-01 -4.463563118406946861e-01 9.553163850318956429e-01 6.713945743864624394e-01 1.229853400088445070e-01 -1.814526229257243717e+00 -5.228453108856093712e-01 -1.525664851472757592e-02 -3.900045625345716638e-01 -1.764183121862558323e+00 -9.612312272361640542e-01 -1.630714375546554074e+00 -2.285673727192047248e-04 -1.279970023761811015e+00 -1.180795483244891475e+00 8.878112114305443114e-01 -2.633534916340133369e-01 -1.093927807012449849e+00 -1.133605055392780114e+00 -1.333916661757731603e+00 -1.150919965565994213e-01 4.156070811884887695e-01 1.634960697999927381e+00 8.861476338594979074e-01 -3.316312332214148562e-01 8.616808589493607506e-02 1.757701397955692413e-01 5.188842534108122351e-01 7.955776346893328466e-01 -1.175207303597246566e+00 -7.769657376353112932e-01 -7.325482575655252182e-01 -2.327088653733806911e+00 6.592067719604581544e-02 -2.932196095201816677e-01 1.450021164853168676e+00 -1.830928820397041301e+00 1.404278958284550738e+00 -1.446612629048567022e-01 2.409991389883754831e+00 -4.181168612572284671e-01 -3.752067330929930167e-01 -8.438821305494101921e-01 2.111716721626727411e-01 -1.198047897309813425e+00 1.439565511085274807e-01 -5.937423768582860140e-01 -7.505092135166847589e-01 1.853482932838008912e+00 -3.147892565183402214e-01 -3.631640759141177566e-01 6.802651777596994132e-01 -1.837376522606435580e+00 -4.597599451053933084e-01 2.194226610610276462e-01 1.357324916369698764e-01 -2.512286559490068960e-01 -1.858645192058856255e+00 9.109521053309463934e-01 -9.533811687618831687e-01 4.405073360423280016e-01 7.708702863250745940e-01 1.839404871030456690e+00 -6.988671720868094850e-01 -2.706920243772599211e-01 8.608166989290435556e-01 7.360387052761946207e-03 -2.414921041902289012e-01 -2.064707564965208852e-01 -2.893248530374891159e-01 -7.477477338516028693e-01 -1.017335056529522053e+00 -4.520184178614211068e-01 -1.372384446479747888e+00 5.039227524223098831e-01 -9.530993127197201487e-01 -5.476399599812976637e-01 -1.287315457637441263e+00 -5.464165106130148830e-01 -2.916036410103066065e-02 6.156761341393858222e-01 -5.136543605835866000e-01 -1.073318249444445316e+00 1.829966470902467390e-01 3.536960090933380374e-02 -2.061797269980080838e+00 6.373601055696074269e-01 1.406434709607598810e-01 -4.155588807920563843e-01 -2.383430382306002751e-02 8.452302467117327467e-01 -3.632082518424721573e-02 -4.838627936319454537e-01 3.166930681063238606e-01 5.167777870381161653e-01 -7.770330756436452102e-01 8.023611162831775223e-01 1.927531334315823131e+00 8.031255102145906655e-01 -9.023905751439059708e-01 9.172835593650945085e-02 -4.830135083914472993e-01 -2.316396869162473671e-01 -3.945736597529737044e-01 1.572659167540171099e+00 -4.377462105898405342e-01 5.508139761024942738e-01 -1.720386282469155592e+00 1.240723555246519005e-01 4.690952385003135938e-01 -1.639590551938536533e+00 4.805272531378946277e-01 -1.008700162782258047e+00 8.531625851022978102e-01 -1.523925219698340383e+00 -1.096565092273368291e+00 4.415407699913526662e-01 5.420551074300435923e-01 1.299593634533745101e+00 -1.186478343124724111e+00 -5.781105506797418886e-02 -4.136331416223040236e-01 -5.479336093841694622e-01 -2.135414366464563951e+00 3.187443954953713909e+00 -2.050688364787624507e-01 1.417197796605719651e+00 1.302103597021380565e+00 -3.283951669094953840e-01 -7.831588458267807473e-01 -2.327289420110857154e+00 -1.955023630310549487e-01 1.074668846337713424e+00 -1.065461401519909534e+00 -2.957712130478703516e-01 -1.510485005327982799e+00 1.548654576396053806e-01 -5.759439953711532612e-01 1.944007505275246572e+00 -8.446944053195588609e-01 -1.327742987848625766e-01 -8.700317316820855851e-01 1.368247817127419497e+00 1.421768564581524924e-02 -7.246879832012450562e-01 -1.490934786572425674e-01 -1.070188284335618745e+00 -7.365860192608338908e-01 -2.282334729795877648e-01 1.058769504005975026e+00 1.095597892888173996e+00 -1.652888200614298919e-01 -6.735392907559849540e-01 -1.223845087317739111e+00 1.788884118998009254e-01 -6.390054411369702203e-01 -1.748043453666380809e-01 7.695397111577760574e-02 7.942439315881818507e-01 2.199011836050542179e+00 6.519478782907375258e-01 -1.750622183681258270e-01 -2.130026063832614724e+00 2.185672307856335872e-01 8.217195434551574085e-01 7.827712771747692422e-01 -7.030038954343729163e-01 9.207149629363892140e-01 9.711234153139367553e-01 -7.525298364570693899e-01 3.704782013657894058e-01 -1.456034078648508479e-01 3.547589287874134967e-01 -4.451287204435486755e-01 -4.793040849517035129e-01 6.128403991267472595e-01 -2.424447544128214560e-01 -1.913583421879589685e-01 -3.090076374628217826e-01 -1.393172911830531102e-01 -1.084597958316498412e+00 2.088672707015667152e-01 1.317409242562512128e+00 -1.315551594384570588e+00 -5.598848997145471351e-01 1.960089015955706615e-01 -1.445117922777377772e-01 -9.826026948516615456e-02 4.164922577466148024e-01 -1.246519028533530804e+00 -3.668500552256201419e-01 -2.354727426457758455e+00 -1.606851479992768672e+00 -1.341574826524913444e+00 6.498258028837976541e-01 -1.167657614172882274e-01 3.486764851507358487e-01 3.394363947787047975e-01 1.319048466642699646e-01 1.442877208833565517e+00 5.064486509695637073e-01 1.895471102055781065e+00 -6.140784895974260582e-01 -2.046143405649487601e+00 -2.131389304018119768e-01 3.578200621363327727e-01 3.638456528024275327e-01 -2.584580555167982907e-01 5.631887906840559177e-01 -1.480457133546304149e+00 -3.791803814660867356e-01 2.031323390885926838e-01 -1.475588465842079700e+00 -1.187011838437821432e+00 2.104840490578473722e-01 5.972023638964334413e-01 -8.485472577170573016e-01 1.254739792471015525e+00 9.634547673888136377e-01 3.349657521935802684e-01 4.185556599078905093e-01 -6.207738289688070205e-02 1.198656056353117227e+00 1.673504797867616245e-01 -5.077258336347015844e-01 -1.062433523058225804e+00 1.076498190547438671e+00 -7.625880302018889223e-01 -4.637158108595900718e-01 -1.903645976095899887e-03 6.878993320152065882e-02 -8.387342593061212215e-01 -6.235564672243890660e-01 -1.735910773301974075e-02 4.902232017068140491e-01 -1.323142332097751117e+00 -2.083981947732924458e-02 -3.846100221178740397e-01 1.443466902597444257e+00 -9.833685858899596788e-01 5.097101028911366072e-01 -9.891272821144025951e-01 1.438969341183119199e-01 -4.038451169149001041e-01 -2.293333302719744726e-01 -2.467394301143104596e-01 -1.044759967502758347e+00 9.778977035500143744e-01 -1.315905891006869499e+00 9.307000182234765884e-01 7.272146773949350607e-01 -1.315732435822161817e+00 9.260299883777982632e-01 -1.002364471833164350e+00 1.058272227144952060e+00 7.045089114414816445e-01 1.418586263012709070e+00 5.920564532932189872e-01 -8.629814667650467230e-01 1.125595395485032846e+00 -5.981566456346292249e-01 -1.664669866648050278e-01 1.628187835215636037e+00 -9.644918063614305037e-01 -3.941835080004826297e-01 4.834751887905943540e-02 -1.357980516111993163e-01 -1.285463187950879993e+00 -9.845163120552090363e-02 1.178198702409016141e+00 -1.618165376985412296e+00 5.543690465316634119e-01 1.134009378919414446e-01 -6.734193303134780040e-01 -1.307656675795042800e-01 2.518234342506185941e-01 7.339562149179175155e-01 -7.195806829326684140e-01 1.768852495098205135e-01 -6.631559282573483705e-01 -3.913502078753726132e-01 3.549207803177492071e-01 1.999583794741875420e-01 1.445472301410358762e+00 2.061119632506677402e+00 -1.511513229745453435e+00 -4.609185103943139739e-01 2.443816092414894114e-01 1.722841087454219045e+00 2.260135548165111974e+00 3.750602308915091943e-01 -1.155711468463955116e+00 -8.106396969681886056e-01 1.550140994057227495e+00 -6.730531901609946299e-01 -1.291911220782763881e+00 9.548915775099355852e-01 1.172388119454589983e+00 -8.354975835996674149e-01 5.337927041631465030e-01 1.826932120410523330e+00 2.582269891084372770e-01 4.050568966483264477e-01 -4.903319323067245050e-01 1.925569684776075929e+00 -3.536905961848738067e-01 5.915734636730139995e-01 1.733043645294114254e+00 2.214915705684000480e-01 1.915697010060028183e-01 -1.129950815448353074e+00 2.073870305448255458e-01 -1.334726818228241907e+00 8.710703159827848374e-01 -1.264542648086211703e-02 5.400400181738637118e-01 -1.918223229347317677e-02 7.744662676206940377e-01 -5.783989039194039616e-01 -6.219238533862809365e-02 -9.018629244656068966e-01 4.375054432962851569e-01 -1.883765274796509459e-01 1.225285080743433175e-01 4.331830994328886297e-02 2.991535147435843700e-01 8.761952104450388967e-01 -3.448319054477843593e-01 5.033355849971022922e-01 6.226662185936019389e-01 3.911209269108474884e-01 8.375109114903864782e-01 3.920904999718344275e-02 9.854631060432941236e-01 -4.294049883493935571e-01 -1.216517819941409367e-01 -6.460274151887879235e-01 1.566523662710708864e+00 -2.150730242177730234e-01 1.673075810594402579e+00 -8.754831052868856656e-01 7.536122632367053820e-01 -2.361314452248386153e-01 3.031399679932670899e-01 3.024538469030763066e-01 -7.296704441931058938e-01 -5.827499433452228983e-01 -8.438521823611848660e-01 6.848648522717049048e-01 -3.134557201659149972e-01 -2.806620240610421813e-01 2.908497159864618653e-01 -1.414901350392879786e+00 -1.184533604913603044e+00 -7.537108178039021444e-01 -1.454903742075785322e+00 1.190240030866119625e+00 6.801060224298546286e-01 -1.105862642833961740e+00 -4.804122175793225542e-03 2.025143329375238554e+00 1.212835177933729414e+00 -1.221624761387315239e+00 -1.190653047007188103e+00 1.399390648816266181e+00 2.439839139545323943e-01 1.046415179177431209e+00 -1.716003262350466185e+00 1.791248812057222084e+00 -1.210587535751642241e+00 3.308653775000221231e-02 -1.482339614939123029e+00 6.524788428613724767e-01 -2.412517914712387856e+00 -4.243734546385812267e-01 -4.903241068026594623e-02 4.219533523326440827e-01 8.215537616832819801e-01 3.711044067220870546e-01 1.362730058297353164e+00 1.020475805687868665e+00 5.361757393385805370e-01 3.534040231089023987e-01 -1.425526881590544859e+00 1.147378361828068627e-01 1.865339851256733850e+00 -4.697312937349616968e-01 4.591636899907948488e-02 -1.528105668745364909e+00 5.351890542609221146e-01 -4.337396384818931749e-01 -7.017658887931206291e-01 5.849352282501337624e-02 7.158082706040966303e-02 -2.080872037758289217e+00 7.430113305089508513e-01 -8.254280417522729119e-01 -3.935112975924043854e-01 -4.852906109004622714e-01 -1.369951584431618796e+00 1.521599214371073261e+00 -1.711704043986962964e-01 -4.708369866425841654e-01 -1.489370215011762255e+00 1.639829952139133074e+00 -5.317903346473988879e-01 8.227069666646074086e-01 -7.689072303875948977e-01 -1.378507546512148130e+00 -2.831604381031438966e-01 6.286075246385169901e-01 -4.402413258614760183e-01 -2.689874464691828226e-01 4.532541649011251894e-01 -7.422667401194615877e-01 6.893773984153368506e-01 1.790847099659627295e+00 -1.215498790514291327e+00 -5.655410400668843263e-01 -5.222231238370410589e-01 -6.924534996685507982e-02 -1.511149586282177770e-01 1.819868228468508320e-01 -6.414712434852294365e-01 -3.351211295146084845e-01 9.894550794876397770e-01 1.469592447671826729e+00 5.414551203590044492e-01 -8.900901231138680370e-01 1.090475482598856294e+00 1.000833888344191847e+00 -3.096151723379357179e+00 1.285672031042443209e+00 -2.350874046709302834e-01 -1.791470660256046177e+00 1.102814167564487302e-01 6.086610680136512741e-01 1.541425607505775730e+00 1.256470093456066861e+00 -5.830942128309024586e-02 -1.321576887778237230e+00 -1.655762877495025709e+00 -1.094490824797761386e+00 -5.463894926484094139e-01 -2.328086107321388487e-01 3.043585407762848249e-01 -1.531647500818156038e+00 -2.332111802851166149e-01 5.012508281111734965e-01 5.450369215400292511e-01 3.268249190845848307e-01 -4.031351269793483350e-01 -2.707907871028730207e-01 -7.165631050053481443e-01 8.164523842896348471e-01 -5.213810260637486982e-01 3.667662116755538992e-01 -6.126301905963951189e-01 -6.978986453158722014e-01 1.132251789883731874e+00 -1.235447091274019860e+00 -1.095795626161620406e+00 9.221982115103170008e-01 -1.223027046323118094e+00 5.398372353887835595e-02 -9.302952930030379264e-01 -1.958520175301927679e+00 2.843684477590394111e-01 -1.270603371076488575e+00 4.559544024032787801e-01 -2.024641794183528631e+00 2.827673710926593142e-01 8.376790722922875521e-01 1.653914868841349195e+00 1.189711031212109305e+00 -1.715368114173284164e+00 6.713606278920147830e-01 8.128868962030751932e-01 1.692488823548846666e-01 -1.070310860111232554e+00 -2.008990769575343727e+00 -9.413577223574507435e-01 -5.604215267711097903e-01 -8.106613421940297437e-01 -2.944154778506627435e-01 -1.088203893386338189e-01 9.657845557502116318e-02 7.519072281886725051e-01 1.676153659097757043e+00 1.189677832385451772e+00 -1.505997216406440575e-01 -3.494824446363490877e-01 8.153789784436613619e-01 -8.962593258820724662e-01 -1.876186607348164503e-01 -1.111429310811812066e+00 6.202926252540466034e-01 1.856532704687722912e+00 2.340613124373251142e-01 2.091747228343686371e-01 2.126741506647953084e-01 -1.708672001716842415e+00 -9.925197761445917477e-01 -2.660192356234340139e+00 1.300663449241874770e-01 3.385675341640069225e-01 -1.025865185638964672e+00 6.428980617617271465e-01 2.265586763228936373e+00 -8.664997035356059030e-01 4.767280568709162392e-01 -9.346943956385688201e-01 1.748807251756528403e-01 -8.660674111165750366e-02 6.743514860614111539e-01 -2.745043329296854129e+00 -1.340196900642866895e+00 1.392327841957851531e+00 2.240449840933551040e-01 -3.261704259195463140e-01 8.286133589942727973e-01 1.182694307989524019e+00 2.421629287465828229e-01 1.350622301011768167e+00 1.137493832355799706e+00 -8.757549884863137235e-01 6.186581223840796895e-01 7.542524016851153146e-01 -9.427262884301880197e-01 1.041512276469779508e+00 2.373768765361487787e-01 -1.929594989906132874e+00 1.281336358886481785e-01 -3.092530416230208079e-01 -9.162416198025811198e-01 -2.716097954039201068e-01 1.580286923167351087e-01 1.042133053813273591e+00 -1.969285091902201468e-01 4.064963317026624723e-01 -1.322317531238851540e+00 -1.766901872689052577e-01 1.056614267429617504e+00 -1.884400840393978926e+00 -1.137058567955670174e+00 -2.771620665944897199e-01 -5.970129274286284371e-01 -7.476771777339124014e-01 -5.501760658100230961e-01 4.377396198454568954e-01 4.586681759379925283e-01 -1.977655078549291234e+00 -2.132202454728222563e+00 3.555729201892461777e+00 7.393281526809881710e-01 8.897342472446255757e-01 -7.245943884390913803e-02 7.420327767917109241e-02 5.025055893985287403e-01 8.297183835435779642e-01 6.804820761747810698e-01 3.302220767978771843e-01 2.008558049603720530e+00 -3.392702350134942368e-01 -1.553290446572347161e+00 2.152152337706373597e+00 -1.090753198525284740e+00 -3.814656773034234144e-02 2.651823551723226369e-01 -2.003631737775284638e-01 -1.797005725187961755e-01 4.021337585928801972e-01 7.594828393182713189e-01 2.095926968169013804e+00 -6.720830294796833471e-01 4.902036719821803445e-01 -1.093967050893216997e-01 -5.988768549799079466e-01 -1.833313876054243785e+00 4.714106972336189888e-02 -1.071202607853093403e-01 1.224707138719567601e+00 -8.969695418769532136e-01 -1.835254708664372680e+00 6.747110906389263141e-01 -1.789889954054870502e+00 -8.264986603780007934e-01 -9.172810647310190024e-01 -3.800072853066961964e-01 9.003378566304728881e-02 8.246615191475492601e-01 -7.583571362393686233e-01 1.245286318884871735e+00 -3.007365862337275098e-01 -5.809486452454212246e-01 4.517319596083667621e-01 -5.355335281826760774e-01 -5.285376296573456312e-01 6.944181215248590444e-01 -7.946718897374317470e-01 4.519441050624418144e-01 3.203910284687358501e-01 -5.637233925688516223e-01 -1.309848772413112261e+00 -2.606103392907577199e-01 1.113746751102163035e+00 1.714425840169632842e+00 -2.019880457210854185e+00 -5.867014352469841487e-01 -1.442222172508816069e-01 6.934959768911136413e-01 -1.020035967065073823e+00 -1.675034656952913148e-01 -3.741859938281525411e-01 1.022586076887860296e+00 6.766211248361622133e-01 8.991049164597325616e-02 8.799904528209623322e-01 -7.050185686648338668e-02 1.779299595603866191e+00 2.858466824280182506e-01 2.025409276402233560e-01 -1.564999910492246959e+00 9.551005611706337994e-01 1.043027719817417154e+00 7.941834637290663412e-01 -6.850256350543306727e-01 -9.616335555474998797e-02 -2.635901847741695461e-02 4.040750765325561988e-01 8.981440565519974162e-02 7.603360522108872088e-02 5.427480908141035787e-01 -8.847031976351882321e-01 8.998083952200416347e-01 1.447729228763339870e+00 -2.150909581577514218e-01 1.759683357676765023e-02 1.440074621446171710e+00 1.380929402104520864e+00 3.415095221837841782e-02 -7.741911862691026602e-01 1.410576795345543033e+00 4.923739687210471616e-01 1.561031746842552304e+00 6.730095298503484536e-01 1.328850237568789172e+00 -3.292780448271223070e-01 -4.513252799533221810e-02 2.262012164171939288e-02 1.174169808511291935e+00 1.808950814886091996e+00 5.048882784226205178e-01 4.180165502240167363e-01 -1.610131072151898879e+00 1.144304215661006222e-02 2.549923462909566285e-01 1.000810513857730705e-01 4.644493051058525279e-01 2.680231037621511270e+00 -5.332933202974221576e-01 -1.287247704453742925e+00 -1.883408903209375096e-01 -1.972021121859315107e+00 -1.538932404076424620e-01 1.206320754932372674e+00 5.928546563713577022e-01 8.461810599817517486e-01 4.195073974569576980e-02 9.859715480571635826e-01
1.519175471084901509e-02 -2.594360790585759080e+00 -9.883138114450560341e-01 -6.362768405760069745e-01 6.375423246909169839e-01 -4.546086394362821581e-01 -1.220463310679311464e+00 8.721005173087277296e-01 -3.100861487070030176e-01 -6.041931385937867605e-01 -1.644091202028715504e+00 3.844361402189405696e-01 2.344005042128653127e+00 -2.654660578735791310e-01 -1.737955372247396379e+00 -1.553052612135405131e+00 1.159072214547794744e+00 1.166848879659351690e+00 1.124775891643184644e-01 3.960939106427326939e-01 -1.339555477729123867e+00 8.507188821209948904e-01 -5.622596887867457038e-01 6.313921085322312665e-01 -9.050323255834175074e-02 1.076935693590495458e+00 1.457309870229303028e+00 -4.985171819150225336e-01 1.467195043760179951e+00 1.426088759422919683e+00 1.912660287145806215e-01 -3.350125339712641814e-01 -3.540387024891956114e-01 -1.071174509961362986e+00 2.399110978053071441e-01 1.230216881057336176e+00 1.362895481987586255e+00 4.537956510177703073e-01 -7.184855068838311154e-02 -2.195363729174277800e+00 -5.061814848886290186e-01 -7.262748454178931112e-01 1.042868893341930281e-01 -6.592861644070563409e-02 3.548914528516560196e-01 8.717281109181779231e-01 -1.469490746557351679e+00 -2.669023896677504282e-01 1.918236789722976010e-01 1.662321964893276771e+00 -5.333115293266701973e-02 -1.641612159995651021e+00 -1.079849178726240005e-01 5.453598336312611705e-01 -7.315101200639384516e-01 -2.520034715720602392e-02 7.284046666437308248e-01 -8.730730799604967396e-02 4.961294573878269332e-01 3.755898141715239280e-01 -1.266601448952430209e+00 -6.457856323982094082e-01 -2.180970869515626909e+00 5.935903446866191979e-01 -8.747411785703047560e-01 -3.743468011285214225e-01 1.208703327670930028e+00 4.449923844661264893e-01 4.156335829554068662e-01 1.189467662782614621e+00 9.578327977048595177e-01 -2.399527482008104062e+00 5.110139135980028557e-01 -7.055011702222618863e-01 -1.306746391285364406e-01 1.141750704953163442e+00 2.839532180231216785e-01 -3.979962753624399219e-01 7.750621429438510068e-01 -9.645741819891681113e-01 4.720171684305469739e-01 -1.153098768384470230e+00 1.618750766404282726e-01 9.813556973194699218e-01 4.550752752102930065e-01 7.877632684690836218e-01 -5.304697148176632515e-01 1.040738935261792175e+00 5.671012347523042285e-01 -1.612420075479813197e-01 1.647393713849736319e-01 -4.281056092915420108e-01 3.245543581127976474e-01 -3.594073720763946711e-01 -5.526272307129928008e-01 -9.120508329011250970e-01 -2.377682707186852817e-01 -1.524716659647536776e+00 -3.743775583379865268e-01 -1.031793650054453115e+00 -3.877986772408930083e-01 2.432830755737715178e-01 -2.929703146038812878e-01 -9.260614869996507403e-01 8.920503388988384463e-01 2.480930969805914099e+00 8.300500140045937725e-01 1.061444562785393675e+00 1.268023301157580052e-01 -5.421914050202212287e-01 -5.374402057530077714e-01 -4.138901160041913441e-01 1.248165888489079389e+00 -1.826699814717803294e+00 -1.326310457285604816e+00 -9.847852053944188347e-03 2.237308320463427869e+00 3.624192544795279969e-01 2.268749689774599343e+00 9.911765118468353064e-01 7.647764556830934923e-01 1.387732586317724781e-01 -8.092236955510058172e-01 -6.507113181396134705e-01 -4.479192377286359689e-02 -1.804920740527972356e+00 8.346544803554827308e-01 5.977444224819292717e-01 1.377926214210958067e+00 8.280854083488441431e-01 1.234428341334694590e-01 -5.090997451115084615e-01 -2.082919511571341697e+00 2.009009998957873508e-02 -7.351427680347095706e-01 -2.404618989883048119e+00 -5.860344709068572300e-01 -4.936282687687501003e-01 1.242366870050772842e+00 1.476611588389226792e+00 -5.167268325605254287e-01 -2.535414790349641012e-02 1.655577645789935382e+00 1.089638829200430203e+00 8.686521230851163011e-01 1.061734568655477329e+00 -7.883068360841591652e-04 -1.395143838324043761e+00 8.206081780492334721e-01 -7.461080894085414528e-01 -9.260224833887047147e-02 2.995618162382260863e+00 8.722939233066125952e-01 -9.918005456140208675e-01 2.160550235307540756e+00 1.209749453825651688e+00 1.277639077055826355e+00 -8.784031161112498820e-02 2.375680818159362981e-02 2.271921142828705054e-01 -1.561428549672689847e+00 -3.813081467673981595e-01 8.240394800712844692e-01 5.578280782864852849e-01 -1.081426250552035118e+00 -1.324602821294800892e+00 6.246674622746938299e-01 -1.611529583815113575e+00 -3.003700172316669526e-01 -1.593662260232381611e-01 1.442085031629182501e-01 -7.997845072237107500e-01 3.062334274116910171e-01 4.410394022895554600e-01 -8.758651309174744770e-02 1.148745542072673542e+00 5.554146254875022004e-01 -1.149717969564393594e-01 9.859902822393640243e-01 5.786676129057082285e-01 1.804439930461091857e+00 -4.325971225898220252e-01 1.348688840767040986e+00 2.673691457390814818e+00 1.844952250977892616e+00 -5.788587834286402778e-01 8.962036214527226985e-01 -5.232230561395867507e-01 -1.395805430731780872e+00 -2.344576014054205459e-01 9.860825271083401011e-01 -4.206720738984415231e-01 1.351300333832504919e+00 2.470731863802471118e+00 1.820471146614978553e+00 9.340267420886515515e-01 8.153648360854267585e-01 -4.661102648265102316e-02 1.125990099357446345e-01 1.319905457698861362e+00 -8.394239310843724100e-01 -3.438171280501112759e-01 -7.747007709523257013e-01 -4.932947680658580913e-01 1.803312169064445192e-01 -2.022889494287399836e-01 1.955741100488865847e+00 -1.733558118358649036e+00 1.801514619696803710e+00 -7.614208227558463271e-01 4.847805242713188467e-01 6.042672106515265540e-01 -1.935797062601552210e-01 -2.139910413294736191e+00 -1.142611690024665005e+00 8.143149891539495921e-02 -3.117774426038020796e-01 1.953668066789360891e+00 -2.164643898739557204e-01 4.079935593310437536e-01 -5.054148918066364571e-01 -9.074345624512599739e-01 3.670078361469022443e-01 -3.371257300471329210e-01 1.156842636789567003e+00 -6.703121822990201206e-01 2.287082021527635955e+00 -4.364681357003167422e-02 5.468654448093928089e-01 -1.538767152113983849e+00 7.119646039941528448e-01 3.571464477545596705e-01 5.266031507208802642e-01 1.241610099122986810e+00 -1.855377796755919295e-01 -7.875912609330107950e-01 -1.680286631296907807e+00 3.925856073697630011e-01 6.664174606452057947e-01 3.629199561971478694e-02 3.945113667944050717e-01 2.152111011918302452e+00 -2.037590885224919990e-02 -7.240844763981222343e-01 3.450439449213882903e-01 1.000450991980226467e+00 3.210915019630862788e-01 -5.108104262742984014e-01 2.802547082304924775e-01 5.098160274223355604e-01 8.376136680029111492e-01 9.811694567233378850e-01 -1.474378224221405631e+00 1.179753920128420619e+00 -8.643294978577672483e-01 1.344647301028346620e+00 -6.920564294005828732e-01 -8.247870480843454422e-01 -5.192667803346094901e-01 -5.267313239570464711e-01 -1.413088853636897679e-01 -6.213982983720579556e-01 1.072658205999420078e+00 -1.043000377653732658e+00 1.433783511948122591e+00 2.078042142530490022e+00 1.116459943373777408e+00 2.253980972778685032e+00 -3.515258006952718950e-01 -2.424400985204099024e-01 -1.862033532145191128e-01 8.779244763883209401e-01 3.223840508103245628e-01 1.134608237704513023e+00 -1.741709448331691057e+00 6.946457020863082699e-01 2.634253399599246759e+00 -1.863004543418028902e+00 -1.410248980843965994e+00 -9.160124029304468340e-01 2.652743121747274668e-01 -1.261881129329911921e+00 1.163005439485067960e+00 1.347260460065940746e-01 -1.613106079738168441e+00 1.419563705646122775e+00 -5.498839227927739826e-01 3.762798171616544840e-01 -6.709832198157800187e-02 9.006100800906606807e-01 1.491407836690067601e+00 -1.137233076843708668e+00 9.429944334522638583e-01 7.566586895075372299e-01 3.517999560223897260e-02 6.880032427059858957e-01 1.118009060214626205e+00 3.137406991986568250e-01 -1.010156698986180768e+00 5.154349528923917179e-01 4.788458813078307064e-02 6.382111062713084759e-02 -4.875797103809433874e-01 1.016258479638159073e+00 8.548029751789197883e-01 -7.841080706822771695e-01 -5.879100339303703349e-01 7.909002161715629198e-01 1.757956509024503289e+00 1.059116310212929041e-01 -2.171302512986938105e+00 -3.377913034692726219e-02 -1.102121326333159290e+00 7.880933757958168417e-01 -1.712319819057236403e-01 1.204170353081899236e+00 7.002599702773080192e-01 -2.033372127055598444e+00 1.327731865995238847e+00 6.035173002910098061e-01 1.484229721232263044e+00 -6.931529739910646803e-01 3.071430156778848897e+00 -5.483598527864939065e-01 -1.283993032631452369e+00 9.095981689862369102e-01 -1.099800757958584868e-01 8.265675315767655462e-01 -4.706538566004273560e-01 -7.855391401557424436e-01 1.460479214985066720e+00 1.415400418695032414e+00 -1.167188060764755564e+00 -6.709524668629996969e-01 2.373069671448291562e-01 5.701220525799007843e-01 9.515682090005216087e-02 -1.796286787025205722e+00 2.667094658028678067e-01 -2.215045951529826418e+00 1.250461195081967736e+00 -1.097251188709621461e+00 2.642608330751452517e-01 7.839041433287083915e-01 2.189686958733370936e+00 -1.595975780158879198e+00 -3.960592798191037156e-02 -3.434775317425453056e-01 -1.024431642285427602e+00 -7.372019774918393553e-01 -1.260804396788197890e+00 9.604036796141844912e-01 -7.124563977196312070e-01 -3.287993526998879701e-01 5.803635088960786836e-01 1.243809557841198954e+00 1.250534900721274711e+00 9.868483612964532581e-01 -7.042045300681332165e-01 -8.376542141403827690e-01 1.396027899332303424e+00 1.198299026785369092e-01 1.424355794601157355e+00 -9.710291921706432072e-02 1.714687551468257465e-01 -2.161262627715320850e+00 -9.163916015041843888e-02 3.977227577534858116e-01 -1.484533649737391325e+00 1.136672613732445380e-01 1.996268811700449231e+00 8.356710828827361714e-01 2.486101862789544259e-01 -7.658021906430019232e-01 6.260752699459791737e-01 1.271994651632937456e+00 -3.701879968059156867e-01 -4.115745203554684317e-01 1.284260072438756284e+00 -2.920892613359908463e+00 7.183291085415023369e-01 9.693569895197656772e-01 -1.457796959040126072e+00 -7.824143354083924473e-01 -4.119034395707998897e-02 -2.478385583859268049e-01 8.253997033549032025e-02 1.537547857322454137e+00 -5.219621578539721529e-01 4.373052047748579585e-01 2.619285619492479622e-01 8.051938997361803019e-02 -3.877579944968705949e-01 9.461221863402954346e-01 -7.553517316524527292e-01 7.872173958706372154e-01 1.203713052189499866e+00 -1.009997149858662679e-01 6.847635311792883428e-01 1.502011819794485836e+00 -2.798990316740873063e-01 2.090559633833394271e-01 -1.138769167214327194e+00 -2.369193650491280556e-01 1.297775664646038107e+00 -8.183343616289209255e-01 -8.731129465807214718e-01 1.101596747819684641e+00 9.065954300698102208e-02 -9.625239172266073506e-01 3.289500734927534031e-01 1.792545302445256450e-01 6.665432069328487419e-01 4.041247304304835253e-01 -8.002819082516546834e-01 -1.602838089583808578e+00 6.449126145362679141e-01 -6.197334343084646147e-01 -2.351693239668186219e+00 -6.267453310000418165e-01 1.598620652250072993e+00 -2.900783778756750586e-02 5.066640348773450153e-01 4.730467520596621789e-01 -2.307536989550127982e-01 -7.868377631614631440e-01 4.286445935972708898e-02 1.385626170908893506e+00 1.165215624479295053e+00 -4.709127728601154167e-02 -1.998401151953680177e+00 -5.462815420900810626e-01 1.264555656718652665e+00 1.954647400290900006e+00 -2.001042511806280011e+00 6.228391218317125277e-01 2.537090473511126820e+00 -2.443236991232135225e+00 1.879649011935050629e-01 -2.053892362038012287e+00 1.283847176858013084e+00 4.585458406567551326e-01 -1.644545031729624629e+00 7.445320500960649346e-01 -1.036959349618863824e+00 -1.547196907481765693e-01 8.104483504741322175e-01 1.682506220118903384e-01 -3.941541161388786296e-01 -5.486558565718268055e-01 9.599185530499177998e-01 1.275246732583110942e+00 -6.105991985396572730e-01 6.070956922607756434e-01 1.096312729683172948e+00 1.964901046494361425e-01 8.307779657838939569e-01 -2.053758455019152052e-01 9.030427005793002504e-01 2.624200440218941721e-01 2.121022471387266350e-01 -5.380747449992331344e-01 -1.352855663491374427e+00 -4.162103456404689372e-01 -2.141094555572895075e+00 -7.440366281357710387e-02 -1.029148514864395514e+00 -2.022796925670412804e+00 -8.460187864058403839e-01 -1.710626519360067543e-01 -2.887983322765295124e-01 -1.369910750725091164e+00 4.325364911990546291e-01 -3.629172867042387840e-01 2.495493560740193129e+00 3.086127269700607467e+00 1.209930436157286904e+00 -1.251488274324363159e+00 -6.490342208838469906e-01 -2.677019133549852214e-01 2.727856139427191184e+00 -2.010349887024711624e+00 1.385468970907070441e+00 -8.465356029924281378e-01 -8.807064456204383163e-01 8.563193157125993382e-01 1.738967395225357482e+00 8.364700367980552054e-01 4.380875588593724501e-01 -8.973871913647260001e-01 8.896551220724024933e-02 -7.978852292325750994e-01 -1.635265835976382975e+00 1.013662278020292379e-01 -1.248090890642111983e+00 7.229288368686580535e-01 1.770741379242119773e-01 -1.885688136722250274e-01 2.883312342042944731e+00 -4.604571480179375786e-02 -5.037517341303171525e-02 1.855472152105627492e-01 -8.861195539987928305e-01 1.808783518957337022e-01 -9.048619739702460363e-01 -6.024337317183857676e-01 -9.416260803039880889e-01 6.843328043220963108e-01 9.968860246289787952e-01 -3.886948853097256795e-01 -3.974371749755528094e-01 1.040641620623509622e+00 -2.378279064891901384e-01 2.492681167684835386e-01 -1.251777670754277150e-01 1.213583272575115835e-01 -3.313355229568197835e-01 -7.517773477266480597e-01 -1.333384275447837553e+00 9.529414475458470868e-01 -3.667831723928528104e-02 -1.156662178097634053e+00 -2.983968617061800277e+00 -3.405148260766032164e-01 2.260899356404229898e+00 -1.047315253687538389e-01 -1.882721355064162383e+00 -2.917352437880843530e-01 -1.753624511214331994e-01 -5.616774377156968923e-01 -3.311797306916200445e-01 -1.892537118679621599e+00 5.511873001667916272e-01 7.448092626626621193e-01 1.365910984462030742e+00 1.845249735285072468e-01 -3.851342856652607005e-01 1.367719326111373590e+00 -1.615360160554364599e+00 8.008960290580743324e-01 -3.792475985276819728e-01 5.050230391522958495e-01 1.164345140073352880e+00 8.789893182278118999e-01 -7.434171025547177125e-01 2.052251108908405008e+00 2.278534017704768322e-02 1.023593655417160075e+00 -9.409154932627329382e-01 -1.488200026574838797e-01 4.024822356385934774e-02 1.280568965479091492e+00 4.651440833371202621e-01 -3.157888131730681724e-01 -4.344530627887570051e-01 -1.637142882738510830e+00 7.311259904331046666e-01 -1.414609895936874251e+00 -1.663498499821101234e-02 -1.082851603084949543e+00 -1.357215008022337521e+00 -4.264472497148903696e-02 -8.911081258012785999e-02 -4.995686577283046659e-01 -5.343481246629347980e-01 -1.030198295591252089e+00 -4.385329712044837014e-01 1.258252989749942152e+00 -8.823786543845960617e-01 2.469913830836974800e+00 -1.551355749686392227e-01 2.935556631210319289e-01 -1.101318191399507374e+00 -1.258581993540037081e+00 2.806100058625356497e-01 5.385278005967112369e-01 -1.644293094803709124e-02 2.883079572175993310e-01 -2.103072831233304962e-01 1.996665446858097159e-01 -4.319751023200627538e-01 1.233356670721982962e+00 2.147210964757239715e+00 -3.163703467639788491e-01 1.168742781516885598e+00 8.553120588005457270e-01 9.437128363590867597e-01 -5.845133016271475412e-01 5.954026027796703868e-01 8.929463849283111321e-01 1.866204099905809377e-01 3.797222962017512797e-03 -1.061847126610090536e-01 -1.771711641388902247e+00 1.170534826664657302e-01 -1.558891025397774355e+00 -1.509662637298242460e+00 3.813658314293557061e-01 1.347660796064680699e+00 2.041838577209336147e+00 -5.479312386910327737e-01 -1.948870437607465478e+00 8.534177185433113877e-01 -1.306848361136482728e+00 4.282315611334817917e-02 -1.498155520061125734e-01 5.637596345372752026e-04 8.216737954987110570e-02 -1.187654422669727650e+00 6.390132193925146531e-01 2.507205397783517919e-01 1.324858340157407888e+00 5.403380601389775606e-01 1.396614023217465639e-01 5.493140457387205577e-01 2.333236001321514763e+00 -8.112193379902224999e-01 -1.173199992300442807e+00 -4.665963775417118486e-01 -1.410468260900961335e+00 1.206459903429149660e+00 6.679376394591568511e-01 2.667666519202329112e-01 -2.713249133661658208e-01 2.740900266843782629e-01 -1.666334734353392744e+00 2.516984205504348981e+00 6.876135226206500639e-02 1.133909085326108679e+00 -1.158663586741861318e+00 8.551424295864692438e-01 -3.816961303045350862e-01 1.005670633625847854e+00 -1.432751111568389524e+00 -7.200522156192451506e-01 -1.740907629832104453e+00 -1.217435697752011325e+00 1.223534770263395993e-01 -2.989882108419919526e-01 -7.007676807703558941e-01 -1.789195216880773875e+00 1.389462700206568480e-01 3.764442249982756783e-01 9.558081196404416557e-01 -4.208192731137059273e-01 3.176407677457607215e-01 7.576352619435770645e-03 1.169514275389872543e-01 -8.407673763689823554e-01 9.059971944596112436e-01 1.313542386760132796e+00 -9.068894192085038553e-01 -8.287589483059644158e-01 7.379486597050151087e-01 1.751877603623906543e+00 9.862826933903313664e-01 7.068241382798725603e-01 1.606447445096469639e+00 6.120670179236528119e-01 -1.266528499201728719e+00 -6.843155720883292367e-03 -1.799564948277956322e+00 9.655610267531697932e-01 -2.706442842618567712e-01 7.418988569180060555e-01 1.525985306120279272e+00 8.687026774377942795e-01 4.347319195689833826e-01 3.696547995759094651e-01 1.503793017721318570e+00 2.103734032104012386e-01 2.566007197692208863e-01 8.017773262014754598e-01 3.074131015226290176e-01 1.933993500725546877e+00 4.109999236083938245e-01 1.209384891524909911e+00 -3.544813170206077835e-02 -8.689349656103244335e-02 -7.511811801718432102e-01 1.401319282797925947e+00 5.557686662979439696e-01 3.326711372976407996e-04 -1.729334763346440373e-01 2.853262791682935062e-01 8.098996782735105038e-01 -1.228529634016800376e+00 1.024576345865079396e+00 -1.851834588662351344e-01 -2.336729330725192622e+00 -8.349703527472133180e-01 2.049404754987855792e+00 -8.740036332120763030e-01 2.387609618447856033e-03 -1.691219811849672183e+00 6.513483199285279301e-01 4.386524122464148245e-01 1.318547457951297686e+00 -1.043731302647536774e+00 1.237683766641874961e+00 -1.733136288607249054e-01 5.179264965619632122e-01 -2.675725845938050074e-01 1.527123729541267627e-01 -8.304885536688620673e-02 -1.768432364891391328e+00 -6.032281169162525547e-01 1.445168273010910276e-01 9.437283398510410981e-01 1.832526197037722460e+00 -1.155604605727824918e-01 -3.524870069058930883e-02 4.773404974168586890e-01 3.954595933904853644e-01 1.068379912893965278e-01 6.086358940872305112e-01 -5.250241973335513235e-01 -8.730248710664417766e-02 3.519280423068041341e-01 -4.255881260858042636e-01 2.970720243260333016e-01 3.970552386856707749e-01 1.701484400261775498e+00 -6.418743322202052903e-01 -1.102451497583677581e-01 4.027998460303584549e-01 -5.199963282464367120e-01 2.595200618866344011e-01 7.889948574086811384e-01 -2.015022141731332983e-01 4.296256140515710142e-01 -4.471031703855450901e-01 -1.012037576022355223e+00 5.000616601013717633e-01 5.854215568491186739e-01 -1.644470552478762393e+00 1.773806301671925878e+00 -5.450490907540151975e-01 -1.781895915719373891e+00 5.239301197878346028e-02 -4.247892021664388673e-02 6.459815354035486346e-01 -6.955647458944412831e-01 2.026213668931791667e-01 -9.955834800461527134e-01 2.021414841656180794e+00 9.215239512665130972e-01 1.286743922065230583e+00 5.299242517737825509e-01 1.920113867677885056e+00 1.964689031261111773e-01 -5.661507782980100545e-02 -5.878912689916268031e-01 -8.144456557518396922e-01 -1.522085839482703318e-01 -1.071194869027851437e+00 -1.134509307891127250e+00 -1.481390266355078866e+00 -1.164217183833125890e+00 2.185022712490340968e-01 -2.705682487929129132e-01 2.697265134355985028e-01 3.267615906287181793e-01 1.665590873816525375e-01 1.467499731002992025e+00 -5.799462018368391029e-03 -1.543672405046405682e+00 2.794514043398228509e+00 1.876802977823500918e+00 1.283437071790483275e+00 4.663153793757264243e-01 -7.580703891069262568e-01 -1.889393362243381613e+00 1.423001161021589800e+00 -1.201607372280066865e+00 -1.159655582228610760e+00 -5.281975110034646814e-01 6.995686019221089014e-01 -4.105838018414192381e-01 -5.469560550807825994e-01 -7.984307316575495195e-01 2.666529618525562473e+00 5.439175911872351499e-01 -1.243040004778174445e+00
1.346436218066984658e+00 -1.733672292693147488e-01 1.239945055155178555e-01 -7.874236264812111141e-01 5.926968137140388171e-01 -2.096396302063224804e-01 -3.798629989062202728e-01 1.274622150338198479e+00 -2.204908654028524762e+00 3.255118176857834666e-01 3.871457329895641175e-01 9.040452373743779191e-01 -1.999830943205300193e-01 8.940065530725358478e-01 3.937684795781808411e-01 3.484165175348581667e-02 9.936325098942661027e-01 -1.593732866641153767e-02 4.594668497059462564e-01 -2.806726653682611872e-01 4.691441695843145965e-01 -2.102716321171605729e-01 -2.850038482609931756e-01 1.943994009077986806e+00 -6.158013631508506558e-01 -6.872497782671260769e-01 6.954815267793413858e-01 1.331008564224285262e+00 -2.973902638918712316e-01 3.924485251121834217e-01 2.530875359060916097e+00 7.838809419200720718e-01 4.647526158716009520e-02 -1.102481839474931613e+00 6.338026607901703358e-01 -1.374803204330559581e+00 1.302263933817618513e+00 3.732172090048275215e-01 9.031028734704981131e-01 3.434059774331725823e-01 -1.504165984909224152e+00 -2.453181341541906257e-01 8.233082391308942372e-01 -2.623114304259185348e-01 -1.567222656429731187e-01 1.299085022961316005e+00 2.949082176416435996e-01 -3.659739159031579203e-01 1.414350440695989197e-01 -7.462298041309028962e-01 2.998676699307562643e+00 2.614731668871662640e-01 4.106150463085811997e-01 -1.010522201223096994e+00 5.200905846280377137e-02 4.985059344871113352e-01 -1.111554478527219780e+00 1.807401198082274840e+00 6.812784281299656408e-01 -1.194995281939792431e+00 -1.390626391496011083e+00 -9.371188660828784212e-01 -1.251699396325579139e+00 -8.808766629389784830e-01 -9.955693879019541503e-01 8.737948167512741282e-01 1.145944900036737879e+00 -2.887671412934942131e-02 1.774006971911721298e+00 -1.299454804420514809e-01 -1.760409319508339510e-01 -1.098088707111310125e+00 -5.871728254423433935e-01 -3.330012002633244705e-01 2.997435604639576701e-01 -2.303657829446517091e+00 -1.165771050543700005e+00 -9.308695405242666254e-01 -1.292201420379152754e+00 -3.590551675481846727e-01 9.303446684110969755e-01 6.674107400121679357e-01 2.153438728483370923e+00 6.011972269205074770e-01 6.756707594034824238e-01 6.761845566999714618e-01 -8.824265262654585884e-01 6.897422067096588005e-01 -7.104502219278243658e-01 -7.340711981110374929e-01 3.586544541881631770e-02 -1.578334731036869387e+00 5.274739383582016661e-01 -2.747291198910572496e-01 1.327333282068615450e+00 -2.030156208906181092e+00 1.937938628927824869e+00 5.165167461405466565e-01 9.440647017121608919e-02 -1.225395491364336342e+00 1.880605064126115833e+00 -1.898507123791209672e+00 8.234646483254325078e-02 4.237049668121085078e-01 1.577822713864449611e+00 9.142227878129453034e-01 -1.741393597764367529e+00 1.034179689455616113e+00 -7.312266879135250752e-01 9.668908376385162429e-01 -4.910412927145164086e-01 -1.459828414560056797e-01 -1.290814892576880868e-01 1.615252254053791470e+00 -7.965136258358933574e-01 -1.755662288571347318e+00 6.172189273414813160e-01 9.365885342209064879e-01 3.817280440568373567e-01 2.015882948511440897e+00 1.455895835030860397e-01 1.145245493300895090e+00 1.971288732431818236e+00 -7.844377849285660842e-01 -1.134621006101662610e-01 1.112823683193628899e+00 -5.150089478397025244e-01 -1.200603134329400579e+00 -9.820534143963470797e-01 -2.876016092493668963e-01 -8.948891868887189904e-01 -5.738920811263991117e-01 -6.915462258345191904e-01 1.863740879636741343e-01 -2.012177772740359138e+00 -4.210191165530511870e-01 -3.212178108683378525e-02 3.186466232057927894e-01 -4.049950724491803711e-01 1.344119498234357835e+00 -2.034060631668521246e+00 -3.305342595362437130e-01 1.308871598968597727e+00 -4.275580862524372416e-02 6.066252040584906302e-01 -7.103784770893152301e-01 -1.264205012088941649e+00 -1.006101484417964986e+00 1.582118849691159790e-01 1.688125999174080738e-01 -1.741343035478413626e+00 -7.430255480817359315e-01 4.583731691220913618e-01 2.739500178135461650e-01 -5.797931450083929766e-02 3.862436622156715793e-01 -5.968640871536991244e-02 -1.119688290294612171e-01 1.275537617749947117e+00 -4.238742811846688552e-01 -2.530344887686938882e-01 2.262839026097789308e+00 3.833761685701870814e-01 -1.253167447908016818e+00 -1.441331099277665118e+00 2.779688099263939033e-02 -1.420319001375332624e+00 -2.335788687673410191e-01 -1.545982291239957451e+00 5.600539303982638994e-01 -3.328417294045158958e-01 2.815986661883976283e-01 -2.861770314153354589e-01 -1.750482813753427624e+00 1.802126649288787186e-01 -1.412050900388610308e-01 -1.618186723398693738e+00 -1.351851710787662364e-01 7.218314731197492673e-01 -4.506116278543678133e-01 9.997258015622505489e-01 -1.245608955003938423e+00 -9.242775534549046990e-01 -7.689228525767584366e-02 8.169497971243593337e-01 -1.548949739181014529e+00 2.385100799783729797e-01 -1.453551710512321349e-01 2.402525343054193740e-01 3.128336298234163371e-01 -2.907176159788461556e-01 -1.134749643932655871e+00 -4.494462029689589855e-01 -2.509497338541787914e-01 2.077840576603562361e-01 -3.274562728643965470e-01 -7.883471449065077019e-02 -2.846969068338217057e-01 1.637190187085773088e-02 -4.769047373455626571e-01 -1.150425226013693347e+00 -9.543192016280108714e-01 7.957906183107104070e-01 6.556967458241407254e-01 2.691010427384154524e-01 2.073409262952869564e-02 9.616474872822755593e-01 -9.428016804967350728e-01 1.666207977166848098e-01 1.152381700288108490e+00 2.826675006804949541e-01 7.335209528746372554e-02 -1.163979029190342351e-01 6.630474348282424657e-01 -9.118616824786103248e-01 -1.496226196208954917e+00 1.462206872074560238e+00 2.511794824700752216e+00 -1.012499877311622720e+00 -3.835005441810919735e-01 7.583635039398657351e-01 -2.437778313649220374e-01 -1.202183532911442754e+00 -1.825999237497416106e+00 -1.050706993821073493e-01 -3.756122892292684812e-01 -1.534284103945941169e+00 2.621013437402222590e-01 -1.276733457240593339e-01 -2.820968935218655660e-01 -8.573030337670931034e-02 1.732573626222679367e-02 -9.740830964060819275e-01 3.416937015173377445e-01 1.182043495934319122e+00 -1.765549545682996602e+00 -6.487281648333533823e-01 9.512942347575749080e-01 2.102434357106166107e+00 -4.933636837092270078e-01 -1.073584582463031678e+00 7.335784211667717783e-03 4.323965778789036207e-01 1.031473221279760183e-01 -2.808527195675323274e-01 1.053836569873308093e+00 3.078498045192264998e-01 -2.756209136860666487e+00 -1.229599789696309342e+00 -4.947936108007642830e-01 2.348564983995202748e-01 1.607084375446859115e+00 2.210970852968166256e-01 1.067821596866669109e+00 -3.619735174158141278e-01 6.518505643777616765e-01 2.519554784802025549e-01 -6.770192701288996195e-01 -5.801201685167497457e-01 5.569692588453961646e-01 -2.371625984798001241e+00 -7.758086183472434616e-01 -1.003964276485363127e+00 1.461990353042777802e+00 7.061365940471873159e-01 1.061952519233243297e+00 -5.885720217560602707e-01 -9.767260750977122541e-01 -5.690606510481303060e-01 -6.747048270824883565e-01 -1.535742458576415892e+00 -1.592310138179637180e+00 8.520430269305989679e-01 -2.989366166407449177e-02 -5.223896610027006782e-01 6.033218115925019776e-01 -5.113496209054787522e-01 2.105542210784133950e+00 -6.073179916885179663e-01 5.376343445016110723e-01 3.013864085049503538e-01 -1.613772360898300118e+00 -1.120172644015567931e+00 -7.962080896333474378e-01 -1.373142752690068136e+00 -1.137286568882885263e+00 -9.465309713601932629e-01 1.435253867795814431e+00 1.609747225663778203e-01 -8.003817499218915388e-02 -1.143696689455478976e+00 -6.678672359197179720e-01 9.381340288425139562e-01 -9.379804432805243231e-01 9.764719681820009933e-01 -2.039264573519005419e-01 -6.602156025915222326e-01 -9.210748027059779686e-01 -1.270944562556756807e+00 -7.020247709213194298e-01 -1.666631426514994241e-01 -5.068684739462608196e-02 1.216250050249094716e+00 2.340329700678466018e+00 -1.993226495177352967e-02 1.062965452233142205e+00 -6.262240645355651170e-01 1.289280113714671439e+00 -2.304311833435648046e-03 -1.637821503569302894e+00 -1.876864844685878497e-01 2.731864405221015035e-01 -3.926280582587451939e-01 -1.148749530045920730e+00 -4.571560175998009012e-01 7.162227688373126178e-01 -1.277003776867517537e+00 -1.098127665933849695e+00 -8.023569280402740311e-01 2.783916306830337348e-02 5.070770927557310959e-01 -4.613813603912932798e-02 1.009854382318662314e+00 -6.299669344003200333e-01 1.564288706772668236e-01 9.217185050624971954e-01 -1.579238752143010682e+00 1.563462073274619835e+00 -1.195702272374241787e-01 -3.966747171226083224e-01 -4.747683292589796045e-01 -1.270738426564794965e+00 5.123093262876406984e-01 7.751043162951429810e-01 8.740526917479660152e-03 8.174220088043048227e-01 -7.874703416687893753e-01 2.000934155285897520e-01 4.858083648447165670e-01 -9.086154510499793169e-01 -2.656266903942709479e-01 -1.698331457931848698e+00 2.734621361659645422e-01 4.942256799083882823e-02 -8.125482728039186142e-01 2.969825584636940907e-01 -4.456558983968627596e-01 4.666457370414370254e-01 -1.599681101223694002e+00 -7.266557678449873103e-01 2.299893336800865051e-01 1.904771484059334385e-01 -4.569699129554887218e-01 -5.546254794499457796e-01 -1.019577784397871917e-01 -7.186853979383494018e-01 -1.084032687550411822e+00 -4.636082644733134916e-01 -5.955237943555011793e-01 -3.129862849076562870e-01 8.297824886003930533e-01 1.152266348925288675e+00 2.732741266857290352e+00 6.882164264676421395e-01 -5.505013176255409979e-01 -1.062212115762804832e+00 -1.191853742002965122e+00 -4.346444233091913412e-01 -2.233365938489262070e-01 -1.130478192437242013e+00 -8.861242569297413940e-01 -7.265036973839389400e-02 -1.143048039311442610e+00 -6.520758651991590549e-01 1.522306882120868732e+00 -1.189203868194157465e+00 1.795997417190418055e-01 2.714633159122862849e-01 2.697525882196912805e-01 4.325426659010256913e-01 -1.570179357869637138e-01 1.014673179671585324e+00 -6.768542408565749735e-01 1.551824044724045892e+00 2.544157214317839810e-01 9.027102103674434774e-01 -4.405574112586803370e-02 7.957662894101124040e-01 -2.049422184401931135e-01 7.355656977878850533e-01 1.252507747687582995e+00 -3.332176083175547032e-01 -8.662812223954265492e-03 -1.640539259267103533e+00 3.486967059429625926e-01 8.947712361935546976e-01 -2.033932314158178045e-01 3.710200155759740825e-01 2.334752637782709084e-01 1.608408031245714076e+00 -8.350271465298156892e-01 -1.569129727667094798e+00 8.224400416764818811e-01 -2.093189904927025058e+00 -3.231724864650664664e-01 -1.898368443710223008e-01 1.566409635057769645e+00 8.584155390010371756e-01 -1.395219344237162429e-01 -5.649945561755014278e-01 -1.657170708682234872e-01 -4.570864884298677100e-01 3.626950339911268473e-01 1.421542917998174504e-01 -5.439295380237386957e-02 -1.697829015554669141e+00 -5.583804190070025264e-01 -6.013365485970321167e-01 6.159451540459971453e-01 -5.729423976554345876e-02 -2.400378661953626924e+00 4.935913431789282768e-01 -8.251216957954241593e-01 -1.126496308206258457e+00 -3.088887886473749012e-01 8.873796041131999657e-02 -3.266107470843508942e-01 -1.004896472937511165e+00 -4.145217468471157352e-02 8.338076631209085932e-01 -4.180839666928853338e-01 -7.042646471975265721e-01 1.845455517259148026e+00 7.510513444161851515e-01 3.297915513326625248e-01 9.897886457896300227e-02 -6.324626650654237292e-02 -5.942982876456111285e-02 -9.000761942932914428e-01 -1.832315214877721921e-01 6.803919845791922549e-01 2.175383110893557514e+00 -4.304413016328124675e-01 1.601987046333219755e+00 8.676586753381247963e-01 -1.730674601136138024e+00 1.013521929772511099e+00 7.490954810602816760e-01 -8.426879117518446538e-01 2.783457623201303632e-01 6.441496693296352438e-01 3.096346327371218288e-01 -1.633563852264098837e-01 -1.086804999043459175e+00 -1.903457565929687290e+00 1.081442413650869350e+00 -1.025253770265336151e+00 -3.835519037961092614e-01 1.482688945376577916e-01 3.840173449486396218e-02 1.724976317739857823e+00 -1.367043728529783619e+00 -8.184536707297170866e-01 2.287946399880263215e-01 -2.910940356117115435e-01 1.680664677563781906e+00 5.152768198957081713e-01 1.375166469394046409e+00 -1.084570117258360833e+00 8.526414608312780918e-02 -1.848774608101110550e-01 1.114567970106087810e-02 -1.902146017898760810e+00 -5.055419743085181050e-01 1.350189431731980971e-01 -1.476916744620356603e+00 1.556309355654915461e+00 6.383307262456713316e-01 -1.230440957917884187e-01 -1.016585193948547294e+00 -1.486229384071322823e-01 -1.156585854839921712e+00 1.139870919583849895e+00 8.375504224791782137e-01 6.934960981657856127e-02 5.540550946525945042e-01 1.313743809438862875e-01 -4.890927743781306458e-01 2.399905281362618159e-01 1.559697937422314551e+00 -5.835218051255020022e-02 -3.253872129329262730e-01 4.233973982696869753e-01 3.260280369113141008e-01 -5.939821260723077145e-01 -7.147147961199900035e-01 1.852849100595405918e-01 1.614546416038225907e+00 9.752495388804713894e-01 1.328938316139444964e-01 -7.188832412246717318e-01 -1.119756625645265569e+00 -2.258978841191934261e-01 1.854935068153579669e+00 -3.810455817026702774e-01 -6.705322852899220365e-01 -4.148499411540857440e-01 -1.002071923726621350e+00 1.088778026334719762e+00 -1.053816709630789106e+00 9.545056571876852081e-01 -4.434683161730109124e-01 2.161498907342023212e+00 -6.711648934078165984e-01 -6.465894019619270461e-01 -1.854208716950086044e+00 2.033069957597559985e-01 -1.374416272044195919e+00 2.177338221734913315e+00 2.405764513483243494e+00 -7.210610786556519436e-01 -3.393525809177331820e-01 9.423749864728654391e-01 4.113638588120691053e-01 6.213029621856263063e-01 3.507639897974517140e-01 -1.732431616573246458e-01 9.377039732837866293e-01 2.482769355510851539e-01 -1.525065971408884558e+00 -8.713099201172754826e-01 1.608153317544901206e+00 -3.098326516911640433e-02 4.229449196620739815e-01 1.480812575361696970e+00 2.570386599951032469e+00 3.093660839423195696e-02 8.200087042109199809e-01 7.641782687586322620e-01 1.119362513276179971e+00 -5.054779166770413390e-01 2.195011470147505972e-01 7.022795862365124320e-01 5.991647848562750012e-01 8.961051649354195847e-02 1.014751493986977948e+00 -4.073712381429302476e-01 -1.097916916335439641e-01 -4.595164748287826062e-01 -1.857551254095675120e+00 -8.036818434746769713e-01 -2.125818377803751491e-01 5.311196289445440089e-01 -1.842696870117382923e-01 2.145492737953658691e-01 -6.466316030377056157e-01 7.916149270471377619e-01 2.495984735658341336e+00 -1.317512174152918547e+00 -1.340797560998151949e+00 1.235992592899478160e+00 3.394462839217823880e-01 1.376338938269066725e+00 -9.098140316629658164e-01 -2.979713373448184544e-01 -6.367460856475954945e-01 1.801443521864028341e+00 -1.638764003543481174e+00 -1.481094966134867130e+00 -3.679455004016246589e-01 -3.958524871876983320e-01 2.768226279855702243e-01 1.341206952999587643e-01 -1.047307954551717629e-01 1.200843232173536140e-01 -3.221724618564950071e-01 1.456775913908714637e+00 -6.120258469000134927e-01 3.375966070465437063e-01 -1.573691165280830528e+00 -1.225433695100761750e-01 -2.680154226027834152e+00 1.042712459815636983e+00 -1.461229027865378338e+00 -1.008369543165795745e+00 -4.142950450102966115e-02 -1.590702318317767761e+00 6.280435286423866614e-01 -1.070878709529029971e+00 1.142521607917861060e+00 -6.558010057797106773e-01 2.915569273142067375e-01 -2.040597264920416265e+00 3.649290757978308486e-01 -2.036080146546072334e-02 -3.750155544021103182e-01 1.586960754635687865e+00 -2.966922040063534882e-01 -2.352330769859803716e+00 8.850312932819105471e-01 2.926954910028634754e-02 1.486044385586789973e+00 1.142041986045676083e+00 9.013564845384465229e-01 1.802396051384299314e-01 -9.922292311246134755e-01 1.579416577805634381e+00 -1.834238228209743138e+00 -3.549962004498870977e-02 1.460925729633229198e+00 -2.922326428222775108e-01 2.669921230439450177e+00 -5.703032842627426824e-01 7.101099961249225379e-01 -9.509472938632228534e-01 1.014837274100266917e+00 -1.603265530825616958e+00 4.633702143243237925e-01 1.003401299278256165e+00 -7.209276200996067585e-02 -5.267037314807295756e-01 8.953125764099063577e-01 -1.999870350528356044e-01 2.404896706688870012e+00 1.241518829924798811e-01 7.187323453440713772e-02 1.905298516009892307e+00 -7.297121950491670672e-01 1.081205136076011764e+00 -3.265628891202514150e-02 1.767086077764427943e+00 4.525722021131994843e-01 -1.176465426189195140e+00 -2.225848916815576395e+00 -9.428899043383383027e-01 1.131866023250211351e+00 -1.945248761454343001e+00 -1.911085046058376702e-01 8.652856593184344858e-01 3.925666205523211105e-01 1.134993853497510141e-01 1.539816893736498882e+00 1.591329606450796463e+00 -2.508922154665664261e-01 6.294517264928217726e-01 -4.437860732685386389e-01 4.032222062287350361e+00 -7.901595531791830718e-01 -9.365829980160746970e-01 -4.329744298022885074e-01 -1.392804704486373391e-01 4.186085401399068928e-01 1.584276583640704006e+00 2.162674087024405001e+00 1.193521461561658503e+00 2.128640668287744564e+00 1.112469095363511906e-01 -1.276274264304661843e+00 -1.872543858798452754e-01 -8.628396594389400875e-02 3.453056097121584567e-01 4.145090144964019840e-01 -6.914077121491851718e-02 1.260655410420308042e+00 -3.977069670679579394e-01 -1.851801517111985262e+00 -1.088631219567896213e+00 -1.462699619390209316e+00 8.521780839104189376e-01 6.267691490309144076e-01 -1.696395501772297809e+00 -1.449120390325139729e+00 1.486483232159493406e-01 6.057924030141016436e-01 -6.261993883789351845e-01 8.812721567043960702e-01 -1.249799479331883623e+00 -1.081321948823806611e+00 -1.348184473747220169e+00 -2.159445379759477923e+00 -1.436724615744978950e-01 -5.915260041780251443e-01 -1.291596860736649699e+00 -1.743117668188640113e-01 1.208660103599503710e+00 -2.128981392094546621e+00 -2.248661734133356183e-01 -8.314218569122410196e-01 -2.620130314742651567e+00 1.265761913033397641e-02 2.472617751664613894e-01 -6.519180125140454363e-02 1.100900827141951810e+00 6.549326489760588510e-01 -5.720319703767691166e-01 -1.033002878876474018e+00 -1.131058987754099077e+00 7.655914572774137339e-01 -4.565176186490169652e-01 2.630913906395222934e+00 -1.485186376137060060e+00 -1.104976438002883921e+00 -1.942294577504536518e-02 -2.337009053644828693e+00 1.021700025570628556e+00 -1.967824325512466332e+00 -2.397034291442023068e+00 -4.303893160369275106e-02 -1.068499736450689852e+00 9.531017994494800361e-01 4.979113523604937475e-02 -5.530912766502346090e-01 4.173901464424177310e-01 8.223351329107937424e-01 1.545088301881762494e+00 4.368871468174948536e-01 -1.251074790709807427e+00 1.773983946687872626e+00 6.578074215975825423e-01 2.503644143693835589e-01 1.036709050055643205e-01 -1.676507829766140933e-01 -2.764374298608279767e-01 -1.876280605120537182e-01 -2.254647571188594379e-01 2.205666122702789056e-01 6.103607955943827351e-02 -1.431962999622062638e+00 1.016827317594821034e+00 1.656579188682148818e+00 -1.071444768663544878e+00 -6.862714345544786987e-01 -5.152096822284792932e-01 -1.756607126567034882e+00 -1.400033168626188873e+00 -5.708690930731199487e-01 -4.079520567558716504e-01 -5.322735164489532655e-01 -1.241261236264945778e+00 -2.598643368724050037e-02 -5.637046353408713406e-01 1.960856393313145540e+00 1.982760221312184878e+00 -4.453972775314760796e-02 -5.467834780422462515e-01 5.607218631766051065e-01 9.017498700703661108e-01 4.403504657510818321e-01 9.186756839899996585e-01 -2.325061913320703777e+00 -4.902191925007954865e-01 -1.516299149497637222e+00 -5.276396608544887679e-01 3.700894801551715685e-01 -1.154721578853229680e+00 -8.379751083627785535e-01 6.372229565332652168e-01 2.058043605501307660e-01 3.212989801417212021e-01 -7.121224243497550344e-01 -5.416300684785720909e-01 -9.426536433904810774e-01 5.904001057411464304e-01 -1.043197748575621198e+00 -1.720960642444753663e+00 -5.125803802211857940e-01 1.969510123566792670e+00 -1.306936450592862675e+00 -7.821807188344015449e-01 1.736859967882159683e+00 6.918034093577044574e-01 -1.041685728464891048e+00 1.018112489990700364e+00 6.998094752478581926e-01 2.427852751140900378e-01 -2.530320795134907153e-01 3.107369793267486524e-01 1.656573500588073955e+00 -1.440430940351821398e+00 8.359604160290950992e-01 -1.230557309644527475e+00 -6.245415533305306299e-01 1.549933017997511708e+00 -4.698441548172674898e-01
-8.571389917781461198e-01 -3.997722486572932721e-01 -4.413306428042252927e-01 -3.259965601086906029e-01 3.870977157829523507e-02 -1.053725943726910197e+00 2.095186824209710252e+00 -1.788215240045069487e+00 3.191901852798373351e-01 7.447633821944193988e-01 -5.530994657820438309e-01 8.437056443898746649e-02 -5.587903704675739602e-01 1.108049357754480990e+00 4.003074395289892284e-01 -7.490152447528913848e-01 -5.110955563191327961e-02 2.101561791643283605e+00 -1.807402315888030797e+00 7.183273221367869610e-01 1.306220169441860701e-01 -2.143823747209871733e-01 -1.259988390859307916e+00 -4.925986726559934414e-01 4.125926025965345745e-01 4.909475156882961433e-01 1.504234408069203388e+00 -3.940044454505224336e-01 -1.392032138289113763e-01 -2.292182592612597603e+00 -1.898180059631092265e+00 6.697126919347390350e-02 2.089814318008073712e+00 -3.846254805348771622e-01 1.139717606288814800e+00 -1.231445457474734800e-01 1.268058443581132178e+00 8.368236528851258349e-01 -7.017342511682690409e-01 7.560820465402202650e-01 -1.055414601847391110e+00 -1.831648756005694600e-01 1.844754327608517208e+00 -2.517971697458745162e-01 -6.095323962066867551e-01 -8.260636112489592175e-01 -3.183345893809379490e-01 -1.884679954031357685e+00 7.139491423822685867e-01 -3.624963144881420130e-01 -2.183591618863912898e-01 -9.244409146287895229e-01 6.533848640881010361e-01 3.177579249258938310e-01 -4.068962318577247494e-02 -1.474357867255412957e+00 1.194326705681041378e+00 4.179987816932818623e-01 5.830452329752721097e-01 -2.851837403142833405e-01 8.126962495948044651e-01 -6.221151423133692432e-03 4.653109917688679625e-02 1.805590243816751927e+00 6.453490146472368183e-01 -6.332728058688407158e-01 -2.223383096860394925e+00 -5.650440052860243867e-01 9.898050735263208555e-01 2.206343517101391205e-01 -1.783079252723074992e+00 -5.334292065448374975e-01 -2.919476412349915062e-01 6.110655514614483641e-01 -7.415973910191698826e-01 -1.115054937450000949e+00 1.047358096575423669e+00 -6.194468745802313159e-02 1.911352512069447729e-01 -5.287416785317265999e-01 9.536424383995699694e-01 1.083672719701798126e+00 3.402523379176540796e-01 4.086912173448475905e-01 -1.706035048758643424e-01 -5.771382015444420643e-01 2.090482176036431827e+00 -5.819436689346690894e-01 -1.168742966801117111e+00 -6.199043763902850612e-01 -7.711938338183700337e-01 -2.887766976791473761e-01 -7.121099283500766930e-01 -6.524598436644390986e-01 1.270908169712481328e-01 1.690280775230156518e+00 9.591776403352463287e-01 5.121310416891776685e-01 -1.255446416229442308e+00 -3.239276946409536118e-01 -4.982128633661252470e-01 3.063632601941815858e-01 -9.285312992894182438e-01 1.317932073268235360e+00 -1.516273346365854646e+00 -2.299758506117056400e-01 5.192116574676182150e-01 -4.474308621428803590e-01 1.725558150390795742e-01 7.930964530959038195e-01 -1.072792242197392776e+00 -9.428036490355894417e-01 1.414874122013419333e+00 -8.522686707636705217e-01 7.308841295403391281e-02 1.974652259385338393e+00 1.663040858698674324e-02 7.889966885202853719e-01 -9.559976783891802610e-01 -9.148445137980574238e-01 -1.222962508944336335e+00 1.791701030297943253e+00 8.561605810648851289e-01 1.624103572263995821e+00 -5.165811705762969330e-01 -6.281961816792775988e-01 -1.395675424109962925e+00 5.761085419091561688e-01 -5.226717692136499949e-01 1.988982168666497019e+00 1.126737219361221509e+00 1.964416656698280694e-01 2.480927675231574536e-01 -2.524335635901835961e-01 -1.018095883701883420e+00 -2.073579355692307946e-01 -8.156443954545870012e-01 5.686058018587332175e-01 -6.629827541108591626e-01 7.172695865625705602e-01 1.745969528374659907e+00 2.963238479427061645e-01 8.844769898736170033e-01 6.953443944168513635e-01 2.267021885372633716e-01 5.039239631653679163e-01 1.656719767570679347e-01 -8.410448986182595954e-01 2.732354628653886675e+00 1.628306818202222894e+00 2.773681007815704813e-01 -3.625247617312092885e-01 -1.151827196335787062e-01 4.170822038630502826e-01 -4.575033934969832683e-01 1.037406477888276751e-01 -1.713088979762262057e-02 -1.039461770823703501e+00 2.049950919041070019e-01 4.553415595944591554e-01 -1.400796674105561301e+00 2.881917073738963775e-01 -8.341521675737497699e-01 -1.061954972929058869e-03 -1.324346989961512344e+00 7.555525129268532147e-01 -1.105813991695034249e+00 5.786950994153731154e-01 -3.255396869040295127e-01 -2.608460086960298074e-01 -1.447266747013274957e+00 1.284927399787126223e+00 -1.161009445266026896e+00 -1.178697756045690298e-01 7.291210175742762756e-01 5.025514821234886575e-01 -2.202260951996845573e-01 -1.838338780132416084e-01 -1.462516222988287540e+00 1.821081816417478461e+00 -1.285412753384761020e+00 1.404529342659427138e-01 -4.930688793921623736e-01 -5.051621540727131432e-01 -1.061713417790367764e+00 -7.247562640235035714e-01 -4.323551242877131662e-01 1.744810726845950510e+00 -2.487616247372222145e-01 -6.290082215666753518e-02 2.364891701020739034e-01 -5.746950470768967811e-01 1.051286756501544684e+00 2.205425970909690392e+00 -3.849979791806687479e-02 -7.179963447002110088e-01 6.420818877565760419e-01 2.124760372131815789e+00 8.929806891283845749e-01 -1.595903654323911569e+00 -4.429417313331160400e-01 1.149460283308591846e+00 1.170101920525438377e+00 -1.797111113225416668e-01 -1.127904256867797050e+00 1.150334773202951855e+00 6.954252863567184084e-01 -1.283991351209372356e+00 -8.641099005420320722e-01 -1.498499369824626948e+00 6.714657869937115109e-01 5.260551817394630847e-01 9.003045360845852996e-02 -1.184280921644725038e-01 8.953428507447546911e-03 -5.516597265361763425e-01 3.940533602380463102e-02 1.969415311125735368e-01 -2.041554565491407125e+00 3.813933638686293204e-01 -8.881866317477958850e-01 -1.384136855207432903e+00 -7.125145720284473683e-01 -4.266691229793199702e-01 -6.199581154753808221e-01 -6.384981017207966847e-01 -1.003252116041532527e-01 1.047566349943352515e+00 -6.432998804895464495e-01 -2.201615970951270373e+00 -1.065136043905723140e+00 2.855182666698510494e-02 2.470194156699629107e-01 -8.334601647567493332e-01 7.640319592510023128e-01 -3.191805661059096133e-01 1.463801647707458242e+00 2.168608589433303369e+00 1.989207860332411038e+00 -1.334029628418235136e-01 -4.363492482556368679e-01 1.218680165507366020e+00 -6.590683256608866891e-01 9.925885695122882435e-02 9.906331070258690419e-01 -3.678228291280171702e-01 -1.610409399956006071e+00 6.456874438042564668e-02 -2.809846503667619011e-01 -8.094833763101887125e-02 7.422269908757500589e-02 -4.271162006975690595e-01 8.577776581389821853e-02 2.139816877397355377e+00 1.722180303855812333e+00 1.190615256644185438e+00 1.409720932239232560e+00 8.195613665387549984e-01 4.773979145952785275e-01 5.026722312386318059e-01 7.399106062447633470e-01 6.654143739563868065e-01 5.260819464886957730e-01 -4.507197646205397465e-03 -1.609995991423902179e-02 -9.940915820672899805e-01 8.369376103159265057e-01 -1.273647516588504169e+00 1.199558326128046470e+00 1.293491382221457764e+00 -9.514107702121635812e-01 -7.126973903262364685e-01 -1.532412662622937960e+00 -9.123090746274407914e-02 -1.374982930705188178e+00 2.525343971668939091e-01 -1.282444352739223303e+00 -9.210991439964356930e-02 -1.758038623556862912e-01 5.478893179714494632e-01 8.215772075431492238e-01 -1.420621603740049033e-01 -1.622786652732923773e+00 -1.361543279696052933e+00 7.735173585652154182e-01 -1.562298199130745732e-02 9.018563061570764594e-01 2.002034593409782182e-01 -1.912448218163966818e+00 -3.136992461572718494e-01 6.598559490166747699e-01 2.033184756801215798e+00 4.457700392019314228e-01 -4.579404130078422175e-01 -4.556281581311889123e-02 -2.833475450198425505e-01 4.377387129105725361e-01 -1.948117406486736258e-01 -1.697346064916372521e+00 1.297253866734525918e+00 -7.667082239588594028e-01 1.505902070207468135e+00 8.099291292639951845e-01 -6.037115917685670352e-02 2.621282522833011663e-01 2.021893525498478006e+00 3.079413248212325427e-01 1.034442353638793222e+00 -4.967060578264825832e-01 1.398237457283096674e+00 1.521067190619973974e+00 -1.330571960688008870e+00 1.292130154144803145e+00 -1.477069535845758841e+00 5.789249826901819995e-01 4.339275341648985984e-01 -2.006817776058722191e-01 6.475962370510954802e-01 3.814636526232976221e-01 4.233978695421190541e-01 2.254930848478464145e-01 -2.125086520041154226e-01 -9.239615429030884064e-01 -2.534431484149253788e-01 6.972924824979811476e-01 5.664794322126325693e-02 8.282369250668797367e-01 -1.091454603744699936e+00 -2.311073885326841992e+00 -5.468263334654427377e-01 -1.077467129619098657e-01 1.137257982567404513e+00 -9.509627989521540758e-01 -8.328688521381157062e-02 5.992812023090934304e-01 4.290022908810848801e-01 -3.978243058357385786e-01 8.291796421375605686e-01 1.059564281268953190e+00 2.772455865782967876e-01 -5.321061825888301344e-01 1.544270104704083879e+00 1.167497959536529573e+00 1.448235189336411599e+00 2.328016011207372782e-01 -9.095240779824593780e-01 2.539699577473349956e-01 2.377096754113756927e-01 4.024155120379427353e-01 -4.110545408048054683e-01 -1.100521310440588429e+00 7.152923379056290720e-01 6.378003443952593443e-01 -8.489273699117930727e-01 4.041228625062639468e-01 -2.360654839528534554e-01 1.079229972033921431e-01 -7.756321645710592128e-01 2.163367484825279519e+00 -3.554041607215999848e-02 -8.469806902791802150e-01 -1.766671949859766722e+00 -1.296339901264744299e+00 2.790391091821471381e-01 5.680230826248674481e-01 -4.502979772591839680e-01 1.069129398073055404e+00 -1.361548142220419644e+00 -6.805379421264646789e-01 8.189808029676161061e-01 1.293371591207638449e+00 2.299685892473024296e-01 -4.961863355591503710e-01 4.549855629161183579e-01 1.672626729353145214e-01 -1.104076315854677137e+00 3.993173323433407140e-01 -8.332576805423050903e-01 -1.012432601348325217e-01 -9.745383502557248834e-01 2.244063068751561030e+00 1.330446505299838655e+00 -7.231203458423759445e-01 -1.373272975223013503e+00 -4.682601009463802644e-01 -4.614505096826601593e-02 -1.422073247865916379e+00 3.853974704980497323e-01 -3.199437169093639066e-01 -5.419385012828816794e-01 1.945232317500764418e+00 -1.654428547385279613e-01 -9.391827379727697434e-01 -9.150577937976892007e-02 1.168288049597565825e+00 6.512535032983381988e-01 -3.672908592915674619e-01 6.117836618358927225e-01 -1.049122036460681251e+00 4.025415039941786510e-01 -6.093254323781573945e-01 1.354760020349994987e+00 1.504226015340813793e-01 -8.042090752636260609e-02 -2.232573695822600846e-01 -4.600084726646836430e-01 -1.739065412314158010e+00 1.235374044131497318e+00 1.287704069208656765e+00 -9.861503570945473474e-01 2.261113673918820677e+00 -6.041016275261352764e-01 -3.545071034511783348e-02 -7.757701372684184804e-01 -4.712462857974691888e-01 -1.041073448590925793e-01 -1.129152809198853635e+00 5.916375756867482683e-02 1.864208927553349326e+00 -1.078501322076806268e+00 1.905659000884779575e-01 5.658773016436532410e-01 8.763083439373741124e-01 -7.447876582424212133e-01 1.303179718615054883e+00 -1.163955218428282867e+00 -1.235788902373891940e+00 2.046226545175175437e-01 -1.813658763080435055e+00 -1.454824304944963842e+00 -8.935200244241149614e-02 -1.837931344074491546e-01 -3.355495968222574898e-01 1.260613646124010057e+00 2.532808931329723734e+00 2.340517628198811317e-01 5.074575461299356549e-01 -1.374678760878063288e+00 2.730508078253265358e-01 -1.172425863646359812e+00 -7.065584277838150573e-01 1.124891366101293533e-01 -1.683934265206059822e+00 1.652795320396625023e+00 -9.446156402237726457e-01 -7.240459369066197803e-01 9.137928625972802088e-01 -6.062256074818672680e-01 1.255754108242916445e+00 5.946127303975510259e-01 -5.063206813227961733e-01 -1.297572174130162681e-01 -1.779890517446395037e+00 2.075404549907361798e-02 1.555998594173940985e-01 3.711827961042614143e-01 -1.447439899313312850e+00 -1.083544322344736299e+00 2.754084211310556807e-01 -5.419593222115073883e-02 -4.168000106720665121e-01 -2.245855384184463899e-01 -8.114030422122333608e-01 -9.493813690269941041e-01 -1.489689380036944844e+00 -2.722357336570773167e-01 7.159830891076156556e-01 8.294478786255531366e-01 -1.066991017682849652e+00 -2.892480527628017439e-01 4.198880765000216342e-01 -7.217066605429256487e-01 1.325331986771481674e+00 -9.037353921360152809e-01 -2.175449498358465572e+00 5.055874755370899365e-01 1.868247416688880932e-02 -1.495816623854811178e+00 -6.119120835143115888e-01 -5.890585513813961782e-01 1.641418421590677523e+00 2.676125459041804877e-01 6.822074687991248887e-02 2.961949279926036072e-01 3.998960291005651535e-01 -1.418646073010227660e-01 9.198890544400359914e-01 3.404733680602768930e-01 -2.176090176453769676e+00 -4.249724697002350005e-01 9.323908610976767708e-01 9.774567105690249447e-01 1.503181355961684673e+00 -1.068000865388789716e-01 -8.788479342487742763e-01 -1.598754317150526516e+00 3.165493185263534848e-01 -7.961750875869402777e-02 -1.128090829233735271e+00 1.406306897530835931e+00 -6.344181031263799175e-01 6.631924362523156091e-01 3.405203910880165719e-01 1.084989257351896219e+00 3.251934779028692324e-01 8.529552218544340647e-01 1.065464803907668623e+00 2.291427302992910531e-01 -2.711480429599006370e-01 1.155899403120492552e+00 7.637293336941412825e-02 7.685772788692812885e-01 1.227424101373917553e+00 -9.224742795483471813e-02 -2.337934991770091564e+00 1.288614975714361954e-01 -8.608012652993082270e-01 -7.826474423626155197e-01 -6.963093992923747866e-01 1.453273135281306916e-01 -1.613323476565703407e+00 6.908948506797255029e-02 -2.672155229198097115e-01 -1.068236091087496620e+00 -1.016322996466620734e-02 2.191838267607205959e-01 -1.204268766626284348e+00 -6.718724602202659213e-01 -1.728251762747778919e+00 1.422167388261255550e+00 5.098724006062809178e-01 3.460448030191676239e-01 8.453789658403013663e-01 6.896258043102659885e-01 -1.488380507434761413e-01 -8.729842419304864043e-01 3.867320795255181354e-01 -4.702297222965830942e-02 1.073968234872733740e+00 -8.108356896060705532e-01 -5.913877409598340407e-01 -1.047520499832771845e+00 1.219573320960302798e+00 -1.216176265119724764e+00 1.786147504820695953e-01 1.623769746847582462e+00 -7.359454039615510590e-01 -2.492723672943220614e-01 -7.682399490829838751e-01 -1.347822841050981602e+00 2.367899934398194628e-01 -1.247677344381713960e+00 -8.640421866328542588e-01 1.133460954565136181e+00 7.542583504590768539e-01 -2.172587635678449480e+00 1.780105367963843443e-01 -2.387248274427370420e-01 -5.078016933267651689e-01 1.015657032806503990e+00 2.590694123469449717e-01 -5.050525470165049269e-01 -6.312556540711536379e-02 1.147749849491067842e+00 3.622751965211755132e-01 1.432355494582038480e+00 -1.612564325015614364e-01 -8.078045111094321884e-01 1.019129781645599531e+00 7.055488009887237455e-01 -1.781631425349276083e-03 -1.499253096226257798e+00 -2.666396723949152059e-01 9.587182869530085361e-01 1.513337682544461105e+00 8.614613026712626409e-01 4.070968032122621039e-01 -9.786962919031071406e-01 1.546637234611321077e-01 -5.658964718038564934e-01 7.030658723403920840e-01 9.922496450617279695e-01 -3.211914523041795588e-01 -8.306054059884946383e-01 -6.702043305434005060e-02 5.368154963029224680e-01 3.381336422384802476e-01 -1.788344786485049631e-01 -1.897934031272809685e+00 -3.214077301267392439e+00 4.774735526896713989e-01 4.787062261395901297e-01 1.119224683844052048e+00 1.772132174815084504e-01 3.668358589959558325e-01 8.275742022494975147e-01 -4.037577675523084109e-01 9.912077591683186029e-01 -8.673950334948999918e-01 3.286031081913260987e-01 4.708105476718993376e-01 4.438277394943007104e-01 8.447355174018652546e-01 2.180489887392769166e+00 -1.823242034965183000e+00 2.250731174832562853e-01 -5.367839515484148366e-02 -1.521580333921678241e+00 1.263414313233797992e-01 8.671786548738502631e-01 7.164009152052919216e-02 -1.428885372454842928e+00 -1.099286697527684931e+00 -2.381503343806267381e+00 -3.024422071347297458e-01 5.222511482140953509e-01 9.591835943593743918e-01 -3.062550301498778715e-01 1.507992580540181482e+00 -3.270806661326741138e-01 -1.337767946308107581e+00 1.947129184152018189e+00 1.777991054913747426e+00 -3.457580441508681379e-01 -3.166894482909486386e-01 -4.829867790565126051e-01 -2.871160704158831622e-01 -1.816093271961317646e+00 -9.130040835162946122e-02 -1.221728377810025190e+00 -8.928375142510132090e-01 -9.548085988044010541e-01 -2.645795526250242502e-01 4.341450146903281793e-01 -1.901326263637971525e+00 -6.728574794328926467e-01 5.637473733601403580e-01 9.383497287809107190e-01 -7.180772298282804833e-01 1.164284105224060034e-01 -1.465212353734323569e+00 2.169985727750139148e-01 8.933005031292172438e-02 -2.263146683418590377e-01 -6.105848293461201282e-01 -8.211555247166658633e-01 4.469379781439446475e-01 3.919549330449360602e-01 -1.482271548048508691e+00 1.186702984775596104e+00 -1.816737644199178714e+00 -1.670806824766560839e-01 1.392334775045076745e+00 -2.315275916000724354e+00 6.924106661960162112e-01 -2.533372600048193202e-01 9.861999834743891968e-01 -4.056086583019018477e-01 -1.255398940430452859e+00 -2.320101171191698342e+00 7.777901162971810889e-01 -5.075689303594601576e-01 3.252859800985065664e-01 1.374346066083848295e-01 -4.267539046746720577e-01 9.690521560374534271e-01 -7.192685286696224312e-01 6.326280257481056157e-01 -1.679388383796225348e+00 -8.308562387624276457e-01 -1.386139364993663969e+00 -4.451092479855676687e-01 1.635902711489998884e+00 -3.236336233209633484e-01 -1.239057366975723884e+00 1.487221797892721575e+00 -1.306912399008745229e+00 -2.465110379584970757e-01 9.195441648498440257e-01 -9.819105512467837249e-01 -1.002595353997980832e+00 -9.919388812856568816e-01 -4.916194486886973913e-01 -1.321570634648259190e+00 -8.978529031385293901e-01 2.895505979699209420e-01 -2.784500946177320690e-01 1.981307979335792835e+00 1.297475089719554164e+00 -7.009660874836965982e-01 -1.865454578545421738e+00 1.963300938086004754e-01 5.193921990466002780e-01 1.334082494578335387e+00 -2.575480105806112197e-01 -2.131172992857494619e-01 1.015605526350938786e-01 -1.339705743169234742e+00 2.148691073042398703e+00 -1.538580627635537823e+00 1.095127378363931037e+00 1.333794078508632186e-01 5.596460723108939161e-01 -7.385889376518243177e-01 -3.192950097961512190e-01 2.165393012328630018e+00 -6.899625347321126645e-01 -1.317340475868131522e+00 1.127710540273222595e+00 -7.137842751367078353e-01 1.085600143558979047e-01 -7.605162569432857289e-01 2.115094009423982069e+00 1.693540183215699990e+00 -3.910955904720945231e-01 -6.859206664956515320e-01 -1.101385461074240846e+00 -7.639905195170572094e-01 2.149473930211387163e-01 6.109813991649627463e-01 1.108028260147063682e+00 -2.578702675944919975e-01 -8.724664488110290064e-03 1.058840789699088958e-01 5.074270817861075145e-01 1.821771466742039269e+00 -1.285283656679821584e+00 -1.180333748018253859e+00 -9.596683804157851716e-01 -8.138014483858067027e-01 -6.811084298952699845e-01 -3.723764023127153489e-01 -5.738723480370358510e-02 3.423297047826739381e-01 -6.383147742097063926e-01 -5.080416422761776518e-01 -2.319531939953323463e-01 -4.434341306135387573e-01 -6.006452387716573194e-01 -6.672439849949723945e-01 -7.319187171043329831e-01 1.640912928090078049e+00 -3.350373528990432392e-01 4.463288275396631311e-01 6.932917853036131284e-01 -5.929414948223520332e-01 -8.544228417038083334e-01 8.216905688221110005e-01 1.017799927038323782e+00 -1.255422941606534115e+00 -8.001789866400795814e-01 -1.530170513873546190e+00 6.286174342313582963e-01 -8.674301539913414905e-01 -4.289916992231870840e-01 8.911498670946774170e-02 3.840684755822171281e-01 -1.741505825054510681e-01 1.085238748463509983e+00 -1.946317249125149695e+00 9.185641500798469306e-02 -4.198494827318398626e-01 -5.308713659489001646e-01 -1.725508567100299651e+00 -1.054136759415270186e+00 1.297070741038515163e+00 4.740146390867940318e-01 5.108702962112828816e-01 3.410343059427531354e-01 2.028090517723806219e+00 -1.221698097068937061e+00 -6.598286549703369364e-02 -3.548187811998554930e-01 -1.028011626105372445e+00 -8.825402254265432012e-01 1.298289566555766328e+00 1.614321987679100623e+00 -1.018166609909482156e+00 6.590223338020679833e-01 -1.338816431724525469e-01 -8.831969863411629484e-01 -6.475908581603432301e-01 -1.065124437562160242e+00 